3000 128
<pad> -6.357416 -0.837445 -6.671273 2.293609 5.132215 4.117855 3.595597 -2.997154 -5.682214 -4.153248 -7.974099 -0.328341 0.113091 -2.272013 -4.940352 -2.358138 -4.852497 -5.687808 4.702536 -7.387746 -12.891031 5.235559 0.342039 5.488999 1.612321 1.398703 -2.011492 -4.612519 7.097315 7.407788 0.985032 -2.692927 -6.562277 -1.006154 -1.211692 -1.822334 0.462357 13.016513 17.513235 -7.961079 -4.817127 1.590596 6.500042 5.183339 -12.660213 -0.722128 2.180739 7.455227 -1.319393 -5.141604 -25.680630 3.737389 -7.404577 6.424951 -3.210709 5.801883 1.871250 -3.333212 -10.911603 -4.484025 4.746139 -0.440242 -0.640223 20.019617 -0.168018 -1.552763 -3.322164 -2.807435 -4.561822 2.405977 -1.822561 -5.055461 5.523284 -4.991035 -1.444445 0.045449 2.938211 -1.706501 -6.902057 -3.122862 6.310554 2.038180 -1.254260 -0.493826 1.538819 -8.522552 -1.142463 -9.491632 -10.976122 -0.219724 3.181054 -0.047114 -0.028175 3.530723 -4.658082 -7.492698 6.188303 -4.903533 8.974042 1.070045 2.616937 5.197821 -1.075599 6.072597 -3.693057 -1.563511 -3.584476 2.786461 7.392196 -11.305783 5.563194 1.503194 4.817763 -2.861196 11.213027 2.432918 2.675747 -19.038588 -1.170932 13.515147 -32.993134 5.796096 5.031081 -2.660834 12.057479 -0.416221 -6.285508 0.360895
<start> -0.073760 -0.034733 0.040351 0.011469 0.027808 -0.025379 -0.003303 -0.007746 -0.175931 0.014406 -0.015892 0.044109 0.684079 -0.044193 -0.029372 -0.095419 -0.012911 -0.018277 -0.023191 0.029530 -0.057254 0.711570 -0.030574 -0.287742 -0.018917 -0.018395 -0.078216 0.368568 0.446647 0.057343 0.024738 -0.126379 -0.901792 0.031439 0.007783 -0.001336 -1.073913 -0.100365 0.003951 0.008171 0.139015 -1.261568 -0.061803 -0.375126 0.130491 -0.024860 -0.357976 -0.692200 0.680101 -0.022870 -0.026033 -0.006221 -0.029460 -0.007176 0.073227 0.083598 -0.009535 0.018600 0.010282 0.035189 -0.045981 -0.017521 0.000250 -0.000507 0.053702 -0.004884 0.480439 -1.100368 -0.003420 0.003695 -0.007307 0.030776 -0.447398 0.111681 -0.023303 0.119161 -0.027783 -0.384561 0.019404 0.022565 0.012654 -0.137736 0.033808 -0.009674 -0.006930 0.988646 -0.041185 -0.039559 0.039476 -0.022737 -0.020948 -0.091858 0.019650 -0.020785 0.023275 0.168851 1.804333 -0.043278 0.013805 0.548229 0.040432 -0.028784 0.029064 0.049870 -0.062583 0.341966 0.023239 0.013934 0.044845 -0.076958 0.010150 -0.412250 0.036969 -0.008728 -0.945919 0.197470 0.003545 -0.020596 0.004116 0.430777 0.025253 0.038284 -0.688595 -0.038105 0.254086 0.601470 -0.118630 -0.024657
<end> 0.899799 0.035118 0.223950 0.041449 0.035813 -0.097268 -0.100931 -0.101572 0.175049 -0.039076 0.183683 0.028582 0.064171 0.033626 0.023566 1.183387 0.112270 -0.019292 0.027904 0.008967 -0.006513 0.368664 0.097253 -1.354969 0.007013 0.032024 0.033223 -0.091584 -0.018296 -0.019035 0.014398 0.008550 -0.733774 0.007377 -0.010448 0.023629 0.949754 -0.018934 0.008007 0.044703 -0.007273 -0.132859 0.022248 -0.333224 1.041683 -0.071498 -1.001371 -0.774035 -0.117549 -0.034644 0.122404 -0.117669 0.110791 -0.034869 0.004348 0.019778 -0.013376 -0.009322 -0.021267 0.110073 0.152672 -0.085055 -0.007949 -0.018223 0.130720 -0.022439 0.480139 0.757336 0.004659 -0.111197 0.027476 -0.023531 -1.439326 0.012607 0.039446 0.753408 -0.055171 -0.341499 -0.050918 -0.023707 -0.007376 -0.119569 -0.020930 -0.033155 0.022309 -0.448552 -0.035049 -0.028761 0.084066 -0.086690 -0.044884 0.048213 -0.010218 0.033989 -0.042363 -0.577788 -0.363920 -0.012064 -0.032109 0.333020 -0.041141 -1.250015 -0.022319 -0.010427 0.069157 -0.508314 -0.022595 0.062788 0.095739 -0.009260 0.022803 2.368686 -0.031603 -0.027712 0.740790 -0.011564 -0.083033 -0.405467 -0.037014 0.633958 0.031872 -0.019080 0.014640 0.023397 0.471281 1.527826 0.519075 -0.003862
<unk> -0.002330 0.005131 0.012460 0.013062 0.011129 0.025274 -0.003191 0.014664 0.007294 0.000380 -0.013802 -0.012787 0.082840 -0.049052 0.005692 0.010274 -0.009682 -0.000817 0.018452 0.016092 0.006382 -0.000117 -0.041881 0.061654 -0.019347 0.016066 0.008585 0.088784 -0.326490 0.000271 0.008117 0.010537 0.005943 -0.003851 -0.000037 -0.000704 0.008479 -0.061129 -0.000699 0.033592 -0.020754 0.011766 0.004083 0.002473 0.002425 -0.014132 0.041338 0.032289 -0.014682 -0.005701 -0.010038 -0.014929 0.003144 0.000500 0.003772 0.005632 -0.017263 -0.002281 0.009647 -0.001018 0.004477 0.003302 0.005513 0.025233 -0.002042 0.003312 -0.000803 0.013557 -0.004886 0.015706 0.014368 0.027564 0.021167 -0.006926 -0.006363 -0.014102 0.005831 0.334877 -0.008267 0.013831 0.003487 -0.013489 0.001027 -0.007265 -0.022601 -0.006778 0.022419 -0.010701 -0.001782 0.004789 -0.019545 0.006418 0.023701 -0.017591 -0.013277 -0.007791 -0.001530 0.010708 -0.007924 -0.045342 -0.010717 -0.003650 -0.007828 0.005011 -0.008541 -0.020384 -0.007553 0.003003 -0.009109 -0.002969 0.000393 -0.040181 0.001636 -0.000967 0.064009 -0.009301 0.003784 0.016958 -0.010532 -0.129262 0.008501 0.015038 -0.000411 0.002735 -0.345201 -2.211488 0.032385 0.012934
the -0.038425 0.198321 0.018776 -0.013163 -0.009010 0.148514 0.018661 -0.198752 -0.091938 0.070509 0.075058 0.063384 0.389521 -0.161124 0.057317 0.973059 -0.158006 0.045454 -0.013368 0.040224 -0.017044 -0.145049 0.185732 -1.428963 -0.088997 -0.041755 0.120400 0.128938 0.222352 0.314556 0.048263 -0.031031 -0.445181 -0.013634 0.014049 -0.014312 -0.250311 4.249071 0.021319 0.080967 0.014790 0.019061 -0.133991 0.222434 -0.390037 0.013922 -0.005364 2.444708 0.129129 0.004020 0.040742 -0.071991 0.014887 -0.094007 -0.005882 -0.035825 -0.083468 0.058549 -0.035767 -0.052581 0.020155 -0.034966 0.014288 -0.087933 0.041363 0.010053 0.303265 1.389610 -0.002838 -0.166500 0.002216 0.114623 0.155711 -0.028776 -0.012853 -0.507321 -0.120360 -0.564720 0.017157 0.030458 0.001180 0.027314 -0.026578 -0.000516 0.029694 -0.543156 -0.052712 0.150752 -0.048735 -0.201921 -0.138823 -0.000549 0.024450 0.000038 0.005352 -0.006947 -0.889501 0.022862 -0.038046 0.032438 0.003174 0.080405 -0.104947 -0.024793 0.002072 0.364456 -0.002256 -0.020664 0.065224 -0.065071 -0.015658 -1.995407 -0.045980 0.033944 1.075649 0.039894 -0.022527 0.130125 -0.010532 -0.306720 0.231767 0.168574 0.055293 -0.017906 -0.877506 2.328247 0.040217 0.047973
and -0.887054 0.086515 -0.018150 0.011209 -0.269811 -0.014497 -0.008831 1.267096 -0.182318 0.048770 -0.205314 0.009510 0.679341 -0.667646 0.028392 -0.544931 -0.117664 0.039747 -0.025741 -0.017094 -0.018066 -0.285262 0.155906 -1.568167 -0.085971 -0.044948 -0.012713 0.102422 0.704531 0.390534 0.027151 -0.165790 -0.089063 -0.033056 -0.043271 0.046762 -0.268698 -0.178901 0.024304 -0.069786 0.035889 0.283049 0.008172 -0.865699 -0.481164 0.018363 -2.215092 0.868336 -0.022067 0.038319 0.098110 -0.060677 -0.020524 -0.018649 -0.033129 -0.008502 -0.011845 0.143340 -0.017913 -0.439559 -0.044544 0.056392 -0.012335 -0.085054 0.033269 0.008983 -0.014005 -1.490654 0.049268 1.265606 -0.016597 0.028643 -0.328786 -0.048656 -0.025497 -0.697386 -0.031017 0.045149 -0.029478 -0.028252 0.008154 -0.141960 -0.005033 0.022486 0.057586 -0.125599 -0.049305 -0.543830 -0.046686 0.221397 0.020927 -0.118002 -0.322724 -0.038922 -0.005752 -0.040890 -0.521946 -0.001868 -0.018689 -0.365686 0.027125 0.197443 0.019527 0.004055 -0.144535 0.070505 0.019513 0.033877 -0.005857 0.009701 -0.087396 3.253039 -0.016387 0.019909 -2.585029 -0.013125 0.422771 0.068789 0.005840 -0.670350 0.173075 0.145745 -0.003408 -0.028111 -1.197560 1.784060 -0.066893 0.034130
of -0.070625 -0.924292 0.033654 -0.005528 0.000594 -0.196854 0.022362 0.481321 -0.213486 -0.091386 -0.015654 0.009614 -0.342936 -0.026833 -0.021639 -1.145154 0.109686 -0.002745 0.008421 -0.018083 -0.056565 0.557320 -0.210122 2.145959 0.114780 0.010755 -0.171316 -0.063809 0.432287 -0.434375 -0.032974 0.009098 1.251586 -0.012353 -0.056469 -0.002331 0.971237 -0.617065 -0.020875 0.116508 -0.030755 0.044429 -0.047744 -0.540292 0.723958 -0.038750 1.057438 -3.269268 -0.382921 0.016047 -0.030729 -0.139121 0.023598 0.026089 -0.089148 0.012795 0.025903 0.163881 -0.015657 -0.183563 0.043998 0.055452 0.082448 0.047287 -0.008551 0.053626 -0.257061 0.522147 0.077675 -0.065706 0.018648 -0.013398 0.209707 0.037050 0.008694 0.479222 -0.059848 -0.301015 -0.015153 -0.087204 0.060367 -0.025736 -0.055187 0.000077 -0.014567 2.408319 -0.049360 -0.351980 0.040317 0.085790 0.013476 0.026456 -0.025321 0.007170 0.026237 0.007304 1.265584 -0.035481 0.026557 -0.049691 -0.017697 0.140209 0.021066 -0.040754 0.095325 -0.570424 0.106741 0.007136 -0.005987 0.031516 -0.068559 1.633707 -0.026941 -0.048669 0.461381 0.010363 -0.207059 -0.062878 -0.069448 -0.552854 -0.125611 -0.179021 0.125574 0.009534 -0.113581 3.226720 0.025528 0.016940
to 0.562696 0.010648 -0.052943 -0.027931 -0.030589 0.140612 -0.039949 1.113558 0.068525 -0.095242 0.323317 -0.024524 0.985871 0.193461 -0.085346 0.325830 -0.415799 -0.066360 0.013802 -0.510901 0.066079 0.247654 0.601624 0.251678 -0.247207 -0.093584 0.066388 -0.169996 -2.924732 -0.253887 -0.012414 0.494723 1.154780 -0.060807 -0.089217 0.157639 0.294537 1.575378 -0.207432 -0.014881 0.079885 0.096976 -0.011541 -0.976957 0.167896 0.001586 -2.383399 -1.905519 0.007587 -0.157467 0.034326 0.807517 0.174583 0.050959 0.360584 0.919809 0.003036 0.000747 0.000890 -0.331246 -0.043884 -0.396192 -0.033342 1.914615 -1.795714 -0.108878 0.390616 0.180007 -0.008688 -0.015581 0.027685 -0.088393 1.487826 -0.232281 -0.047647 2.291689 1.531667 -0.462047 0.150771 -0.001022 -0.004796 0.639051 -0.013802 -0.024829 -0.062222 -0.349778 1.008708 -0.110740 0.043154 -0.198487 0.285100 -0.024538 -0.032877 0.110967 0.008075 0.004702 0.264458 -0.000607 -0.023122 0.045711 0.134546 -0.005072 -0.156601 -0.015526 -0.086128 0.510100 0.011078 0.128402 0.026581 0.387728 0.841006 1.192165 -0.010404 0.155639 -2.239122 0.054794 -0.009831 -0.421490 0.008082 -0.000109 0.342134 0.356284 -0.004713 -0.037346 -1.518168 3.653071 -0.108527 0.241236
a -0.446403 -0.286944 0.108502 -0.094948 -0.013688 0.267190 -0.011531 -0.098272 1.434449 -0.044269 0.083314 -0.190436 -1.353176 0.289008 0.012338 0.609083 -0.114037 0.254624 -0.049572 0.126049 -0.028977 -0.286715 1.864676 -2.571791 -0.020291 0.045563 -0.063793 -0.312890 0.333874 0.339824 -0.026667 -0.057710 -0.062427 -0.107523 0.004525 -0.038064 -0.170696 0.098919 -0.004458 -0.019622 -0.213177 0.040129 -0.043344 -0.919963 -0.291406 0.060486 -1.180169 -0.417345 0.206173 -0.027005 0.006198 -0.017013 -0.358123 -0.199746 -0.160265 0.360521 -0.086528 0.058784 -0.018929 -0.021636 -0.000704 -0.437634 -0.052708 -0.061900 0.054889 0.051542 0.258593 -0.089216 -0.466335 -0.174048 -0.057189 -0.016851 0.068267 -0.043321 0.015433 -0.296439 -0.170290 -1.019865 -0.168961 -0.105099 0.093788 -0.280794 0.020228 0.023404 -0.032332 -0.315346 0.574111 -0.886176 -0.263647 -0.109183 0.231105 -0.039560 0.034971 0.119925 0.047879 0.122298 2.651838 0.040093 0.086320 -0.280675 0.102967 0.036437 -0.203919 -0.012380 0.220553 -0.017151 -0.190951 -0.215261 0.074762 -0.021916 -0.183297 -1.109205 0.003188 0.078307 1.320913 -0.352310 0.027288 0.027173 -0.030045 2.713460 0.341697 0.090008 0.918229 -0.023947 -1.624880 1.060441 -0.365500 0.135045
in 0.518841 0.066308 0.049816 -0.025266 0.099305 0.046271 -0.584526 1.549299 -0.196435 -0.061933 -0.029856 -0.061713 -2.693023 -0.559419 -0.899085 -1.129993 0.135269 -0.089504 -0.189958 -0.018869 0.392433 -0.462359 -0.546554 -0.946225 -0.143866 -0.235934 -0.155497 -0.253290 0.803664 0.014872 0.089070 -0.332623 -1.015224 -0.009712 0.084578 0.291312 1.181404 -0.428465 -0.067149 0.200760 -0.004975 0.342137 -0.232883 1.530482 0.433419 -0.430846 0.454330 -1.893574 1.062602 0.114633 -0.332331 -0.157191 -0.222341 -0.163892 0.587005 0.013338 -0.107163 -0.086561 0.097103 -0.422331 -0.127117 -0.424253 -0.004502 0.511512 0.029426 0.117584 -0.091047 1.274141 -0.587998 0.877689 0.114483 -0.136344 0.134374 -0.089334 -0.111630 0.831644 -0.102763 0.997190 0.096486 0.222739 -0.183873 -0.137646 0.467238 -0.195468 0.011157 -0.325422 -0.099482 1.294332 0.735587 -0.588084 0.173770 -0.152091 0.126261 -0.012434 -0.265774 0.026830 -1.259642 0.156666 -0.089341 0.716945 -0.026328 0.367697 -0.069698 0.305030 0.023083 -0.727953 0.345236 0.118160 0.062998 0.064465 0.379821 0.130423 -0.078252 0.181218 -1.925205 0.294205 0.502177 -0.395729 0.299413 -0.644444 0.366032 -0.141080 -0.205256 0.014670 -1.580270 1.989457 0.207020 -0.173717
i -3.034456 -0.345271 -0.809313 0.889969 0.387280 -0.389618 -2.512863 1.682892 -0.579215 -1.640565 -1.408930 2.377045 0.650831 -5.025152 0.595257 -0.643572 -2.133257 0.584984 -1.409477 4.338794 -0.604373 2.496643 2.793531 -0.453195 -1.048259 0.534217 0.756632 4.056907 1.887556 0.754142 -5.616748 -1.521985 -0.338453 0.157003 0.389015 1.385311 2.574183 -0.907005 -1.452289 -0.331824 0.526797 -2.519419 -0.750872 1.806316 2.514934 0.356224 -2.288827 4.099269 3.664502 4.248630 -0.825637 1.029785 -1.608883 -0.309499 -2.800419 -0.867454 -0.368712 0.564612 -1.369721 0.309177 -0.080898 -1.202626 2.296335 -1.902863 0.210979 -0.446754 -2.069423 0.556788 -0.421790 0.756065 -0.292576 2.217710 -2.301599 1.794125 -0.176232 0.836378 2.584742 1.898717 -1.173457 -0.404562 -0.560406 0.533773 0.865028 -0.974894 -1.273388 3.769903 -1.588708 -1.573564 -2.099918 0.105148 -0.321352 0.764627 -0.580857 0.104768 -2.103546 -1.657015 0.421988 0.202138 -0.245979 2.555706 0.390659 -0.301212 -2.647295 -0.505159 0.841064 1.290822 -1.149149 -0.162222 -0.210464 1.405109 0.024300 -3.761081 1.878766 0.242599 -1.509614 1.876709 0.622556 -2.220848 -1.326036 2.750190 -0.763694 -0.939140 -0.687372 0.775264 0.137657 -2.669885 1.082983 -0.564078
he 0.778870 0.073256 0.480761 -0.052561 -0.251210 -0.296617 -0.073359 -0.734170 0.162259 -0.081129 -0.498085 -0.372354 -0.726840 1.155126 0.314785 0.138401 0.848937 -0.059846 0.476179 0.008358 -0.816680 0.459923 0.669243 -0.279194 0.209856 0.247582 -0.243245 -0.658254 0.878110 0.034505 -0.310622 -0.513714 -0.332132 0.043962 0.442324 -0.133636 0.156730 1.613117 -0.226420 0.223779 0.010670 0.476988 -0.215840 0.172356 1.799177 -0.836743 -0.670305 -0.881217 -0.183481 -0.390814 -0.354449 0.174795 0.795369 0.534088 -0.063426 0.466819 -0.068636 -0.672633 -0.588435 0.445517 -0.185201 -0.825628 -1.263386 -0.208389 -0.253915 -0.076218 0.337052 -0.088812 -0.433527 0.633211 0.005812 0.508929 -0.089057 0.229046 -0.133811 0.703264 -0.379292 -0.123012 0.482330 -0.471107 0.708515 -0.495943 0.568502 -0.029077 0.783790 -0.212073 -0.000069 -0.857747 0.064890 0.309542 0.493565 0.635854 -0.149554 0.486751 -0.112369 -0.754589 0.154039 -0.433046 1.153406 -0.143000 0.052397 -0.590935 -0.465072 -0.195325 0.237889 2.167167 0.583755 -0.055055 -0.259910 -0.140021 0.140522 0.437454 0.091429 -0.207231 0.540349 0.399787 0.750882 0.154814 0.144747 0.027514 -0.359116 0.616330 -0.616601 -0.169462 -0.312923 0.792026 0.428824 -0.070295
that 0.566144 -0.650087 -1.457653 3.197285 1.873826 -0.332771 1.158906 0.757565 0.912790 -1.055729 1.715996 -0.170907 -1.894147 -1.096932 -0.097578 -0.220583 0.595502 -0.413656 0.363786 0.278375 0.898801 1.252030 0.529670 -0.947934 0.345562 -0.880634 0.078822 1.890596 0.724123 -0.323392 0.297193 1.784530 1.683393 -0.103927 0.065557 0.137332 -1.681770 -0.313363 -0.956329 -0.232014 -0.949706 -0.415467 1.810830 1.229724 1.137699 -0.163574 -4.222045 2.032737 0.520729 1.131333 -0.315751 -0.065726 -0.041245 -1.351137 0.293336 -0.193410 0.841893 0.607553 0.199412 0.967849 0.945438 -0.810016 -0.399952 -0.280090 1.434524 -0.254200 0.496888 1.340081 -2.956094 -1.017136 2.248561 -0.810367 0.426340 1.261417 -1.323921 0.678027 -1.240981 -0.538001 0.060866 -1.148804 -1.526833 0.559739 1.024657 0.592294 -0.341497 2.708787 0.059308 -0.150088 -0.335855 -1.115991 0.246308 0.980473 1.300350 1.018289 0.308536 2.486939 -0.364785 -0.879268 0.968577 2.455202 -0.165300 -2.218568 0.514839 0.907327 0.386950 -0.010122 0.225423 -0.162441 -0.153901 1.671872 -0.865341 3.629061 1.981869 3.321683 -1.492605 1.202052 -0.256240 1.866405 0.063067 -0.820971 -1.677388 1.824901 0.249024 1.755274 0.197458 0.327491 -1.822908 1.481922
his -0.801384 -0.831146 -0.083716 -0.077406 0.793786 -0.069180 -0.255988 -1.573636 1.835127 -0.190600 0.064441 0.022216 0.159920 -0.022179 -2.423384 -0.173065 0.421040 1.576916 -0.137845 -0.116337 -0.223262 -2.347733 0.851013 -0.414044 0.516803 0.869334 0.868567 -0.500654 -0.082257 1.758582 -0.022883 1.113531 -0.412085 0.144557 0.326433 0.754850 -0.424042 1.836197 0.620967 0.678505 -1.626486 -0.985691 -0.486072 -1.296249 -0.463734 -1.659104 -0.030906 -0.273008 -0.077840 -0.332706 0.208296 -0.281774 -1.690776 -0.071170 0.019903 -0.602741 0.130804 0.315871 -0.017978 0.005871 -0.026634 -0.135212 -0.145171 1.713453 -0.509869 -0.447880 0.702841 0.485395 -0.125849 1.923581 -0.127671 0.056972 -1.081027 0.367092 0.016694 -0.487200 0.712048 -2.845623 -0.166772 -0.431685 -0.365211 0.314184 -0.285609 -1.025732 -0.507420 1.202501 2.193388 -0.396852 -0.303476 -0.987528 0.156546 0.522503 0.708438 -0.596081 -0.551245 2.502373 -0.705932 -0.237896 -0.078776 0.401868 -0.200216 0.204904 0.834512 0.377177 0.452944 -0.081330 0.352013 0.061270 -0.550290 0.150300 -0.160777 0.259536 0.486079 0.239937 1.246098 -0.386674 -0.837060 -0.266347 -0.329334 0.464526 -1.134656 0.534935 1.312406 0.101056 -1.107636 0.275037 -1.814999 1.282657
was 0.455783 -0.187950 0.642398 0.343243 0.469099 -0.635973 0.638112 -1.075665 -0.969548 0.093861 -0.556376 -1.015894 0.286532 -0.646670 -0.761882 -0.420848 0.939206 -1.491464 -1.252000 -1.975838 2.371475 0.170517 -0.876642 -0.179449 1.435479 1.758447 0.567491 -0.819930 -1.487825 -0.312150 -0.818199 -0.202205 0.441745 0.069512 0.360499 0.992631 0.963854 -0.333950 0.508541 -0.984199 0.321871 1.073777 -0.440674 -0.082011 2.810085 -0.594073 -2.752310 -2.180660 -0.742441 -0.485622 0.380923 1.325798 -1.184070 0.258875 -0.720155 0.026494 0.005175 0.408719 0.048522 0.590990 0.592349 -1.092892 0.151257 -0.510386 -0.016026 -0.681133 -3.127444 -1.390462 -0.765939 -0.070502 0.416129 0.226037 -0.837212 0.135054 0.043222 0.942658 0.091930 0.506209 0.135757 1.868909 -0.338032 -1.417138 0.790759 1.432287 -0.016488 -0.435068 -0.715364 1.179862 1.806284 0.346500 0.956866 0.905695 -0.563564 -1.675194 0.067869 -1.772921 3.687576 0.242672 1.345002 -0.125710 -0.674791 -2.582759 2.358979 0.935462 0.967792 -0.449598 1.153128 0.099447 -0.744934 1.472748 1.973864 -0.462337 -0.293021 -0.035530 0.232903 0.148497 -1.378838 0.334207 -0.231061 -0.547358 -0.460143 1.695276 1.058452 0.705580 2.016076 -2.406476 0.153173 0.518143
it 1.140446 0.624577 0.039167 -0.045833 -0.028016 0.052836 0.088726 -1.084810 -0.741003 -0.135476 -0.027945 0.331056 -0.667865 2.753247 0.115335 -0.784928 -0.814903 -0.002393 0.053392 0.017137 -1.291624 -1.596675 -0.295182 0.633117 -0.259380 -0.024364 -1.310092 0.299792 -0.462431 -0.269614 -0.637652 0.177341 -1.111377 0.063859 -0.287559 -0.183722 0.701451 0.737459 -0.047179 -0.082600 -0.874931 0.233644 0.456947 -0.766091 0.056102 0.375006 1.155417 1.129062 -1.080200 0.373392 0.236564 -0.351809 0.338581 0.438559 -0.291852 -0.132093 -0.187354 -0.049429 -0.028253 -0.240826 0.101144 0.570066 0.558506 0.299761 -0.028365 -0.141707 -0.673609 1.317195 0.456682 0.352190 -0.130472 -0.076332 1.461788 -0.425984 0.129691 -0.329715 0.641027 -1.743096 0.387140 -0.224002 0.532259 0.592523 -0.108042 0.214367 -2.560284 0.471346 1.109906 0.240414 -0.041824 -1.058091 0.691551 0.562753 0.114276 0.269583 -0.766497 0.362442 -1.212774 -0.114800 0.068433 0.151109 0.216305 -1.432828 -0.024461 -0.217742 0.076652 0.718422 -0.866223 0.025396 0.023264 0.030780 0.248803 -1.364346 0.129440 -0.169056 1.552993 0.191192 0.682375 1.267794 0.137425 0.899688 -0.284804 -0.179530 -0.933665 0.031620 1.998911 -1.085924 -3.247991 -0.316281
you 1.642622 -1.860800 -1.642429 3.160819 2.024760 -0.951200 2.931357 -0.415090 -3.737358 -0.508850 -0.618043 -3.961715 1.294715 0.164423 -2.422736 5.216713 -1.438822 -2.801874 1.033185 -2.278126 0.100313 1.507407 -1.312353 1.976081 0.296533 -1.013252 0.304297 0.054327 0.103849 -2.072230 2.102072 1.451504 1.553320 3.643922 1.710950 -0.755101 -1.344858 2.312473 -2.066480 0.361628 -2.797365 1.901478 -0.367396 -0.709258 -3.416374 -0.030403 0.444541 1.943321 1.013654 0.201323 -1.920197 -5.031859 0.665648 -0.140995 -4.714477 0.266174 1.235812 0.706215 -1.472671 1.570245 4.178291 0.097210 0.038536 -2.793010 -2.447369 2.606480 0.379533 1.692607 -0.338171 4.809690 1.659297 -0.055730 -1.877236 0.416311 -2.663993 -0.470628 -2.120693 0.349636 -1.573630 -3.933064 0.904014 -0.635753 -0.873794 -0.117827 2.962628 0.969266 -4.776242 -1.666573 1.825819 7.469202 1.536306 0.171313 2.807798 -2.132030 -3.353726 -3.596952 1.373495 -2.905168 0.027591 -0.935721 -1.040645 3.676390 -2.291569 -0.313273 2.822023 0.865918 2.732420 -0.038928 -1.649330 1.663361 -1.367834 1.014248 -2.393199 3.109283 5.567803 -1.634234 0.596784 -2.056847 1.537126 5.537910 0.276148 4.343426 0.604684 2.124802 -0.660449 0.081107 -2.572831 0.015059
with 0.522307 -0.389638 -0.525570 0.152721 0.307182 -0.019020 -0.695545 1.384804 1.058994 0.394712 0.069130 0.043729 0.366491 -1.016457 0.162507 -1.116737 0.605942 0.148657 -0.116699 -0.062675 0.197760 -0.577423 0.615796 0.675036 -0.627543 -0.460465 -0.055713 0.106925 1.828697 -0.148754 -0.094900 0.239575 -0.905308 0.470877 -0.017623 -0.417440 -0.792397 -0.813471 -0.200303 0.079606 -0.252962 -0.511722 -0.240584 2.413424 0.235558 0.041463 -1.374804 -1.473851 1.740919 0.259333 -1.624492 -0.013370 -0.201549 0.983477 0.162899 0.462807 -0.047723 0.242591 -0.341887 -0.246313 -0.049467 -1.155581 -0.688251 1.548252 0.323123 -0.018688 -2.303595 1.417096 -0.162286 -0.110761 -0.260690 0.062141 -0.379081 1.047415 -0.012323 0.320949 0.926949 -0.050940 -0.030043 -0.553649 0.185070 0.691231 -0.183998 0.131483 0.204534 1.518324 -0.317001 0.931588 0.564592 0.248991 -0.970834 -0.775210 -0.093816 0.024106 -1.435480 -0.218190 -0.552864 0.574618 1.117045 -0.203461 0.261046 -0.443420 -0.423350 -0.171426 -1.385541 1.498585 -0.698594 0.099369 0.428641 -0.199898 0.635043 2.236652 -0.056962 0.434156 -1.899133 0.058333 0.537227 -0.316128 0.439720 -0.550303 0.490425 -0.173810 0.827343 -0.097906 0.292958 2.944134 -0.151622 -0.001790
is 1.129173 0.129943 -0.242407 -0.041522 -0.055093 -0.008682 0.044029 0.874294 -0.112380 0.179917 -0.090882 -0.035606 -0.353154 -0.043754 0.224878 0.206419 0.341515 -0.275126 -0.011775 0.166218 -0.121474 0.404038 -0.405141 0.237416 -0.169255 -0.121716 -0.728769 -0.060236 -0.223307 -0.117390 -0.028416 -0.044885 0.530318 -0.038290 -0.058121 -0.063096 0.209455 -0.597697 0.105331 -0.987065 0.093603 -0.192249 1.518473 0.858438 0.320380 0.046854 -1.777247 -1.517700 -0.034874 0.202375 0.108700 1.093559 0.029254 0.032852 0.384232 -0.031226 0.047563 -1.284054 -0.011811 -0.422785 0.297659 0.454241 0.103377 -0.479544 0.146482 0.141893 -0.452791 -0.363093 0.204474 -0.020208 0.013032 0.050706 -1.112981 -0.001018 -0.021330 1.250349 1.283382 1.709286 0.122118 0.032840 0.073271 -0.372044 0.265359 0.089705 0.093829 -0.457762 -0.178406 0.051731 0.472524 0.291281 0.142165 -0.365690 -0.126026 -0.008546 0.033508 -1.162117 0.112129 -0.031246 -0.003680 -0.470711 -0.009599 -0.900542 -0.146696 0.007744 -0.053195 -0.205500 0.248206 -0.308355 -0.021620 -0.325045 -0.068355 -0.028466 0.038603 -0.023882 -2.552377 -0.001977 0.696671 0.161607 -0.002331 -0.673663 0.318676 0.490954 -1.069229 -0.046958 1.165584 1.375854 0.312421 -0.029470
as -0.996120 0.405071 0.008330 -0.031508 -0.030477 2.533326 0.121314 -0.064077 -0.969500 -0.078885 0.705372 -0.076070 -0.097957 -0.598141 -0.021043 -1.118844 -0.158253 -0.033909 -0.257152 0.040303 0.240808 -1.736077 -0.686285 0.231322 -0.289258 0.003751 -0.403378 -0.039953 0.289606 1.638423 -0.055556 -0.222949 -0.507627 -0.096830 0.009158 -0.059687 -0.706263 1.069222 0.439041 0.000166 -0.033753 -0.751596 0.044177 -0.384016 -0.663034 0.184663 -1.241387 0.014741 3.236147 0.118209 0.012750 0.376534 -0.236586 -0.046365 0.528783 0.113584 -0.093463 0.221886 0.000161 0.139454 -0.903006 -0.345699 -0.014374 1.098517 -0.016130 -0.817305 0.640310 2.003297 -0.202941 2.636525 -0.001892 -0.461909 -0.404211 0.146557 -0.045503 0.134943 1.314480 -1.318696 0.071289 0.447375 0.129395 -0.404476 -0.210097 0.044654 -0.089298 0.037683 0.085243 -0.766825 1.104046 -0.868503 -0.206648 -0.002141 0.242211 0.397119 0.229083 2.297693 -0.716366 0.291556 -0.145269 -0.222625 0.019324 0.248425 -0.188295 -0.032735 0.244330 -0.173644 -0.776571 0.111515 0.040968 0.019651 0.018583 1.901467 -0.148559 0.076899 0.805208 -0.008238 0.731484 0.108602 -0.062571 2.897098 0.000633 1.072609 -0.194589 -0.042780 0.642072 1.900516 1.099001 -0.085689
not -0.117857 -1.299766 -0.849810 0.112649 -0.181552 0.412626 0.059690 1.470636 -0.062714 -0.597441 0.554963 0.166881 1.761522 0.517113 0.032545 0.536359 -0.098137 0.037064 -0.728080 -0.008719 0.888575 0.385020 -0.313321 0.052534 -0.758714 0.994258 0.327985 -0.847258 0.148863 -0.027930 0.194797 2.033194 1.091075 -0.174456 -0.554544 0.212941 -0.235126 1.015334 0.262541 -0.257763 0.063639 -0.447205 0.649901 -0.278717 0.557724 0.519949 -0.782239 -0.074342 0.226109 0.289317 0.418034 0.223074 -0.153801 -0.297034 0.256938 -0.420301 0.368878 0.156880 1.711718 0.871461 0.169571 0.596344 1.021675 0.047758 0.035682 0.172438 0.182761 -0.298167 0.254222 -0.137560 0.020669 0.218514 0.045201 -0.736390 0.142437 -0.635403 0.606013 -0.097976 1.382313 0.586088 -0.763969 0.729925 -0.621364 0.037606 -0.232934 0.219191 2.277600 0.808430 -0.072086 -0.171227 -0.118278 -0.704033 -0.297482 -0.084564 0.051188 1.207323 -0.511324 0.494372 0.647436 -0.264261 -0.038816 0.224403 -0.488422 0.240436 0.314098 0.851096 -0.388462 0.131903 0.083044 0.506653 -0.139687 -0.997655 0.008850 -0.459147 0.686588 -1.130632 -1.415659 -0.354472 0.027646 0.363821 0.010250 -0.399079 -0.006584 0.095469 1.038511 1.537271 -0.358165 -0.039691
for -0.041061 -0.324260 0.011818 0.145772 0.059493 0.853363 -0.021414 0.201260 -2.234347 -0.208781 0.035857 0.079505 -1.210077 0.092358 -1.202580 -1.040392 1.453645 -0.202062 0.202736 0.139251 -0.030095 0.657315 2.557369 -1.886567 -1.174760 0.026802 -0.038898 -0.151634 -0.422012 1.286484 0.072024 0.431497 -0.185542 -0.149822 0.008149 -0.024697 -0.980979 2.986411 0.149439 -0.019139 -0.727488 0.469763 -0.182786 1.034545 -0.440130 0.019031 0.039554 -1.203838 2.194799 -1.740741 1.460312 0.537635 0.094450 -0.306750 0.324711 -0.567427 0.261660 0.032789 -0.002779 0.460089 -2.141022 0.291552 -0.088314 -0.886138 -1.146939 -0.547440 -0.111893 0.554148 -0.057573 0.305233 0.080499 0.401420 1.555422 0.140576 0.044631 4.327232 0.725845 -1.588665 -2.116262 -0.842576 0.084903 1.037995 0.025059 0.439849 0.891117 -2.421185 1.081132 -0.610247 -0.114013 1.157957 -0.056038 -1.315028 -0.305309 0.109888 -1.260148 -3.007797 0.389310 0.012636 2.202192 -0.088450 -0.172608 -0.150943 1.932071 -0.796197 1.692006 0.587302 -0.286384 0.479652 0.008992 0.260498 -0.667173 1.400773 -0.277224 -1.024078 0.404389 -0.894222 -1.119464 0.858067 0.053848 -0.627161 0.905701 0.808625 0.010554 -0.757940 0.937697 2.004179 -0.688459 -0.106987
had 0.636564 -0.930340 -0.398741 0.164989 0.583083 -0.667246 0.043590 -1.627610 1.351805 0.658798 -1.646296 0.045777 0.742366 -0.686718 0.618985 -0.842728 1.204184 -0.151758 0.028869 0.134439 0.527896 1.116656 0.938804 2.030183 -1.007408 1.185592 3.083498 0.694452 0.391786 -0.308404 0.713809 1.271569 0.675192 -0.260057 0.140140 -0.479120 0.385334 -0.205712 -0.642421 0.652160 0.222979 2.141432 -0.546944 1.727926 2.391156 0.862851 -1.968648 -0.193930 -1.638706 0.636377 0.184232 1.119855 1.047889 1.104817 1.970145 1.536459 0.257819 0.728935 -2.125599 -0.456192 -0.337836 1.774952 0.065057 -0.785337 0.558996 0.597910 -0.304570 0.584302 0.891778 -1.238594 1.130972 0.613645 -0.881418 0.057482 0.025824 -1.712602 -0.071878 -2.088747 1.151017 -0.916434 -0.360828 0.233551 -0.189343 -0.184552 0.097188 0.950453 0.135677 -0.318292 0.941359 1.570827 0.273785 1.799443 -0.592890 0.294028 0.531840 1.010095 0.496403 1.245649 0.275472 0.814008 -0.049265 -0.762032 0.112818 -0.123011 -1.529034 2.719831 0.127311 0.272170 0.208333 -0.277937 -0.607396 -0.827536 -1.151141 -0.384200 -1.689390 -1.910011 1.676485 2.628041 -0.078603 -0.945379 0.876605 -0.421782 0.739428 -0.435425 1.942856 -1.780530 0.034259 -0.042631
but -1.228159 -0.188476 1.321823 0.006235 1.694831 2.232947 -0.048894 0.936693 -1.694328 -0.414772 1.103315 -0.430455 -1.288967 4.476941 -1.595492 0.563786 2.268124 3.349003 1.388091 -2.458885 -0.140678 -1.139177 -0.061424 -0.520270 0.088257 0.022548 -0.531315 -1.273107 -0.248769 0.281342 1.818045 1.009825 -1.205330 -0.153613 -0.441245 -0.098793 -0.486404 -0.133041 0.436468 0.937308 -0.410363 -0.259554 -0.055781 -1.884654 -0.814885 0.306796 -1.479217 -0.322754 -0.977310 0.839382 0.390484 -0.874436 0.943713 0.440125 -0.001496 -1.955923 -0.214092 -1.910010 0.414086 -1.422198 3.049522 0.933916 -0.941590 -0.646333 0.168879 1.365790 0.738751 0.150874 1.995236 -0.680338 0.340650 -1.329509 1.165509 0.766474 -1.519155 0.892516 0.330512 -2.113375 1.041079 -0.328989 0.174951 -0.236287 -0.458421 0.091059 0.029628 0.906877 -0.225453 2.861407 1.933563 -1.801040 -0.239162 1.781408 0.658721 0.062953 0.154133 1.101585 -1.995665 1.679235 2.714524 -1.930077 1.272335 -1.364149 3.412608 1.105150 -0.890080 -0.476066 -0.513052 2.575573 -0.813426 -0.189396 1.003325 -0.373411 0.782725 -0.244728 1.851578 -1.698967 1.125589 1.140107 1.310214 0.316598 -0.102804 -0.371960 2.341333 -0.414629 -2.453194 -0.150190 -3.052118 -1.029469
at 0.376813 -0.434727 -0.005379 -0.737235 1.180769 1.244385 -0.430295 1.547534 -0.182488 -0.285499 0.712976 -2.176589 0.386904 -0.080478 0.154964 -0.426896 -1.431335 -0.061590 -0.079241 -0.152070 0.166513 0.605809 -0.247324 -1.902120 2.782771 -0.003787 -0.123107 -0.708486 -1.041573 -0.015656 -0.126519 0.083288 0.522678 0.027372 -0.179466 -2.632826 -0.270000 -0.714481 -0.371658 -0.071944 0.034355 0.934302 -0.159010 0.319392 0.879438 -0.225227 -0.417384 -2.133929 1.880342 -1.995512 -0.070549 1.034736 0.060626 0.003694 -1.506335 -1.148385 0.049063 -1.153259 -0.727531 -0.179797 -0.435929 0.650976 -1.669096 -0.619919 -0.879599 0.221921 0.520178 1.798349 -1.788996 2.105446 0.010273 -0.123274 -1.342506 -0.870728 0.138234 0.046092 -0.085864 0.134074 0.228391 -0.719563 0.240613 1.287279 0.831220 0.135070 0.102812 1.449474 1.025565 -0.477234 -0.075723 -0.711949 0.583052 -0.254809 -0.546135 -0.038846 0.002659 0.966237 -0.739758 -0.132311 0.026221 -0.263031 -0.014898 -0.112014 1.679998 -0.269649 1.305815 0.069030 0.302857 -1.056990 -0.252702 -1.175367 2.448227 -0.772262 -0.401348 0.180371 -1.921602 -2.012103 -0.414062 -0.572744 0.054649 -1.006605 -4.713897 0.097798 0.442029 -0.594827 0.039906 3.302081 -0.959835 0.918875
be 0.214983 0.704980 -0.031286 -0.956075 0.333745 0.234562 -0.098392 -3.614841 1.117505 0.384705 -0.627221 0.022031 -4.537402 -0.783624 0.414733 1.011569 -0.283334 0.537713 3.888838 -0.316118 -0.235584 -0.657013 0.483504 1.127185 1.450601 -0.040991 0.102076 0.411233 -1.806012 1.508348 -0.048830 -0.411310 1.063852 1.020849 0.923623 0.013744 -0.612675 2.400244 -0.170606 0.003615 0.187290 -0.159618 1.934239 -2.153470 -0.512340 -0.644196 -1.815133 -1.720299 1.807477 -3.306788 -1.281516 -0.861229 -0.786712 -0.316760 -1.280562 -1.616586 0.070147 -0.243803 -0.303907 -1.242210 -0.801055 -2.378779 -0.710488 1.078519 0.357057 -1.137446 -0.068415 1.565005 -0.196008 3.057974 -0.075661 0.000227 -3.650780 1.305804 0.109079 -0.395074 -0.467500 -1.322137 -2.711082 1.653619 -0.171047 -0.410817 0.381293 -0.145240 -0.217821 -0.732211 -0.290852 -1.903090 -0.490942 0.209836 0.614030 -0.131312 -0.015487 0.038674 0.020567 -0.745533 3.968451 -1.101225 -0.554155 1.932885 -0.403308 0.042993 0.982832 0.151916 1.117375 1.611958 0.703758 -0.024428 -0.980904 -1.845876 0.462776 1.183603 0.358249 0.328722 2.151583 0.029940 0.436230 -2.118518 -0.175903 -1.774991 0.131768 2.538782 0.852553 -0.394126 -2.214907 0.718561 -0.717809 1.124398
on -0.144013 -0.238442 0.050138 0.116920 -0.110213 -0.044570 -0.077298 0.241694 2.728029 -0.009651 0.027671 -0.056138 -0.214347 -0.135387 0.166303 0.991897 0.447590 0.598706 -0.030881 0.087941 -0.567423 0.162148 2.518388 0.760918 0.053948 0.062894 0.153120 -0.354928 -0.033557 -0.002448 -0.087066 -0.029712 -0.323014 -0.096269 -0.096208 -0.035758 0.064058 -0.060503 -0.007563 0.037468 -0.009870 -0.814781 0.226793 4.458066 -0.018644 0.008766 0.186405 -0.585003 -0.333074 0.037075 0.051668 0.906951 0.126523 0.056252 -0.182050 -0.253680 0.042793 0.040350 -0.039666 0.186373 0.040144 0.012899 -0.168758 -0.028202 0.028407 -0.051093 0.015716 -0.000647 0.121409 -0.121147 0.057424 -1.799209 0.236062 -0.444473 -0.012338 1.891017 -1.335241 -1.256221 -1.544906 0.154776 -0.029851 -0.278125 0.074829 0.004250 -0.021337 0.096428 -0.013242 1.768820 0.095535 0.186911 0.533541 0.002684 0.063882 0.069242 -0.149991 -1.706356 -0.516764 -0.009763 1.460345 -0.055491 -0.091860 -0.483056 -0.117314 -0.348868 0.903653 -0.139563 0.960436 -0.054181 -0.087115 -0.015953 0.663348 -0.098041 -0.199854 0.417701 -2.312652 -1.164544 -0.103905 -0.223318 -0.697187 3.420408 0.923120 0.647022 0.719185 -0.040198 -1.342531 1.629562 0.062001 0.014878
her -0.358412 -0.292981 0.947455 0.771546 0.536816 -0.511680 1.938836 0.879241 -0.297372 -0.495198 -0.429999 0.202043 1.703632 0.845527 -0.630506 -0.280703 -0.400445 2.658675 0.133293 -1.521702 -1.599942 -2.408293 -0.322466 1.594610 0.891487 -0.035234 1.115654 -0.407903 1.061932 -0.002965 0.209530 -0.773427 1.218621 -0.506417 1.376720 -0.687009 -0.418441 -1.497617 -0.792149 -1.441915 -0.011647 0.474894 -1.475255 1.000620 -0.516213 -1.354294 -0.316534 1.052604 -0.966441 -1.380370 -0.762678 -1.231922 -0.401580 -0.039253 0.344630 -1.248890 -0.202845 0.665671 0.517392 -0.541825 -0.678166 3.185317 -1.375090 -1.658344 -0.806537 0.075683 0.222275 0.456453 1.306532 -0.344911 -1.147792 -0.177183 0.090433 -0.138932 0.103189 1.131758 -1.196719 -0.894637 -1.650313 -0.332258 -0.308887 -1.137282 0.394442 0.522592 0.659280 1.726571 -1.331005 3.449101 -0.055358 -0.208838 0.550915 -0.213978 -0.620324 -1.223840 0.228142 0.216305 -0.749814 -1.078346 -0.119847 -0.202503 -0.334327 0.685229 3.158004 -0.298152 -0.932722 0.635159 0.431870 -2.524168 1.380259 -1.202353 0.053704 1.647252 1.480793 -1.284113 0.963713 0.759402 0.074895 0.408317 0.493934 0.912158 0.416274 0.503514 -0.047468 0.573038 1.022233 -0.139365 0.896205 0.840809
my 0.016636 -0.824788 -0.373836 -1.450141 0.234327 0.978865 0.439551 -0.505581 -0.835719 0.652944 0.416481 1.303916 1.895138 -0.742855 0.885336 -0.559771 0.768571 -1.552113 -1.337462 0.864040 0.893201 -0.892771 -0.893508 -1.033268 -0.588436 0.931718 1.605338 -0.390321 -0.579615 -1.624240 1.439753 1.941517 0.769644 0.034940 1.295378 -0.929977 0.573977 0.150823 1.352258 -2.087923 0.289684 2.041723 -0.789923 0.956697 0.192402 0.757700 1.328408 -1.034755 -1.031994 -0.667769 -1.564848 2.380964 -0.495736 -1.008690 -0.906436 -0.808374 -0.321493 -0.753466 0.622092 -0.735777 -1.141493 -0.288935 0.353701 0.786940 0.313596 2.094651 -0.800015 0.359251 -1.965455 0.450929 0.599091 0.381276 -0.922612 1.335542 -0.529251 -0.335330 1.089852 0.413212 1.218840 -1.373595 0.386203 -0.639966 1.548453 0.370543 -0.054864 -1.292105 -0.429028 0.474309 -0.372544 -1.330618 -1.624106 -1.535219 -1.360749 -0.468212 -0.305813 -0.156117 1.403501 0.904405 1.225352 -0.907189 -0.043339 0.116363 0.234172 -0.307749 0.333424 -1.728289 0.975648 -0.370853 -1.367140 -1.812786 0.059782 0.220916 -0.947587 -0.535450 -0.574898 -1.750932 0.492181 -0.472866 -0.762554 1.521074 -0.626767 -1.405845 -0.668319 -0.431391 0.481526 -0.276551 0.983145 0.086796
him -0.048694 -1.627691 -0.963638 -1.527926 0.704386 0.170551 -0.630773 0.640329 -1.170356 -0.104765 0.385637 -0.325500 -0.916359 -0.847633 0.415763 -0.433041 1.354672 1.125135 0.076345 -1.639673 0.551923 -0.939461 1.236009 1.150637 -0.223979 0.038346 1.785460 1.487060 -0.722192 3.099521 0.000161 0.188853 -1.565232 -0.326841 0.216660 0.358326 -0.444717 0.715463 -1.352498 0.391728 -0.210355 0.100242 0.258247 0.408324 -0.269317 -0.480570 -0.859699 1.958802 0.092158 0.354871 0.211932 2.098485 3.325263 2.190562 0.193011 -1.198798 0.122224 -0.167498 -2.294723 1.715950 -2.034540 -0.255508 -1.634417 0.146922 -0.133822 -0.926237 0.611399 -0.256271 -0.616963 0.325536 -0.009937 1.461760 1.573106 -1.012946 0.091217 0.948286 -0.397521 -1.113418 -0.839944 -0.766479 0.512600 0.218043 -0.497494 -0.311996 1.092887 -0.286897 -1.617048 0.776744 -0.088061 -0.077502 0.752590 0.374893 -0.003717 0.063216 -0.079903 -0.496438 -0.200151 -0.511240 1.408845 -0.943598 -0.714850 0.816361 0.654206 -0.682202 0.006167 -0.098359 0.017838 -0.116719 -0.899694 -2.807851 -1.003848 -2.590008 -1.649925 -0.300389 -0.723956 0.776871 -2.345206 -0.202247 -0.088190 0.976095 0.345234 -0.194452 0.353396 0.158513 -0.526118 -1.870184 -1.735132 -0.352587
have 0.111998 -0.263253 -0.471274 -0.143127 0.496140 0.350831 -0.474591 -0.364786 0.060098 -0.015417 0.004288 0.232750 -2.645655 -0.168274 -0.006856 -0.255252 0.958110 -1.151688 1.007329 -0.076134 -0.460743 0.276607 2.941180 -0.514868 -0.143105 -0.205780 0.038881 -0.033124 -1.386402 -0.232742 0.011928 0.010098 0.411233 -0.277372 -0.350250 0.046308 0.235720 -0.339394 -0.452922 0.498782 -0.169892 0.480335 1.606807 -0.971735 -0.401079 -0.464283 -1.873338 -0.310331 1.209397 -0.928909 -0.803193 0.851438 0.590162 -0.244962 0.565260 0.127316 -0.044175 -1.749727 -0.306373 -0.168672 -0.236344 -1.056868 -0.369694 -0.161488 0.038329 -0.576719 -0.893625 -0.607631 -1.256629 1.211572 -0.247733 0.247593 0.103288 -0.134000 -0.034111 -0.025641 -0.455633 0.202496 -2.540647 -0.342831 -0.084439 0.433705 -0.826129 -0.372917 -0.501778 1.735165 1.506977 0.212206 0.109505 0.926057 -0.236970 -0.338949 -0.030491 0.047702 0.255024 -0.959912 -0.436736 -0.895021 -0.182715 0.228304 -0.194952 -1.962527 -0.097359 -0.118863 -0.096621 0.428679 0.260047 0.064954 0.853807 -0.713649 0.278741 -0.830760 0.259745 0.231775 0.021600 -0.113863 1.147234 -1.383363 0.017119 -0.960947 0.316683 0.127471 0.611069 -1.101865 -0.537038 0.350829 0.903432 -0.092932
by -0.876824 -1.412783 -0.186758 -0.041136 1.341002 0.347197 0.063387 2.208348 0.592670 0.119421 -0.117785 0.139117 -0.058000 -0.330224 -0.059934 0.768909 0.207300 -0.241036 -0.024708 0.070136 -0.131443 -0.620909 -0.122635 -2.102210 -0.093174 -0.236944 0.068303 -0.032912 -0.915239 -0.170005 -0.007397 -0.179305 -0.567140 -0.047944 0.022086 -0.009647 0.862202 -0.417837 -0.070406 0.164539 0.055703 0.000074 -0.215262 -0.585829 -0.050702 -0.909903 -1.557341 -1.083280 0.511589 -0.842664 -0.009277 1.645276 0.010570 -0.077969 0.919039 0.182108 0.004455 -0.555476 -0.171686 -0.460786 0.349207 0.024314 0.063598 -0.018246 0.043843 -0.278677 -0.023425 0.305726 -1.063624 0.935601 -0.032295 0.222912 0.463874 0.854290 -0.337097 -0.911815 -0.398300 -0.915116 -0.245766 0.094796 0.114738 -0.409765 0.050367 -0.391921 -0.041783 -0.640710 -0.304419 1.429435 0.615603 -0.251553 0.830982 -0.035573 0.363380 -0.011517 -0.033020 0.459047 0.959024 -0.032838 0.311941 1.110193 0.079751 -0.106910 -0.447579 0.129414 0.266435 1.140091 0.313401 -0.269468 0.376342 -0.186716 0.377048 3.476347 0.629691 -0.153858 0.601831 0.395598 0.964443 0.479670 0.048037 0.493834 -0.350832 -0.125120 0.142305 -0.242543 0.196699 3.157506 -0.255341 0.100258
this 0.843124 0.369708 0.126455 0.036080 -0.028473 -0.758558 -0.079348 0.595261 0.056016 0.258891 0.001842 0.083671 -2.192327 1.497168 0.429628 2.078026 -0.261443 -0.185564 0.335138 0.051575 -0.175154 0.659283 -0.153726 -0.715474 0.174216 0.417493 1.335171 -1.154857 0.780749 -0.134178 0.206284 -0.088397 -0.898331 -0.152148 -0.135976 0.322022 -0.118153 0.393675 -0.078860 0.209259 0.324388 1.354466 -0.316974 -1.491889 -0.899997 -0.277344 -1.836436 0.691856 -0.675458 0.120893 0.080170 -0.383609 0.142468 -0.142030 0.789414 -0.449616 0.083542 0.142402 0.141433 -0.064574 0.058455 -0.432235 0.106957 -0.119936 -0.242685 -0.047836 1.061762 -0.653999 0.125169 -0.196739 0.009645 0.294080 -1.727637 -0.357006 0.053057 2.357125 0.274481 -1.002441 -0.214979 -0.311298 0.172339 -1.258075 -0.001526 0.044010 0.387407 1.432791 1.857566 0.642224 0.166181 0.776441 0.183934 0.004151 -0.133309 -0.065203 0.062509 -0.958578 -0.269548 0.005370 0.757003 0.446669 -0.099206 -0.084606 1.541228 0.038433 -0.246713 -0.564765 0.245208 -0.215908 0.104502 -0.071385 -0.348812 -0.961221 -0.170378 -0.090203 -1.215401 -0.091332 -1.117105 -0.452995 -0.111925 2.686614 0.478503 0.110441 0.871764 0.090084 -0.850509 1.604617 1.564758 0.025922
which -0.755888 -0.001347 0.079513 -0.019640 -0.238411 -0.298567 -0.016142 -1.055793 0.008120 -0.453345 0.064211 0.063247 -0.743727 0.504687 -0.448852 -0.674653 0.706790 -0.098095 -0.541382 -0.637431 -0.141747 -0.391435 0.582627 -0.090798 0.250037 0.042547 -0.055095 0.166089 0.300887 -0.026603 -0.196916 -0.279991 -0.397601 0.135440 -0.035610 0.476577 -1.239366 -0.109122 -0.310492 -0.092391 0.000261 1.091069 -0.043324 0.339896 -0.065763 0.240318 -1.933217 0.705250 0.708478 0.043685 0.016408 0.962626 0.150854 -0.105385 -0.476392 -0.057170 -0.136451 -0.040242 -0.044574 -0.364385 0.905405 -0.658671 -0.956924 -0.821775 -0.602377 -0.110133 -0.291435 1.059736 -0.712625 0.484430 -0.076774 -0.956033 -0.123646 0.497334 -0.088798 1.462584 0.701088 -1.037626 -0.039678 -0.291684 0.085754 0.270402 -0.031257 -0.094813 -0.149038 1.180614 -0.084160 0.305367 -0.052105 -0.097951 -0.200516 -0.072173 0.018611 -0.133857 -0.967655 0.745999 1.789876 0.080150 0.001768 -0.605132 -0.299193 -0.008664 -0.161859 0.246689 -0.132276 -0.588928 0.467851 -0.077903 0.087920 0.341345 0.393989 0.797997 -0.073493 0.049596 1.538839 0.362940 0.747340 -0.642152 0.317274 -0.522501 0.420532 -0.179183 -0.512241 -0.302773 0.732764 -0.080677 -0.486237 -0.135277
me 0.039387 1.016813 -0.284419 -1.032610 -0.803337 -0.465655 -1.306846 -0.299695 0.725538 -0.016224 0.659110 -0.391961 1.668644 -1.045926 -0.038519 0.769761 -1.400018 1.802764 -1.169184 -0.169235 -0.215312 -0.113511 -1.321604 -1.046175 -0.279790 0.829239 0.834635 1.190751 1.336108 -0.256343 0.391661 1.681593 0.752482 -0.832728 1.835807 0.654449 0.458737 1.539824 -1.727427 1.052061 0.655834 0.848209 0.391000 -0.851402 1.746177 0.196738 -2.291521 0.948103 -1.624865 0.273203 -1.126891 0.179388 1.108433 -1.095787 -1.054178 -2.072201 1.010096 -0.429220 -1.106472 0.895196 0.683706 0.913596 -2.332146 -0.557800 1.433213 1.323584 -1.051992 0.822952 -1.508821 0.444895 1.797585 -0.327613 -1.712752 0.242864 0.554454 0.097420 1.313666 -1.814243 -1.010372 0.035979 -1.116718 -0.326079 0.002902 0.115302 -0.524926 0.014782 0.525012 -1.763880 0.669894 0.121126 -0.633842 -0.176241 0.203335 -0.326492 -0.623812 -1.375120 0.329615 -0.974292 -0.370949 0.184729 -1.131895 0.894503 0.099441 -1.904176 -0.472976 0.983302 -0.634227 -1.483005 0.299013 0.183289 0.017589 -1.462987 1.037669 0.134360 -0.791754 0.634925 0.601502 0.789617 1.097260 -0.024538 0.174114 1.358293 -0.252863 0.264950 1.117788 0.434270 0.975849 -0.317719
all -0.311241 -1.915111 0.225089 0.349097 -0.699283 1.464369 0.235803 -2.217741 1.211874 0.790437 -0.159171 -0.499585 0.887726 -1.824864 0.558456 -0.629067 -0.307850 1.544731 -0.558806 -0.670097 0.356594 -1.311715 0.333744 -0.179478 0.642786 0.117335 0.197816 -0.043830 -0.198867 -0.601028 0.178439 0.066215 -1.222194 0.281615 0.572634 0.235068 0.165498 1.568784 -0.856621 -0.375153 0.233865 -0.853128 -0.792233 0.084429 0.398739 0.238573 0.681260 1.678402 -0.581588 -0.374396 0.270768 1.720115 -1.147655 -0.209439 0.884041 2.726532 0.605042 0.914190 0.313380 1.131622 -0.763504 1.175353 0.553495 -0.696432 0.487776 0.354564 0.768337 2.210149 -1.345993 0.073277 0.677618 -0.649255 -1.411066 -1.359171 -0.088364 -0.708986 2.818133 -0.088843 1.038879 0.130567 0.138726 -0.129299 1.159242 0.452269 0.354797 -0.355443 -0.542242 -1.371168 1.257359 0.463999 0.224798 0.515862 -0.078291 -1.800387 -1.256848 -2.111005 -0.459592 0.479778 -0.087733 2.127114 -0.030763 2.245349 -0.643196 0.893671 1.554899 1.665115 -0.038471 -1.615701 -1.344117 -0.834448 -0.736366 -0.624017 1.882657 -0.340989 0.543482 0.042738 -0.793243 -0.506513 0.620651 2.877068 0.679139 -0.401211 -0.216797 1.140002 0.738285 0.546483 -0.480784 0.866572
said 2.439023 0.165109 -0.281898 -0.079706 -0.644490 -0.063234 -0.589669 -0.916205 -2.491899 0.820411 2.179569 -0.683790 3.474034 -0.270808 -3.196139 -2.319360 -1.835491 0.036071 -1.673870 -1.092001 -0.952025 -0.786114 0.251210 2.113261 1.823693 0.443014 1.206637 0.140548 0.627365 -1.599498 -1.390086 -0.726507 2.098614 -0.367035 -1.459966 -2.257970 -0.889265 0.800422 -0.707565 -0.287699 -1.965753 1.714633 -0.385706 0.217626 0.360599 -1.355137 -1.123839 0.302313 -2.262803 0.303585 2.185626 -0.647995 0.874953 -2.424596 1.253442 -1.058159 -0.163676 1.359202 -0.838196 0.281863 -3.100772 0.537690 -1.338744 0.816964 -5.881042 -4.230596 3.643468 2.268901 0.525939 -1.684665 -0.870074 -0.816805 2.888640 -1.837298 0.534785 -0.118113 -0.780602 -0.266727 0.252858 -3.737148 -1.476916 -1.115363 0.677044 0.675501 -4.015707 -0.711352 -2.623652 -1.416830 -0.451981 -2.758514 -2.363572 4.350091 0.991617 -0.761110 -1.181621 2.056894 -2.497150 2.422460 0.886491 -1.829978 1.733485 1.536301 0.789616 -2.927704 1.851093 1.424099 -0.419704 0.852479 0.504931 0.601044 -0.398553 -1.574327 0.210842 1.150143 1.125454 0.125825 -2.752481 2.365103 1.413858 -0.541624 -0.040616 0.001229 -1.625911 0.880397 0.367687 -1.745899 -2.759359 0.588681
she -0.153858 0.972546 -1.109126 -1.982525 0.405467 -1.243618 0.152417 -0.355384 0.586279 0.911438 0.356373 1.278844 -0.786601 0.984192 0.943755 1.405321 1.546162 -1.397882 -0.265807 -2.014559 -0.116121 -0.004266 -0.733280 -0.301307 -0.636304 0.399805 -0.384553 -1.390505 -0.228602 1.880192 -0.373637 0.781095 -0.775357 -0.979250 1.078549 2.263448 -0.853839 0.165973 0.929393 0.292589 0.864898 0.428846 -1.521474 0.303720 -0.659147 -0.545425 -0.523620 -0.260869 -0.684498 0.104754 -0.091292 -1.409649 -1.142729 1.235092 -0.807880 -0.592348 -1.494562 0.291146 0.254161 -1.303536 -0.298764 -0.805344 0.296522 -0.558997 1.321751 -0.413786 -1.972553 -0.304081 0.278097 0.093387 -1.243857 -1.319907 -0.290290 0.052604 1.198756 0.339580 -0.777593 0.169324 0.528469 0.272242 -0.815341 0.477419 -1.109748 0.672134 0.280567 0.702417 -0.294165 2.059387 -0.188696 2.037261 0.752760 0.118023 -0.242543 1.707712 0.722152 0.662935 0.431884 0.141034 0.608422 -0.853646 0.177020 1.458332 -1.291920 -1.468702 -1.019476 0.015040 -1.892152 1.257104 -0.805159 -0.756798 0.866178 0.432460 -0.360199 -0.304848 0.664638 -0.443219 -0.916411 0.937856 1.335226 -0.110252 0.498104 0.221650 -0.262135 0.117346 0.146203 -1.412221 0.284833 0.307132
from 0.932409 0.174055 1.083122 0.061542 -0.205854 -0.266247 0.441563 0.880622 -0.773645 -0.218590 0.083168 0.356713 1.614229 -1.320037 0.106673 -1.311540 -1.741483 -1.304321 -0.506519 -2.667202 -0.040378 -2.224889 -1.617581 -2.157051 -1.322324 0.005106 -0.378120 1.958774 -0.581526 -0.393318 -0.325009 -0.544583 2.630437 0.060316 -0.253720 0.067786 -1.974459 0.858152 -0.168587 -1.875367 -1.316712 2.662626 1.455971 -0.968605 0.260539 0.680329 1.513839 -1.702865 1.366569 0.062350 -1.446740 -0.270846 0.261159 1.056648 0.236596 -0.754550 -0.251245 -1.190301 -0.117898 0.600511 1.120395 0.258008 0.452415 0.412845 0.150518 -0.216367 -1.419899 0.300674 -2.054189 1.425517 0.502852 -1.212478 -1.039895 0.105212 0.080926 1.214768 0.450687 -1.063311 0.440466 0.042116 0.025384 0.094968 0.612757 -0.003280 0.020914 2.783432 -0.777807 0.265360 1.183230 -0.584356 0.395556 -1.288642 0.249870 -0.057280 -1.972921 -0.911228 -2.730538 -0.541315 3.153132 -1.060346 0.610794 -0.386948 -0.694035 0.065611 0.088300 -0.943629 -0.132060 0.102387 0.008763 0.766829 1.063313 1.901545 -0.303084 0.391218 -0.645878 1.020336 2.137770 0.092684 0.383725 1.409667 -1.190402 0.133402 -0.766808 0.481319 -0.770214 2.901496 2.096720 -0.505813
or -0.966268 -0.848571 0.009349 0.035651 0.020318 -0.032866 -0.125059 1.067101 1.219308 0.179999 0.029079 -0.320667 0.631493 -0.083465 -0.080615 -0.618885 0.839780 0.006868 -0.043488 0.030539 0.323101 0.573912 0.109944 -0.443551 0.299981 -0.010301 1.268144 -0.398856 -0.728159 0.286055 0.602543 -0.254793 -0.099948 -0.022797 0.180985 0.217895 0.108613 0.792037 -0.071246 0.131946 0.142004 0.488438 0.223420 0.383961 0.731162 -0.339139 -1.122265 -1.184823 0.004475 -0.613253 -0.283132 -0.049438 -0.310958 -0.046754 0.277036 0.163084 0.145502 0.081140 0.034384 0.261238 -0.105368 -0.524994 -0.539660 -0.280148 0.050111 0.098093 0.803180 -1.353432 -0.411999 -0.372668 0.098888 -0.011745 -1.448311 0.287505 -0.074982 0.214777 -0.624161 -1.003831 -0.419715 -0.004072 -0.410286 -0.747652 -0.034914 -0.211673 0.121072 -0.512528 -0.101794 -0.234316 -0.131707 0.871210 -0.666632 0.557667 -0.068130 -0.045925 -0.000226 -0.349016 1.044905 0.098377 -0.050791 -0.175573 -0.129104 0.064073 -0.037225 0.207361 -0.061178 -0.707994 0.168943 -0.110889 -0.051342 -0.054905 -0.266386 0.985091 -0.145216 0.153783 -1.448768 -0.628912 -0.713096 -1.264297 -0.050843 -0.797180 0.223895 -0.042133 0.934379 -0.035928 -1.358119 0.614815 1.062307 0.221686
they -2.099479 -0.410684 0.155914 -2.669142 0.878876 0.261357 -0.418037 2.628330 -0.524399 -1.846659 0.094993 -0.869358 0.737274 -2.688519 0.102964 0.310579 -1.594487 -0.584560 0.733778 0.636917 -0.753907 -1.381414 -1.918726 0.238536 -0.887059 -0.137709 2.528522 1.713487 1.957799 -0.470513 -3.480682 -0.792999 -0.643165 0.145652 -1.526255 -3.842210 4.035976 1.836589 0.232186 1.102300 -1.384059 -1.712365 -0.175792 0.553787 2.236161 -0.504943 0.468206 -3.847738 -2.624798 -1.094612 1.053212 -1.186172 -0.999471 0.143054 -0.976195 1.066179 0.842655 -0.337296 2.575291 4.850838 -1.087497 1.427204 3.802065 -0.615273 0.257627 1.797659 3.453824 1.353752 -1.202551 1.860354 3.854472 -0.029833 0.375478 1.939767 -1.199493 1.015487 -0.941672 5.304430 -0.885019 -2.782900 -0.170447 0.528042 -1.221269 -1.215462 0.879713 -1.058755 -1.364588 -0.416152 0.613396 -1.128713 0.066296 -1.515440 0.879456 0.994647 1.070440 -0.718019 -2.353177 -1.903176 -0.568432 -0.890539 0.485118 4.295659 -0.396508 -0.010099 3.962715 5.863148 -1.163023 0.593226 1.268050 1.732219 1.375284 -1.231919 -0.570084 1.715117 1.068771 -2.052696 1.300609 -0.018076 4.556986 1.289725 2.685873 2.930702 0.512389 -0.767738 0.264543 4.528751 -2.064016 -1.903112
so -0.413195 0.130466 0.071553 0.068220 -0.131548 0.251915 -0.017939 0.080653 0.036837 -0.013943 -0.101907 -1.478292 -0.485282 4.326859 0.280273 0.685956 -0.147625 0.092455 -0.005205 0.320649 0.522077 -0.005271 -2.221948 1.523965 1.197609 -0.000328 0.446888 -0.690843 0.177989 0.125496 0.413428 0.818281 -1.099221 -0.036232 0.013858 0.176255 -0.333934 1.100772 -0.026877 0.188140 0.080166 -2.054316 0.009048 0.860308 1.030610 0.005640 -0.536721 -0.031066 -0.005961 0.150938 0.949311 -0.167352 -0.898666 -0.053775 0.048472 -2.592530 -0.382416 0.077241 0.053428 0.214494 -0.568312 0.086122 -0.029775 0.318424 0.153098 0.070897 0.103029 -2.818772 0.027372 -0.247133 0.067857 -0.007958 0.127175 -0.852702 0.070945 1.098664 -0.182483 -1.432251 -0.032454 0.061674 -0.088896 -0.271435 0.170049 0.240054 0.498815 -0.063023 -0.097261 0.217372 -0.055306 0.088580 0.232745 0.014009 -0.239990 0.015748 -0.563918 -0.132085 0.140456 0.901864 0.010082 2.002971 0.255099 0.269039 0.585102 -0.244502 -0.269107 -0.881288 0.113654 0.005444 0.020308 0.162154 -0.420145 1.850545 1.307226 -0.098665 0.214639 -0.001940 -0.067016 1.016765 -0.008184 0.494460 0.010194 -0.053118 -0.991261 -0.003196 0.360414 -0.277433 0.095858 -0.046037
are -0.943009 -1.310607 0.028246 -0.271698 0.000659 0.124222 -0.028625 -0.874112 0.106293 0.107790 -0.127571 -0.457569 -2.273596 0.811130 0.017689 0.110850 0.409237 0.050636 -0.161766 0.013656 -0.074411 -0.792762 -0.054222 -1.067280 -0.053336 0.056834 -0.995512 -0.701600 0.519709 -0.213202 -0.085511 0.282211 0.995447 0.132836 -0.289873 0.007241 -0.080829 -0.718028 -0.206175 0.037410 -0.131363 0.286622 -0.218011 -1.475250 1.277577 0.066776 -1.577591 -1.464034 0.192746 0.049463 0.071077 -0.131354 -0.297108 -0.048189 -0.045747 -0.001216 -0.046479 0.279442 0.062390 0.296542 -0.106046 0.149080 0.094773 -0.918113 0.253093 -0.060625 -0.614220 -0.010371 0.119178 -0.285462 0.031096 -0.268683 -2.581968 -0.358539 -0.297390 -0.459840 1.088327 -0.043592 -0.394653 -0.566303 0.235108 -0.145526 -0.055604 0.222690 -0.894042 -0.469293 -0.175015 0.640345 -0.127190 -0.110647 1.490912 0.132396 0.048344 0.287523 0.033019 1.080937 -0.648453 -0.083485 -0.048786 0.985120 0.001809 -0.001496 -0.381304 0.002877 -0.146392 -0.409040 0.368553 0.030885 0.147915 -0.040708 -0.133879 2.080504 0.799100 -0.273051 -1.066728 -0.083556 1.167137 -0.895650 0.045504 -1.145163 0.222817 -0.060331 -0.240542 -0.075854 -1.267194 0.328800 -1.102899 -0.028431
one -0.895695 -0.287253 1.349758 -0.756633 2.531170 0.239536 -0.995543 0.384387 3.869126 1.045615 -0.165551 0.375930 0.534762 -2.317635 -2.852159 -3.013570 -0.768297 -0.098789 1.167079 -0.356814 -0.475484 -4.923179 -0.510108 1.171636 0.753758 -1.030324 -2.195108 0.649135 1.997905 0.982008 0.874756 1.428064 -1.676836 -0.603336 0.215002 -2.289474 -1.468966 -0.176179 -0.652737 -0.333094 0.515088 1.130486 -0.546380 0.961279 -0.392869 -0.618745 0.535171 0.931941 1.745725 0.360547 0.470656 0.592133 0.461235 -0.105795 -1.149300 2.369617 0.194559 0.153919 0.150703 -1.299810 -0.838103 0.683592 -1.020293 -0.043000 0.317656 0.231591 1.332628 0.970606 -0.502702 0.001240 0.107322 -4.280145 -0.363600 0.165381 0.536808 -3.204354 -0.637092 -0.462620 -0.671517 1.435658 -0.598238 0.237708 -0.223550 1.299323 1.252805 0.940821 0.156765 1.482736 -1.080688 -1.204933 -0.579357 -0.863337 1.182174 1.543277 0.417013 1.633863 2.197107 0.044017 1.123302 -1.473864 0.324543 -2.079522 -1.149553 0.461369 -0.558280 -1.956264 -1.236982 1.210958 -1.301144 0.074306 0.892787 -1.866930 1.051486 -1.240883 2.363771 0.548340 2.675296 0.309004 0.545338 1.689022 -2.303318 -1.119737 -1.036807 0.608700 -0.813838 0.082421 -0.742225 -0.540279
were -1.015971 -0.616655 -0.463284 -1.464711 -1.013619 2.348460 0.016841 -0.868508 0.193102 0.002777 -1.026096 -2.851597 -0.736576 2.453918 1.533908 -0.121085 0.337073 0.049512 0.251363 -0.395626 1.495268 -0.234050 1.804982 -1.291255 0.292740 0.118703 0.019307 -2.062540 0.834623 2.203274 -0.706323 2.212874 -0.292290 0.889853 -0.704627 -1.716715 1.504908 -0.819563 -0.051178 -0.334065 0.028761 0.445727 1.085572 -0.462046 2.014210 -0.814264 -0.738296 3.416223 -0.102533 -0.727657 -0.475301 2.463032 -0.361054 -0.133061 -1.361599 -0.387513 -0.383601 0.979822 -1.670226 3.324451 0.692906 1.242422 -0.447531 2.171377 0.064144 0.505202 -0.810061 -0.393994 -0.219038 3.014411 -0.010809 0.854689 -3.049080 1.892410 -0.318709 -1.796950 1.417678 0.137136 0.295134 0.160313 0.508234 -0.830019 -0.871392 0.791489 0.277412 2.910412 -1.326644 0.365366 0.719978 -1.046674 0.569144 -0.232221 -1.290540 0.041447 -0.828308 -0.329991 -0.228798 -0.581826 2.208228 0.829161 0.966738 -0.970281 3.201711 -0.024888 0.223451 -0.577162 -0.929064 -1.185663 -2.563348 -2.824627 -1.175830 -0.142829 0.154328 0.174116 0.527707 -1.344766 1.492681 -0.952696 -0.084431 3.105237 -1.142103 2.656237 1.227942 -0.714793 -0.083839 -0.495677 -1.551759 -1.335280
what 0.287316 -0.209157 -0.137251 -1.528943 -0.990550 -0.061399 0.522764 0.495115 -2.457661 -4.933299 -1.748540 0.145291 -2.986352 2.366917 -2.401423 -0.279916 1.671120 -0.318415 -0.744384 0.044863 -0.211074 4.959755 -0.196524 -3.398252 -3.281357 0.419306 2.718931 -1.406416 1.941514 -0.020808 0.175709 2.523075 -1.501354 0.438910 -0.532978 3.039703 -5.182289 1.052058 2.599231 2.334142 -0.744695 1.783836 -0.289039 1.465323 -1.426704 -0.734594 -0.433034 4.306340 -0.237519 -2.413948 3.447349 0.359263 3.754192 1.674911 -3.237966 0.843146 0.706074 -0.944280 -0.930220 0.432769 -2.416045 -1.931881 -1.607651 -0.214213 0.297698 -0.471194 -0.769400 -2.286080 2.727277 -0.370994 0.135962 4.005540 -1.891197 -0.619576 3.322695 2.742514 -0.169289 -1.409969 -3.148486 -1.910064 0.975876 3.122689 -0.109003 -0.107594 0.710916 -0.574670 0.117856 1.753585 -0.593783 1.766058 -0.644659 -0.923823 2.312719 2.666487 -0.678543 -2.873365 4.607509 -2.300175 1.168808 0.306305 0.829600 1.690456 1.782027 -2.205152 -0.335713 -3.086620 -2.905623 -2.216839 -0.259193 -0.443174 -1.885631 -1.396847 -2.467762 -1.046227 0.938435 2.823729 -2.888150 -3.047557 -1.343188 -0.261413 2.298280 -0.383666 -0.582411 -3.117651 -2.980406 0.660132 0.112943 -0.801180
when 1.891715 0.383009 0.086739 0.502848 -0.469296 0.635296 -1.617376 1.101149 -0.170549 1.827487 1.126640 -0.250271 -1.947009 -3.330702 -0.735876 -0.590573 -0.288067 -1.643093 -1.202645 -0.575804 -0.716013 0.101949 -0.032641 -2.108189 -1.741781 -0.903454 0.878728 1.568170 2.026189 -0.051280 -3.313242 -0.644444 1.595253 -1.092272 0.046992 0.256276 -0.310865 -0.361527 -0.569585 -1.519302 0.514957 2.150299 -0.332426 2.467743 0.346935 0.375827 1.362643 -1.811884 3.030009 -0.108454 -2.940399 0.548205 0.454206 1.652803 2.043344 -0.358669 -0.696151 -2.389200 -0.288060 -0.428166 3.434113 -0.301259 0.652193 -1.091219 -0.879013 1.863900 -0.550548 -1.301658 -1.798243 -1.124892 -0.832684 1.546843 -0.170379 1.778053 -1.930274 1.356504 0.365431 1.156481 -2.688723 0.591082 0.273794 0.076260 1.177113 2.387509 0.152492 2.221905 -1.707554 -0.490771 -0.173863 -0.518881 -0.185827 1.179957 -0.037326 -0.356430 -0.317796 0.620409 -1.033774 -1.064141 -1.626054 -0.971273 1.556181 0.321680 -1.018138 -0.346580 -2.706015 -0.651746 -2.660327 3.156010 2.535505 1.173600 -0.397275 3.051456 -0.199181 -1.489174 -1.204006 1.296400 -0.387605 0.162704 1.788460 -0.538521 -2.466460 -0.913509 -2.014056 -0.389599 1.053313 1.347488 -0.400111 0.038763
no -0.177200 -0.052162 -0.268448 -0.054509 -0.169084 0.877180 -0.138305 0.775386 1.067501 0.252462 0.708508 0.044322 -1.224882 0.950615 -0.301844 -0.307554 0.178624 0.010328 0.222840 0.113351 0.078441 0.543805 0.196018 -0.977187 -0.660938 0.082930 0.176855 -0.159707 -0.931031 -0.356987 -0.112290 0.224116 -0.482296 -0.185031 0.017590 -0.144004 -0.395987 1.937050 0.732510 -0.435946 0.123159 -0.436259 -0.030640 -0.382780 0.915469 -0.531175 0.175854 2.051986 -1.187785 0.085744 0.268483 -0.441489 0.077861 0.038473 -0.441531 0.373175 -0.034636 -1.145409 0.183642 1.647316 -0.891144 -0.623738 -0.336504 -0.645558 0.640737 0.597948 0.495011 0.225072 0.957295 -0.145217 0.075735 0.522042 0.733867 -2.336273 -0.069453 2.629959 1.284536 -1.600068 0.755189 0.144782 0.097582 -0.785653 0.173880 -0.152662 -0.106477 0.623692 0.451510 -0.472738 0.098536 0.723688 0.527824 -0.040300 0.158394 -0.445771 0.278174 -0.133881 -1.450113 0.119001 -0.218641 2.047453 -0.189935 -0.783585 0.772715 -0.115933 0.418524 0.897874 1.183816 -1.023813 0.200298 -0.177316 -0.377582 0.539835 -0.282235 0.327732 1.738026 -0.650232 0.069048 0.078832 0.211188 0.751454 -0.856405 0.117391 -0.626474 -0.244356 0.471680 2.169664 0.081415 0.664404
if -1.121415 0.587900 -1.015165 1.542657 -0.735127 0.090484 2.296777 -0.322048 1.179873 -1.457492 3.587150 -1.967593 -0.851852 1.876537 -4.935743 1.068374 2.680932 -1.938630 2.380829 -0.689705 -0.732678 1.061232 0.226383 3.059576 2.737753 -1.383579 1.714755 0.163649 -0.985607 2.506157 -1.712836 -3.673236 -4.845687 -4.054383 -3.072992 -2.294746 -2.299805 1.102081 2.603092 -4.048999 -1.066597 -1.227465 1.105514 -0.646010 0.588747 -2.131709 1.979582 2.866535 -0.215671 -1.700430 -0.819827 -0.515278 -2.900917 1.807711 4.107473 -0.017101 2.556407 1.354637 -2.798129 0.584083 -2.565879 3.662900 2.855754 -0.615750 -2.035978 -4.336877 -0.404038 -0.727442 -1.322675 -1.767605 -0.686696 -1.775812 -0.480523 -1.495648 0.042195 4.107802 2.722479 -2.425041 0.571623 -3.004848 -2.332427 0.337976 -0.636713 0.897460 0.424399 0.724446 -0.992999 1.897863 -1.300875 0.648655 0.277626 -0.960149 1.279177 -2.693221 0.477683 -0.015438 0.525564 -0.251123 1.704484 -0.348573 -0.638450 -2.350831 0.266122 -0.475954 -0.308141 -1.719561 -0.336711 1.563219 -2.555986 -0.423236 2.010637 -2.511499 -2.325017 -3.624186 1.879109 0.042241 1.042800 -0.612983 0.192058 0.419471 -2.378701 -2.376712 0.355602 -1.501199 0.963989 1.139338 0.250295 -2.628587
there 3.281590 1.250469 1.123027 0.255878 -1.049349 0.342217 -1.053658 0.731774 -3.779130 1.296542 0.935850 0.346701 3.023698 -3.210580 0.597428 -2.815354 -0.208826 -1.042914 -0.878798 0.171793 1.089883 -3.303540 0.541174 -1.915659 -0.113969 -2.779416 -1.348862 -1.101673 -2.671971 -0.932006 -1.110929 0.724401 1.288671 0.484255 -1.108043 0.102596 0.551262 -1.665565 -2.329986 0.866370 -0.606999 4.510831 0.438909 -1.469615 -0.065468 -0.266484 0.304143 1.363476 -1.408114 -1.479639 -0.386092 -1.096798 -1.796081 0.314478 2.666023 -1.411157 0.335828 1.575021 -0.117636 -2.382168 -2.185140 0.689609 -0.925161 -1.462292 -2.728154 0.953825 0.652823 2.428981 0.640373 -0.483991 0.049511 -0.853952 1.597652 -1.325861 -0.265231 3.239748 -0.254952 1.537062 0.320564 -0.197597 -0.651041 -0.618644 -1.457960 -0.983366 -2.273594 -0.582727 1.446398 3.042447 -0.533141 -1.445549 0.341565 1.907236 0.671376 -0.868253 0.712800 3.421693 -4.403891 1.307299 5.608184 -4.050894 0.816376 1.966229 -1.160078 -3.520162 -0.357669 6.824548 1.530968 -1.346189 0.332814 -0.899587 -0.992770 -0.992482 0.809806 0.282871 0.314806 0.334875 0.457840 0.662934 0.195363 -1.173370 -0.461827 1.113340 -2.183107 1.672944 1.127930 0.900026 1.517280 0.205816
who 0.464280 -0.621370 -0.874193 -1.480228 -1.607179 -0.658503 -1.172598 1.125192 -0.333804 0.905335 -1.216083 0.065865 -0.319311 1.267886 0.229641 0.134754 -0.826624 1.222620 0.739979 0.186312 0.808827 -1.037770 -1.249803 -3.216157 3.084829 0.617445 1.387422 -0.135641 0.216039 -0.884352 0.110070 0.103803 -0.039976 0.131902 -0.562813 0.154727 1.895441 0.689770 0.489990 -1.599983 0.207393 -1.606119 -0.108402 1.518782 0.026585 -0.281506 -0.924229 -0.126000 0.729242 -0.310132 -0.523318 0.168096 0.852275 -0.666232 0.716989 -1.037575 0.247985 0.434938 -0.006345 1.029592 -1.298054 -0.024885 -1.189775 -0.317798 0.088433 0.755478 0.751604 1.784408 -0.495580 0.862135 0.339956 0.061345 1.238938 0.249989 -0.037231 1.870219 1.708144 -0.201171 -0.151103 -1.030448 -0.696216 -1.652936 -0.582579 -0.606346 0.809444 0.887647 0.242286 -0.722367 0.820522 1.817834 -1.871930 -0.372836 -1.110927 0.705555 -0.012949 0.052315 -1.039772 -0.740973 0.159018 -0.159016 1.384095 -1.080314 -0.815897 0.450865 1.064376 1.973677 1.743826 -0.527708 0.571856 -1.002131 0.007870 2.566700 0.174901 0.320770 1.643294 -0.057768 -0.105170 -0.953633 0.055705 -1.219981 0.197300 0.513605 0.153737 -1.021659 -1.063098 -0.837469 -0.204762 1.379775
we -0.752713 1.042206 0.178630 0.443091 -0.510441 -1.847675 1.389253 0.859889 0.124194 1.697510 1.630695 0.377154 -0.975251 -2.573923 -1.764858 1.200899 -0.621832 -1.974124 0.994278 -0.214760 1.749519 0.922775 1.804217 -1.370282 -0.535260 -1.140769 0.443057 1.691279 1.048664 0.829932 -2.777600 0.613012 0.013766 -0.557317 0.307400 0.441421 -0.134927 1.249815 -0.570240 -0.270862 1.509900 -1.530304 -1.730523 0.967502 1.536738 0.408108 -0.702711 -2.409443 2.219573 0.262676 -5.139128 1.468840 -2.522511 0.192967 -1.819215 0.804913 1.919538 -0.344083 -1.439230 0.876742 0.628939 1.575353 -0.680144 -0.027583 -0.780914 -0.337544 -0.991175 -1.491866 -0.744116 -1.072633 0.228899 -0.230671 -4.454360 2.371601 -1.127778 2.794769 1.092343 4.614153 2.774567 1.061500 -1.565197 1.769215 0.511738 -3.564766 4.549475 -0.955746 -1.028902 -0.169352 0.679701 -0.060438 0.725962 -0.780631 -0.698330 0.146926 -0.444828 -0.434973 -0.360615 1.188523 0.057346 0.375738 -1.160033 1.251441 -0.547795 -0.041285 0.086026 2.589495 2.108591 -0.997452 0.779545 1.533025 -0.855737 -2.043070 1.155502 1.128830 1.059373 -0.703017 -1.062294 -1.744046 0.060968 -2.075678 0.376704 0.242764 2.519601 0.438570 -2.284753 -0.058439 3.119471 0.047864
will -2.381151 0.655431 -2.220233 -0.566670 0.148915 -1.245157 0.252684 -0.917831 -0.745220 -0.508246 -0.348207 -0.720341 1.705538 1.561195 -7.442998 -0.084127 -0.055383 0.190510 -0.339588 1.547163 0.059657 -0.767805 -1.201439 -1.821256 -0.101519 -1.680115 4.038915 -1.768630 -2.627065 -0.327067 0.779808 0.139998 -2.262524 0.596136 -5.175530 0.266543 -0.164745 -2.648469 -1.831747 -4.052243 -0.621501 -4.033010 -2.814180 0.498307 5.196116 -3.036417 -1.233202 1.941159 2.148505 1.328696 -0.469091 1.261775 -2.129861 -0.456126 1.208211 1.674105 0.205937 1.296903 1.690258 2.360759 1.425216 1.597213 -1.335031 -3.319592 0.856091 -2.412452 1.774699 2.424256 0.445672 1.437020 -3.494517 1.878588 -0.797625 -0.526814 -3.646693 3.407726 7.902256 0.368169 4.943320 2.056307 -0.600006 -0.751829 0.759537 -2.780561 1.655827 -0.038181 -0.869535 -2.216152 -2.600634 -0.827047 -5.447549 -0.252341 -2.163898 -0.598903 -0.162437 1.295139 -0.191067 -3.564895 1.348381 4.279661 -0.551273 1.944942 -0.551642 -0.112296 -2.052033 -1.447491 1.130790 0.062854 0.246730 6.127691 1.496501 -0.152173 -5.195213 0.629615 2.735096 -0.517936 1.457782 1.145386 1.764284 -4.319355 0.550092 0.473967 -1.389825 1.306620 -2.624458 1.004754 0.519511 2.031911
an -0.115965 -0.336425 0.266239 0.162345 -0.010780 0.287871 0.093144 -0.008858 1.115238 0.392746 0.033820 0.162930 -0.310328 0.167174 0.117732 1.932704 -0.089647 -0.789663 -0.003891 0.088360 0.551696 -0.877447 1.520404 0.897610 0.192897 -0.101864 1.299901 -0.126891 -0.198742 0.229777 -0.816047 -0.188174 -1.758701 0.030506 -0.015987 -0.634028 -0.866127 0.791076 -0.006352 -0.114177 0.031969 -0.920327 0.215330 0.099207 1.932429 -0.484485 -1.344742 5.122062 -1.778481 -1.861716 0.582918 -0.927784 -0.987350 1.801160 1.317126 -1.205840 -0.146196 0.245135 -0.163025 0.321963 -1.368889 0.118881 -0.144545 0.545291 0.173599 -1.483016 -0.406605 1.265070 0.109054 -0.096109 0.164478 1.504818 0.327244 -0.981315 0.301223 -0.274661 0.150775 -1.560908 -0.930160 0.027829 -0.545524 0.790712 0.343081 0.017516 0.663466 -0.704503 -0.085157 -0.404065 -0.989576 1.910644 -0.330365 -0.039909 0.279845 -0.134126 0.039265 -0.498463 -0.398655 -0.133195 0.219878 2.614283 -0.151854 0.839076 1.146907 -0.174004 1.080263 -0.528199 0.356073 -0.825601 0.350893 -0.916813 0.007186 -1.386907 -0.375573 0.275632 -0.508349 -0.221961 -0.613053 0.167306 0.452061 1.012077 0.675754 0.639795 -0.155865 0.248287 0.162775 -0.199810 0.796963 0.131672
then -2.714685 -0.929813 -1.570195 -2.150287 0.002235 0.580203 0.374859 -1.792778 -1.753066 -2.995441 1.424644 0.227867 2.888927 2.206815 1.489956 -0.867659 0.956986 1.873934 -0.023644 0.769720 1.146622 0.476654 -0.163086 -0.009255 -0.945427 2.102959 0.944420 -1.390966 -2.250417 -0.989234 -0.666141 2.402434 4.795746 2.909390 2.914199 -3.111817 -1.240764 -1.404354 -0.947670 0.634331 -1.403224 2.612647 1.373100 -0.918334 -1.046305 -2.439836 -0.883892 3.274787 0.030359 1.137931 1.479353 -2.861917 -0.304188 -3.448160 0.868448 0.382612 0.749345 1.446570 -2.409343 -0.524098 -1.994955 3.299135 -2.061419 -0.840451 -1.086104 -2.020891 -0.971774 1.709698 -1.586537 -2.284774 -1.924649 -2.420190 3.493923 -1.432478 1.207457 3.008326 1.385653 1.955303 -1.014264 -1.570985 -3.235833 1.175702 -2.162469 -2.739187 -3.261301 -2.540421 0.976679 -1.540767 -0.219702 -2.149121 -2.477854 2.231734 -2.103265 -1.323523 0.847746 1.518200 -0.751603 0.745831 0.273940 -0.307431 3.288518 1.930187 3.452015 -2.300512 -1.589218 1.695521 0.889208 1.913710 -0.053680 -1.319131 -1.324696 1.114281 -0.296541 0.546042 -1.611418 2.138831 -1.476404 -0.580367 3.204867 -0.300404 1.710535 2.082134 -1.369082 0.832796 1.468993 -2.707426 0.186579 3.516210
their 1.973018 -0.340995 -1.297488 -0.041105 0.257818 -1.163164 0.578485 -0.534955 1.898506 -0.373564 -0.803091 0.646945 -0.490972 0.506452 -1.116530 -0.855595 0.225847 1.341187 -0.765624 0.033633 1.102551 0.206457 1.954043 1.442481 -1.113243 0.785448 2.493119 -3.740052 -0.131934 3.230156 1.630361 0.284004 -0.400952 -0.874733 -0.193397 -0.335450 -0.125249 2.701910 0.617388 0.719701 -2.754559 0.249445 -0.236069 0.915543 -0.314444 0.319426 0.084131 -0.984185 -0.108474 -1.264443 1.181778 -0.728271 -0.108101 1.597696 -0.161113 1.885599 1.452747 1.597660 -1.087442 1.403129 0.221254 -0.137536 1.693301 2.873436 0.384051 -1.003664 0.625098 -0.437504 0.523275 0.216504 -0.822654 2.814760 -0.025252 2.247584 2.064405 0.664883 -1.149916 -1.744740 1.056761 -2.975806 -0.501586 -1.763893 -0.090080 -1.750386 0.336794 2.172187 -0.272424 -1.193627 -2.067621 2.287508 2.246933 0.037164 -0.582997 2.861113 1.509011 -0.144976 -1.719641 -2.239243 -0.387631 -1.222169 0.048839 -0.012330 1.263122 -1.184177 3.494644 -0.204313 0.943195 -1.375380 0.284417 -1.055279 0.273543 -0.292509 0.682010 -3.719070 0.849146 1.291876 -1.169290 1.249280 -0.332516 0.698387 2.232722 -0.204238 0.127237 -1.568252 -1.468852 1.552775 -0.894450 -0.053496
would -2.129683 -0.058847 -0.813361 0.715108 -0.537383 0.746812 0.253560 0.490545 1.189050 1.736964 -0.901437 0.809579 -1.630723 0.363934 2.466258 -0.867610 -0.500205 -0.997413 -0.554693 0.874111 1.678119 0.030715 -1.241851 -1.804343 1.026953 -1.484815 -1.552048 0.147615 -0.580149 1.654658 1.352629 -1.168111 1.057776 -0.697557 -0.239841 0.706552 1.573854 -0.713034 -1.258547 -1.508639 -0.211943 -4.628838 -0.516188 1.702985 1.520239 -1.999225 -0.111418 -1.244277 0.106117 -0.810788 0.649689 0.048263 1.464595 -0.291630 2.952778 2.912516 -0.500456 -0.178915 0.498938 1.708279 -1.477443 -1.105426 0.365888 -0.046637 0.177872 0.108133 1.132399 -1.656645 -1.768719 2.435865 -2.009521 -0.125709 -1.658122 -0.016754 -1.951675 3.793851 0.863077 1.681018 -0.005518 -0.468585 1.135113 1.809013 -1.114632 1.401187 1.565371 -1.061364 2.000884 -1.142933 -0.477110 0.561140 -0.746530 -3.308148 -1.037393 1.767701 -0.305233 0.335506 1.906294 -0.880935 0.239159 0.369720 -0.810968 1.702934 -1.838340 -1.412796 1.915670 -2.201128 1.776690 -0.961117 1.068012 0.963708 0.615842 1.358165 -0.544634 0.714249 -0.023321 -1.473725 -0.581080 -0.711866 -0.473919 -1.679573 3.816373 -2.820123 0.830568 0.480284 -0.038858 0.682040 1.372981 1.261208
them -1.724422 -1.609318 0.938248 -0.100938 -0.428840 -0.114379 1.087580 1.545586 -0.033912 0.526852 0.658130 -0.926234 -4.376561 0.009774 0.417351 -1.314114 4.495129 5.149481 -0.519585 0.563156 0.827540 0.770558 0.090789 -3.449441 1.332737 1.459106 -0.442213 -1.996003 0.891018 -0.027440 1.099916 0.055875 0.658528 -0.110399 -0.206754 2.850714 -5.155662 -1.296385 0.274026 1.300309 -1.718432 3.822736 -1.638401 -1.982586 -4.635249 0.747324 -2.712567 6.403991 1.597747 0.074362 0.768573 2.128683 4.242930 1.856030 -0.216171 -0.228699 -2.518778 1.418416 -2.393242 0.538847 -3.756803 0.086255 0.830088 -1.558501 0.196614 0.148536 1.788649 0.743995 -2.002461 0.546908 1.361120 2.350072 1.628036 -0.913058 0.466679 1.035418 -0.390419 -2.552984 -3.556167 -3.642590 -2.781309 2.678050 3.404155 0.071621 1.896288 1.668524 0.701847 1.569462 0.454389 1.919652 0.413780 -1.817667 0.065480 0.827222 0.131229 2.200303 1.488353 -0.989715 -0.947867 -1.734252 0.113004 -0.843870 1.464892 -2.239928 1.218457 -5.204305 -0.109099 -0.976318 -6.372404 -0.135654 0.163794 -3.805241 -0.461057 0.628488 -0.336544 1.171025 0.288817 -0.641593 -1.072788 -0.930245 3.262855 1.289339 -1.507756 0.505361 -3.254791 -1.007640 -0.108987 -1.574649
been -0.873526 -0.728774 0.036134 -0.048610 -0.068744 -0.676276 0.029235 0.225520 2.091212 0.076418 -0.584374 0.045982 -0.171250 0.400771 0.391751 1.657255 -0.004573 0.166290 1.370639 -0.250062 0.081471 0.966354 0.087502 -1.810890 -0.288670 1.855110 1.193597 -1.217537 -0.952038 -0.443312 -0.203707 0.099425 4.130084 -0.060330 0.068272 0.307389 -1.207459 0.366086 -0.024801 -0.932726 0.149161 1.490833 -0.009208 -1.673085 0.133928 0.273527 -0.499041 -1.290085 1.845300 0.013626 0.303985 0.197271 0.582755 -0.032469 -0.795637 -0.338543 0.559857 0.709701 0.181528 0.470061 0.583420 0.097278 -1.145752 -1.193999 0.024165 0.215213 -0.266502 3.010397 1.167541 -0.861265 0.578114 0.836046 0.065357 -0.031882 -0.151815 0.417967 0.730731 1.368230 1.385482 1.297791 -0.024755 0.592059 -0.053351 -0.116581 0.117885 1.898764 0.115210 -1.528122 -0.379275 1.294428 -0.025627 2.027230 -0.667717 -0.260386 0.117981 -1.346443 -0.774300 -0.127771 -0.133209 2.670120 0.082144 0.476369 -0.398796 -0.253727 1.293259 1.052157 0.121344 0.015797 -1.028947 0.102715 0.012641 -0.915573 -0.200260 -0.414290 -1.211137 0.130813 -0.409015 0.674952 -0.117360 -0.018472 0.365887 0.225846 -0.431679 0.180047 -0.653204 1.586760 -2.817732 0.828412
do -0.868979 -1.211547 0.261176 -2.403609 1.075908 3.453389 -0.160780 0.297737 -1.630865 1.036465 2.378781 0.542299 -2.107179 1.822035 2.022972 -1.884678 0.827301 0.113828 -3.917194 -0.739935 -0.624330 -0.701886 0.462271 -2.530860 2.849147 -0.645135 0.269593 -2.666322 -3.024633 -0.066290 0.888535 1.333533 1.617734 1.511124 0.478018 -1.301798 -0.065139 -1.448296 -2.370039 0.360956 3.488125 -2.071337 0.681374 -3.351235 -1.388344 -0.560476 -3.781035 2.799960 -0.573360 -0.423872 2.470423 -0.356687 0.856382 -0.482581 -0.900890 0.126374 -1.779111 2.189692 -0.150047 0.584954 0.204939 -0.476623 -0.704814 -1.934897 0.234880 -0.165796 -1.532877 -2.199513 -1.026104 -0.296497 2.594549 -0.770491 -2.352161 -2.389378 -4.234924 -0.730029 0.311789 -0.629688 -0.540582 1.031970 1.908950 -0.698335 -0.511425 0.942650 -2.110940 1.207489 -1.924218 -2.354831 -0.002059 -1.963901 -2.414136 1.192331 1.831249 3.216341 0.644004 -0.359209 -1.095352 -1.394717 3.463026 -0.041667 -2.227778 0.301977 -1.830211 0.236270 1.887633 1.213807 -0.476542 0.705192 -0.537034 -0.527736 2.450079 0.340098 1.075114 0.115004 -2.671877 -0.575125 1.460884 -0.745174 -0.543191 -2.740721 0.274186 0.721616 -0.847597 0.997943 -1.033729 1.595367 -0.891405 -1.817024
your 0.636903 1.014751 1.353778 -1.420288 -0.351325 -0.031656 -1.190210 -0.856278 1.878943 -1.626384 0.661352 0.265906 -1.057220 0.389525 -0.687969 0.472713 0.966860 1.710516 0.064589 0.146552 1.421222 0.614591 0.056406 -0.277225 1.710698 0.350952 -0.009602 -0.560019 -0.295565 0.480235 1.328615 1.195683 -0.420702 1.035098 0.779551 -0.324224 1.066052 0.958839 0.802553 0.471007 0.713100 0.749661 -0.643887 -0.980168 0.361789 -0.522060 -0.198813 1.966460 0.822278 0.407306 -0.389844 0.861080 -1.026881 -0.428763 -0.178663 1.139457 -0.226577 -1.112712 -0.362131 -0.861352 -0.267507 1.109388 1.324880 0.807626 0.088814 0.022630 1.893306 1.129776 -1.014879 0.254819 -0.024311 -1.855441 -1.876819 0.271994 -1.303103 0.987145 0.023869 -0.033440 -0.521787 -0.959069 -0.206058 0.801056 1.244372 -0.102656 -0.356435 -1.801666 -0.080013 -0.067397 -0.298570 -0.069096 2.983583 -0.296207 1.473572 -1.029686 0.074183 0.531877 -1.240372 -0.459238 0.326272 0.571810 1.318481 0.564987 0.836773 -2.771145 -0.120340 -0.272928 1.612898 0.776438 0.105029 1.215284 -1.010088 -0.325104 0.665299 -1.166128 -1.885973 -0.154846 0.097660 1.447505 0.233066 0.088796 1.452706 0.116886 0.985877 -0.612165 0.576139 -0.024698 -0.570619 0.788768
now -0.844003 -1.969592 -1.345730 -1.243308 -0.022819 0.798121 0.439122 1.796574 -0.857729 0.785792 1.959680 0.403606 0.579173 -0.483967 0.877299 0.722085 -0.844990 2.136796 -0.272799 0.346105 -0.844732 2.103925 0.081567 -1.794131 -0.867262 0.087382 0.372916 3.011331 0.205198 0.041985 1.766017 3.019956 2.655965 1.782269 1.091024 -1.007495 2.593271 2.454431 -0.971091 1.556712 1.455314 1.920084 -0.021931 -1.887259 0.152807 -0.184988 -1.204209 0.832338 0.948164 2.223496 -0.643093 -0.722899 -1.869635 -1.547879 0.942591 2.145449 0.476943 1.072126 0.232336 2.533553 1.203268 -0.935684 0.839602 -1.602237 0.808952 1.621422 0.913355 0.999962 -2.032577 -1.007456 -0.813647 0.554853 2.203883 1.798849 -0.642973 0.546615 -0.492227 -0.901407 2.267000 -3.091305 -1.253334 1.573800 -1.451833 -0.341109 -1.888019 0.571977 -1.047069 -2.116078 0.196415 0.994849 0.285820 -0.657461 0.038851 -0.683848 -1.747672 -1.140886 -1.880430 -1.452917 -0.390532 -1.465397 0.895362 3.041525 2.625446 -1.419657 1.598207 2.849655 -3.861445 0.790542 -1.771461 -1.943100 -0.441061 -1.187243 -0.491306 0.186460 -0.032288 -1.937363 -1.977557 -2.501804 0.146812 -0.515627 0.786697 1.633109 1.204252 -0.642926 -1.308980 0.203790 -1.405332 1.449517
out -1.113228 0.013329 -0.493780 -0.561516 -1.112213 -1.338578 -0.598456 1.055423 0.249033 -0.015006 -0.479761 -2.878552 -3.923122 -0.622173 -4.364089 -2.744833 -0.233400 -0.422655 0.012881 -0.163178 0.440217 2.049738 -1.677615 -1.544265 2.782701 1.971691 0.545076 1.204628 1.380396 1.525524 -0.357766 0.603527 1.000959 0.496956 -0.541662 -1.520080 -2.772560 2.553676 1.238052 -0.045101 0.310854 2.703497 3.043837 -1.389413 1.577132 -1.234965 -1.530359 3.701407 3.539522 -0.842898 0.955089 -0.243363 2.002506 4.428902 0.821903 1.226677 -0.334294 0.095060 -0.817905 -0.502741 -0.297959 0.552219 -0.562477 4.163377 -2.416145 -0.072559 -0.470517 -0.153592 -1.376941 2.342596 -0.672276 -1.028345 -2.060710 1.786503 0.376886 0.402777 -0.919988 0.789558 -0.321393 -4.015586 0.732286 -1.570364 -0.190089 1.242323 0.046808 2.149965 -0.051715 0.861134 0.620673 2.425870 -1.733958 -0.632205 -0.911895 0.250288 -3.789169 -2.813113 -1.706697 -0.302039 1.234473 0.306121 -0.232613 -0.776437 -0.353230 -1.126291 -1.944070 -0.851184 0.074608 0.130641 0.225741 0.760241 -0.201945 -2.451756 -0.330517 -0.234983 0.115425 0.251485 1.602316 2.546970 -0.108978 2.198025 0.212111 0.431198 -0.873731 -2.684742 -1.194700 2.062933 -0.083393 -0.360401
more -0.423278 0.035727 0.158023 -0.018666 0.793405 -0.836699 -0.053431 1.108784 -2.463264 -0.851000 0.462418 0.081970 0.925810 -0.092350 0.399814 0.463039 -0.199185 -0.722173 0.334401 -0.141323 -0.390492 0.341446 0.120958 0.373233 -0.471645 0.103592 1.300014 -0.323388 0.169297 -0.605820 -0.770789 0.894032 0.727078 0.283486 0.039798 0.104563 -1.156034 0.525723 -0.447883 -0.151182 -1.302448 0.228741 -0.219499 -0.360563 -0.018354 -0.012218 -0.257388 0.188734 0.244599 0.284183 0.106497 -0.332811 0.294668 -0.451241 -0.093190 -0.513137 -0.048255 -0.161414 0.072482 0.017373 0.269756 -0.217026 0.022597 -0.165373 -0.515235 -0.333434 -0.385493 0.812625 -1.135783 0.073986 -0.065671 0.545893 2.233275 -0.561370 0.029758 0.632616 0.219745 2.351824 -0.479580 -0.272651 0.065426 0.514141 -0.220347 0.206324 -0.217242 0.096285 -0.106339 0.066157 0.809979 -0.164658 -0.160460 0.032725 -0.170541 -0.051692 0.012701 -0.031727 -0.795356 0.040839 0.268511 0.898996 -0.024169 -0.288403 -0.099619 -0.209215 0.333337 1.368189 -1.551851 0.113322 0.601130 0.275160 0.460495 0.713823 0.359727 -0.061862 1.144041 -0.485021 -1.268091 -0.291891 -0.121171 3.014239 -0.130068 0.343901 -0.152799 -0.185289 -0.224710 1.652688 -0.227888 0.219760
up 1.954954 -1.209223 -0.339794 3.691569 1.503546 0.804314 -0.060612 -1.339801 1.475243 0.663592 -2.306650 -3.053777 -1.721855 2.587786 -3.913761 -0.028576 -1.414536 -1.104935 -0.667595 -1.293971 0.717954 1.236281 -0.741147 -1.443913 -2.134418 -1.815931 -0.558328 0.033119 0.554994 2.032078 1.349950 -0.113597 -3.352631 1.874133 -0.393378 0.029830 -1.718735 -0.293096 0.031825 3.408021 -0.619223 -2.660946 1.166655 3.070266 -1.365008 0.359976 0.716201 1.362726 -2.473233 -3.842514 1.028192 -0.877644 -2.474091 0.079097 -0.523636 0.165254 3.471879 -1.292352 -3.270085 0.457814 -0.508523 0.177636 -0.912482 1.425580 -0.917525 -4.457661 -3.233121 -1.176579 0.014001 2.402375 -0.735994 0.350633 -0.918200 -2.777602 0.937301 -0.157938 0.403678 0.320106 0.283114 -2.597774 4.187202 -2.796993 -0.885539 1.215998 -0.149279 -2.710688 -1.996513 -1.326200 0.296798 0.687524 0.103742 0.080566 -1.037450 -0.988241 -0.390379 -3.088119 3.292799 -3.348048 -0.290671 3.081896 0.636595 -0.400304 2.481853 0.387412 0.132964 -0.042442 2.980891 1.009869 -1.011458 -1.193230 0.475038 -0.216821 -2.038340 1.935781 -1.802914 -1.367872 1.421498 0.561976 -0.930785 3.931079 -0.596559 1.932032 2.158648 -0.159799 -1.062457 0.482496 -1.415043 0.860995
man -1.014128 0.014810 0.199545 0.508425 0.728003 3.822366 -0.030882 0.291331 -2.657860 -1.063868 5.257109 0.012589 -0.509456 -2.103485 0.059259 1.501823 0.666369 -0.852491 2.305776 -0.494708 0.383749 -1.200900 -1.853134 3.087751 -0.601052 -1.033162 0.096408 0.184655 -0.432893 1.770979 3.302443 -0.017589 1.953192 -0.293213 1.712997 -0.473550 0.872407 -0.435610 1.761349 -1.708085 0.101995 1.450898 0.238730 -1.867350 -1.163541 2.280895 0.380695 -2.530747 0.573382 2.158562 0.091556 -1.629996 0.419521 0.196872 0.926732 -1.678965 1.887038 -2.290082 -0.414126 -0.123004 2.697171 -0.093802 -0.411376 0.175167 -0.370487 0.231620 2.260122 1.003853 1.243549 -0.458038 -0.739060 1.272650 0.272027 -1.556610 -1.267174 -2.214471 -0.932846 0.944752 0.746929 2.667804 -0.064121 3.681398 -0.762049 0.389949 -1.813410 -1.431407 0.014137 0.606019 -0.813291 0.509371 -0.765859 0.432354 -1.982188 0.473297 1.371045 0.942588 0.123409 1.588591 1.481438 1.489655 -1.295376 0.633719 1.659510 -0.690419 -0.351341 2.281816 -0.124855 1.309215 -0.262958 -0.239595 -2.137744 0.375865 -0.640205 -1.102992 1.668828 1.188657 0.412419 1.487528 0.487597 0.722750 -0.096510 -1.289341 2.014400 -0.141965 -2.372333 0.010172 0.539936 -1.225596
into 0.939942 -0.061573 0.029157 -0.005611 0.249195 0.151177 -0.066771 -0.692211 0.023482 0.026410 0.217926 -0.003524 0.021443 0.670096 0.012529 -1.647121 1.164619 -0.907615 -0.028724 0.044567 -0.013914 0.385957 0.800074 0.311976 0.019387 0.007797 -0.372376 0.556469 -1.981813 -0.354124 -0.057328 -0.247142 -2.547976 0.021934 0.261256 0.001022 0.083983 -0.286540 -0.457533 -0.028297 0.374943 1.098005 0.081458 3.413459 0.475610 0.017407 -1.352084 -1.569537 -0.079623 -0.030183 0.031057 0.072673 0.106567 0.022596 -0.027051 0.079925 0.126851 -1.142987 0.002140 0.463195 -0.029293 -0.052051 -0.003712 2.143444 0.299399 -0.006547 -3.251907 -1.702129 -0.508953 -0.552866 -0.019910 0.374506 0.468895 0.139475 0.024169 -0.234902 -0.027582 -0.364086 0.038730 0.978915 -0.022088 0.920933 -0.317961 0.004157 -0.819496 1.884315 -0.133761 0.513686 -0.023836 -0.296120 0.029385 0.146371 0.120815 0.014401 -0.162520 -0.557910 -0.060559 -0.001829 -0.010774 0.334617 0.548097 -0.143702 -0.011083 0.045445 0.537637 -0.765592 -0.019623 0.008650 0.080592 0.004734 0.059341 0.721047 -0.126278 -0.004845 0.205191 -0.543274 -0.642535 -1.356671 -0.011309 0.412022 0.028417 -0.173741 -0.275500 -0.071549 -1.163683 2.164741 -0.025942 -0.017919
some -1.913861 0.325111 0.374314 -0.400071 -0.633799 -0.035766 0.891458 1.158646 5.156322 -2.000002 0.555254 0.203701 1.840569 1.660034 -2.022855 1.966476 2.651638 5.002820 -0.954819 0.167627 1.286825 -2.907268 -3.002725 1.756275 2.201916 -0.049146 2.077697 -1.570289 -0.616430 0.691727 1.082392 -0.120566 1.749712 -0.600732 0.853550 0.190952 -1.239485 4.167612 0.170006 -3.494366 -0.109189 0.183879 0.808879 1.095420 0.648362 -1.075077 -0.225056 -0.222179 -0.829196 2.857076 1.310156 -0.977543 0.319269 0.306810 -1.457012 -1.568328 0.616783 -0.206555 1.352265 0.332328 -2.309511 2.028735 -0.163181 2.465318 -1.874925 -1.844990 1.140359 -0.137026 -1.126525 -1.406080 -1.515141 2.282011 -1.451312 2.211023 -0.133440 -1.441970 1.820990 -2.625530 1.159361 -0.295736 0.307586 1.652095 0.882249 0.423849 0.704402 0.432399 -0.089646 -1.561867 2.319448 -0.905301 0.641318 1.109897 1.796186 -0.544549 0.062982 0.199149 0.574895 -0.591181 -0.329253 -1.288968 -0.738863 0.604080 1.521354 4.844540 0.104459 -1.882401 -2.092045 -0.362707 -0.806562 0.578588 -0.341579 2.275121 1.090312 -0.146656 1.747236 0.367995 -0.647559 1.268180 -0.831150 1.641977 -0.221298 0.706810 1.479704 0.158952 1.831766 -0.220554 -6.519246 0.671143
could -1.125106 0.070109 1.106358 0.726129 -0.582867 0.477917 -1.409389 1.214534 -0.048213 0.352589 -0.102144 1.200704 0.000725 0.575354 -1.391316 1.006257 -0.933253 -0.482742 -1.457698 0.599606 1.789966 0.364303 -0.380636 -1.232590 1.615047 0.380329 -0.211147 -0.667273 -0.482735 0.511195 -0.160759 -0.855441 1.974883 -1.635623 -0.531013 -0.891112 -1.945427 0.173240 -1.307143 -0.393218 0.389349 -2.441108 0.279905 -0.375055 1.141079 -1.439982 -0.137469 1.165529 -0.416538 -0.852864 -0.999649 1.072209 0.103342 -0.385591 -0.532238 0.207841 3.596725 1.477636 0.775164 0.422094 -0.541604 -0.728177 -1.564199 -0.894836 1.219208 0.312230 0.721561 1.784843 0.109600 -0.775977 0.826356 0.061821 0.174638 0.029743 0.470619 0.763055 -1.198355 1.196023 2.213535 -0.508825 -2.096766 0.189039 0.745258 2.799811 0.937404 -1.661299 -2.389773 0.200062 1.449546 -1.828571 0.887027 -1.014849 0.391322 -1.042927 -0.314197 -2.205520 -0.044449 1.297261 0.945236 -0.006137 -1.135261 -0.744561 -0.517540 -1.507114 1.934661 -0.689016 2.004498 -0.460204 -0.082787 0.548103 0.016151 0.320148 -0.993578 -0.370474 1.923610 -1.103753 2.184313 1.216680 1.529917 1.558302 1.148468 -0.363133 -0.490885 -0.976699 1.489389 -0.498065 -1.136202 0.670342
has -0.147741 -0.928597 0.220889 0.006203 -0.201994 -0.560453 -1.009845 0.018094 -0.333144 -0.052694 0.200268 -0.078782 -1.904602 -0.475746 0.006643 -0.498495 0.872315 -0.110037 -0.016345 -0.383099 -0.062989 -0.506492 -1.219376 1.691693 -0.025406 0.011061 0.382188 -0.115594 -0.759868 -0.513392 0.035029 -0.046348 0.125882 -0.034926 -0.011039 0.287325 -0.315425 -1.250632 -0.277162 0.089833 0.085377 -0.364313 -0.160604 -1.551297 1.379267 0.081233 -2.400423 -1.813100 1.318594 -0.637068 0.055503 0.065035 0.339282 0.009611 -0.006719 0.063056 0.300260 -0.960449 0.137102 -0.057118 -0.012086 -0.014833 -0.233851 -0.336021 0.094183 -0.224745 0.070958 0.655656 -0.861589 -0.204337 0.057206 -0.612779 0.975076 0.063878 0.049872 0.017072 0.037709 -0.441095 -0.411249 0.070897 -0.057266 0.153594 0.007870 -0.024659 0.151497 0.791790 0.606715 0.030115 0.694913 0.249007 -0.115438 -0.465588 0.131846 -0.037192 -0.041662 -0.543381 -0.279017 -0.007869 -0.029916 0.040251 0.627899 -0.582134 0.800007 -0.026280 -0.032203 -0.034575 0.006982 0.016453 -0.000730 0.079533 1.766072 0.454842 -0.020689 -0.098891 -3.674431 0.138062 -0.514122 -0.105084 -0.044447 0.128057 -0.197510 -0.272036 0.627381 0.075210 1.765438 -0.604225 0.436276 -0.031097
only 0.891583 0.566632 0.003361 0.132678 -0.196368 0.175902 -0.444462 -1.387474 -1.151595 0.058488 -0.065026 -0.524129 -3.404140 0.492663 -1.695812 0.136589 -0.239479 0.979502 -0.126239 -1.327217 -0.016982 0.433169 0.418244 -2.075164 -0.089342 -0.027096 -0.299191 -0.728607 0.908163 -0.185230 0.807300 -0.070624 -1.008707 -0.113942 0.100095 -0.074093 1.246399 3.139061 0.017575 0.028058 -0.003348 1.228871 0.169786 -0.552491 1.653833 0.589476 -2.872182 -0.560129 -0.066714 0.185932 -0.171259 1.050368 0.066223 4.142047 -0.127290 -0.208570 0.430762 0.207433 0.126258 0.219106 -0.179360 0.027627 -1.110097 0.400717 0.118549 -0.743125 0.003010 -1.137873 0.751569 2.550632 -0.037229 0.087976 0.667769 0.868482 0.036818 2.848917 0.158318 2.303939 -0.072730 0.965080 -0.132674 0.800815 -0.021701 -0.479331 0.026027 -1.559753 -0.559198 -0.425989 -0.050858 0.294013 0.275946 -0.054446 -0.052820 0.062554 0.354130 -1.010780 -1.020824 0.119970 -0.167281 -1.310240 0.602902 0.055217 1.623628 0.212788 -0.425499 -0.329658 -2.711964 0.234977 -0.012715 0.080703 -0.056562 -2.196012 0.117187 -0.080963 0.181975 0.130853 0.632702 -0.773113 -0.010694 0.435181 0.450815 1.708407 -1.306101 0.089183 -1.694291 2.141713 1.691219 -0.115616
any -1.120666 -2.188758 -2.408019 -1.170567 -2.109182 2.565287 -1.783734 2.025640 -0.499475 1.646176 3.642710 -0.297648 -0.175737 -2.683295 -2.087088 -1.907769 0.718017 -1.978294 -0.032513 0.272729 -1.769418 -0.341317 0.182266 -3.084470 -0.324083 2.332635 1.639334 -1.505686 -0.711543 2.071995 -0.785959 3.962505 -0.069031 -0.683581 0.513857 1.438773 -1.988257 1.817701 1.353949 -3.141447 0.296438 0.467216 -0.003442 -2.893546 -0.607493 -1.273907 -0.132576 7.343524 -1.180799 1.666442 -0.585577 0.441063 -0.090086 -0.904719 -2.603990 -0.232904 -1.299287 -0.850936 1.221895 3.419226 -5.207911 -2.553908 -4.741053 1.434517 -0.730181 1.402541 0.649042 1.861575 2.749359 0.804518 -2.530221 0.813701 0.008047 -2.116279 0.664333 -0.014683 -0.392334 0.841599 2.218704 -1.042402 -0.095235 -1.244735 1.515657 -1.307019 1.563972 -3.575569 -1.512747 -2.376226 -1.707909 1.306635 2.071574 -1.077326 -0.728107 0.091503 0.054677 0.502398 -1.732813 -2.762918 -0.719850 0.499820 2.320884 0.659892 -0.114189 -1.633425 0.318659 -1.788556 -4.809547 -4.136615 -0.360892 -1.063207 -1.049184 -1.310552 -1.534233 -2.013608 3.103910 0.354308 -0.944599 0.011765 0.701733 4.617507 -1.489327 -0.003846 -2.276070 0.825842 1.317138 -1.432871 0.574587 2.126213
very 1.195877 0.428460 -0.478388 0.521934 -0.766803 1.108438 -1.548766 -2.759806 -0.335322 3.826469 0.966086 0.252584 1.336697 6.418139 -1.564348 -1.505077 -2.787987 -1.489480 0.613169 -0.015912 1.422450 0.568536 -0.872513 -0.454360 -2.649010 0.655985 1.262668 -6.334640 -1.637627 0.657753 -1.738845 0.846152 -4.705178 -1.259409 -0.213986 -0.711112 -4.604949 2.038856 1.298575 0.851880 1.312036 -3.941156 -0.367534 1.248596 0.725787 -0.426358 4.365486 3.246091 -5.298047 -3.840060 -2.438116 2.077916 0.930951 0.985848 2.347762 -0.949441 4.069012 -2.476213 -2.017164 -1.118488 1.105581 0.054136 -1.293378 -0.694098 0.283085 -0.559163 -3.171949 -2.050928 0.066833 1.357471 -1.918257 -2.985120 3.163315 -2.796276 -1.726442 -0.419246 1.031618 -2.365310 -3.924525 -0.146760 2.113638 -1.957902 -0.769787 0.587569 -2.456794 -7.333078 -2.137500 0.690853 0.329047 -0.455420 1.665144 -0.043343 1.860722 -1.870624 1.928745 -1.757002 2.480581 -0.306148 2.452741 2.958114 -0.509603 -0.655316 1.642350 0.403414 0.157372 0.429812 1.184091 -0.635339 1.443000 0.277905 1.608400 4.671676 0.872223 -0.611630 -2.441490 -0.431269 0.136767 -0.564225 4.454671 5.146866 -0.232454 0.496937 -0.217704 -1.274224 1.198132 -4.752254 -1.646249 -1.269367
like 0.847943 -1.971897 -0.209475 -1.332089 0.234791 2.094369 3.974499 0.265207 -0.977615 -0.898421 1.051221 0.299394 -0.035624 -0.278278 0.835386 2.351944 -0.546991 -0.608486 -0.488270 -0.887087 -0.276079 0.471911 3.084738 -1.445375 -0.871861 -0.142996 -0.217917 -1.549812 -1.327359 -0.440176 0.017603 -0.203558 -2.563302 0.471139 -0.195747 0.593601 1.078509 0.264190 0.235204 -1.076101 0.347320 -2.070292 -1.391741 -1.762517 -0.391672 0.873650 -0.976498 1.734544 -1.583466 -2.360742 -1.497475 -0.268025 -1.311460 -0.071170 -1.665406 -2.521213 -1.321384 0.599060 0.761335 -1.625304 -0.081902 -0.325015 0.412944 -0.583230 -0.139526 1.825735 0.202951 0.216356 1.948369 -0.366273 2.386486 2.902649 -0.240877 0.297462 0.092372 1.631149 -0.319904 0.386184 -0.535300 -1.426136 0.316463 3.760687 1.994363 0.836212 -0.385518 1.681594 1.979207 -0.604640 2.048722 0.045641 -1.421792 -0.146684 -0.314304 -0.452258 -2.013943 -1.084524 0.594263 1.546389 -1.786981 4.148294 1.077047 -0.551873 -0.583376 -0.571307 2.036817 -0.961520 0.739107 -0.099394 1.858571 0.520685 -0.140912 0.571656 1.555841 0.127630 1.370637 0.324131 -1.764109 -2.337399 -1.580061 -0.460226 0.845023 -0.305657 1.799510 -0.332469 -1.564332 -0.290492 1.458640 0.734334
did -0.363781 -0.131551 0.159765 -0.255317 1.863824 0.561669 0.527945 -2.467443 -0.856968 -0.339844 0.154139 0.703703 0.619939 -1.838325 0.665091 -1.215809 0.032391 0.690344 0.978118 -0.788558 1.207401 0.121416 -0.675847 0.255121 0.842746 -1.048543 0.989732 1.421721 0.387600 -0.507532 -1.550894 0.880074 -0.036083 -0.528527 0.382955 0.008421 -0.848417 0.105363 0.680492 -1.376783 1.457159 -2.549832 -2.430484 0.016041 0.157319 0.226726 0.075392 -0.129945 1.336136 1.629777 -0.338279 -1.163538 1.311456 -0.243891 0.092619 2.142330 0.087997 0.869889 1.500505 0.376148 0.543894 -0.013076 0.592363 0.138968 -0.353490 -0.654608 -0.898708 -0.399589 -2.158594 0.332777 0.873093 -0.557976 -0.342191 -0.310885 1.715705 -0.874280 1.276408 -0.749962 -1.439512 0.478712 0.503956 1.150261 1.551088 1.754477 0.232881 0.666651 1.467966 0.050370 0.848089 0.258301 0.006338 -0.645991 0.375291 -1.663257 -0.004651 0.927706 0.479736 1.935939 -0.306696 -1.926128 -0.154404 -0.145384 -1.603380 0.444693 1.237329 0.828843 -0.715785 0.163013 0.301497 0.418744 0.756851 1.832404 0.121466 -0.577037 -1.237045 1.783391 1.625212 2.258862 -2.098217 -1.033026 -2.155560 -0.537348 -0.755472 -0.424114 -0.776553 1.051019 0.019545 -1.798532
time 0.296842 -0.500069 -0.567734 0.087914 0.757660 -1.569287 -2.387761 0.487174 0.299502 -1.154919 0.818501 0.531059 1.470531 0.123060 -1.371976 -1.394621 -0.054008 1.258764 -0.484739 1.230837 1.524496 -2.322612 -2.203928 -0.466022 2.380142 -0.393339 3.538320 -1.484800 -1.103022 -0.882140 0.524841 0.702583 1.758117 -0.482587 -1.438376 -0.310794 -2.163240 -1.107571 -0.863529 0.312468 -0.926412 1.048205 1.524502 -2.053679 -0.305747 1.207065 1.344437 1.504089 0.660960 0.726976 -2.996466 2.306046 1.235928 -1.282521 -0.059935 -0.783047 -0.557252 2.136939 0.321690 -1.416846 1.899339 -0.103627 1.524831 -0.789017 0.131441 -1.441181 -0.675618 0.659362 0.947287 1.244156 1.283002 -0.591086 -0.378961 -0.339800 0.449580 -0.673646 0.245910 1.223775 0.356557 0.337081 -0.389196 1.601517 -0.819356 0.047986 0.864806 0.102525 -2.405626 -0.190951 -1.020042 -1.420907 1.098117 -0.484065 0.997434 -0.594011 0.345888 0.808448 -2.332758 1.367601 2.691893 0.534414 0.195908 0.058088 -0.883960 -0.416608 -3.164061 1.523477 -1.357691 1.803066 -0.496035 -0.451642 2.041775 0.506413 2.321352 2.094261 2.082654 0.776725 0.433761 -1.059939 1.616845 1.037399 -2.074583 0.722278 -1.271656 -0.268696 1.074550 -0.511838 3.391676 -0.572967
its 0.837138 0.513824 -0.236402 0.309858 -0.501472 -1.921634 -1.367173 0.397735 -0.007267 -0.786523 0.489689 0.109242 1.270322 1.533562 1.444689 0.370497 0.533020 1.737822 -0.424795 0.938265 1.045708 3.006980 0.265626 0.536172 0.448774 -1.433868 0.676571 0.307491 -0.236234 -1.063107 -0.246534 -2.273607 0.424015 1.081238 0.493440 0.763619 -0.616834 0.277850 0.040402 -0.978855 0.622092 0.991779 0.467720 -1.726195 -0.700067 -0.865712 0.652770 1.324667 -0.162722 -0.822982 -1.044237 2.074551 -0.009985 -0.757750 0.587048 1.123671 -0.568118 -0.928810 0.750428 -1.942300 1.023405 0.383047 1.531854 -1.525621 -0.681267 1.195301 -0.687437 -0.810058 -0.136304 -0.113824 1.464076 1.504871 -3.318180 0.844184 -0.318911 -0.074213 -0.066128 0.452139 -1.468250 -1.468077 0.954917 0.419648 2.224589 0.780154 -1.035756 -0.340596 0.043718 1.724077 -0.524308 -0.610108 0.482669 -0.526277 0.386616 0.158021 -0.349555 -0.739476 0.924848 -0.690544 0.189796 0.900289 -0.678142 1.668767 0.147679 1.588818 0.140653 1.658924 -0.793916 -0.443545 -0.115701 1.884063 2.004826 0.016507 -0.293268 0.296692 -0.145377 0.287796 -0.844886 0.522941 0.596648 -0.524976 -0.100397 0.183795 1.015771 -0.377574 -0.472810 -1.959830 -0.797975 -0.441850
than 2.869086 -0.076318 0.446805 0.681714 -0.705376 -0.450761 -0.041650 -1.713546 1.919627 -0.882071 -1.511269 0.551530 -1.588867 0.612573 0.666121 -1.144826 -1.694345 -1.497099 0.093819 -0.631850 2.074685 1.402168 -0.683649 0.919739 -0.497694 -0.258347 -0.316000 -0.400670 2.363808 -0.593635 2.190496 0.320099 1.261549 1.249766 0.961636 0.597911 0.137635 -0.554791 2.367003 0.989171 -1.184576 0.531643 -1.451079 3.187752 -2.982463 0.935577 -1.280800 -4.475720 4.461152 -1.606182 0.407001 -0.060054 0.297315 3.737485 2.407085 0.788308 0.394176 0.473314 0.840159 -1.011272 2.041955 -0.367201 0.581805 -1.212463 2.167707 0.345686 0.834097 -1.812772 -1.528115 -0.601285 2.005096 -1.011508 -3.964818 3.286275 -1.509822 0.411712 1.078157 -3.263909 1.992073 1.175897 0.223685 0.129538 -1.897494 -1.218256 -1.874562 3.010250 1.458815 1.645750 1.018985 -0.743817 -2.747059 2.052009 0.335546 -0.074683 0.027429 -2.281290 1.855824 1.205927 0.098122 -0.632421 -0.937950 -0.378603 1.786380 1.346318 1.010371 4.490332 0.444642 2.182987 1.250041 0.500638 1.139009 -1.358813 1.593553 1.254126 -2.291095 -1.006048 0.703493 1.909547 -0.274162 -1.394474 1.319392 -0.386511 0.389306 1.045592 -4.981270 3.487406 0.433027 0.087343
other 0.385916 0.421099 0.082275 -0.188461 -0.032007 -0.031490 0.045011 -0.207562 -0.026674 -0.719685 -0.137149 -0.395317 0.379099 -0.687276 0.007734 0.951685 -0.050518 -0.280666 0.683839 0.068548 0.355726 -0.093614 -0.886233 -0.827466 -0.265164 -0.101974 0.014744 0.171695 -0.002880 0.031319 0.194720 0.019406 -0.716467 0.097099 0.086323 0.305600 0.518184 1.262644 0.052875 -1.028596 0.013248 -0.199475 -0.032333 1.277107 1.544536 0.034637 -0.418624 -0.079696 0.376643 -0.043729 -0.166496 0.620191 0.053274 -0.127706 0.304229 0.290044 -0.133586 -0.576199 0.098065 -0.050827 -0.098368 -0.526975 0.166443 0.162022 0.177185 -0.082350 -0.223413 0.351826 -0.044408 -0.052205 -0.134095 -0.518151 0.028781 -0.094800 0.005620 -0.531902 -0.256870 0.129798 0.068625 0.419254 -0.075876 0.648789 0.110118 -0.032581 0.156029 -1.204906 -0.264989 0.488257 0.030844 0.003361 -0.022676 0.003304 -0.178193 -0.213761 0.012210 0.240739 -0.943970 0.002345 -0.033183 0.220810 -0.238306 0.008230 0.026243 0.053469 -0.130535 0.015668 -1.282449 -0.048603 0.333819 -0.032559 -0.189375 -0.843912 0.383765 0.078741 -1.509602 -0.048450 -0.051461 0.025504 0.643089 1.617475 -4.365301 -0.113481 -1.820695 -0.030205 -1.134186 0.389841 0.167965 -0.072235
before 0.116050 0.888974 -3.216968 -0.534749 -1.018722 -1.160503 -3.506927 -2.342127 -3.260752 -2.902718 0.442901 0.944715 -1.281539 -0.939713 3.838959 -0.922818 0.677812 -2.456452 -1.648156 -0.517854 1.526723 2.145482 -2.175431 -3.327985 0.150560 2.614117 2.719747 -0.248734 2.433649 -0.782357 1.361432 0.189648 -1.675805 -1.577534 0.012630 2.199237 1.364318 -0.122909 4.178239 -3.280427 -0.055736 -1.112431 2.061531 -2.396629 0.598011 2.776834 5.851179 -0.805536 1.719216 1.154923 -2.414814 1.185816 -2.599178 -1.327860 1.764771 0.263612 3.114251 0.427609 0.900990 2.177730 -3.946200 -0.593915 3.428098 0.633446 1.547351 0.949698 1.651058 0.817155 -1.910717 -1.467004 2.848395 0.390788 -0.175650 -2.182236 -1.256124 2.470476 3.239225 -2.438090 -0.469653 1.639288 -0.982933 1.121475 0.546964 -0.460793 2.151407 -0.224724 5.971902 2.931467 -4.873701 2.278489 -4.601687 -3.906834 -0.027737 -2.554827 -0.667985 2.601317 1.209779 0.949044 -2.738803 0.045523 -0.605925 0.697376 -0.411296 -1.806559 1.475886 1.358979 1.634379 1.771371 1.660144 2.794855 -1.447031 -3.505760 -2.608910 -2.232839 -3.108511 -2.458459 -4.353704 3.438451 -0.598443 -0.516274 3.132477 0.190072 4.439269 2.292618 4.537363 3.534472 1.597785 -1.892338
about -0.219373 2.181766 -2.936519 0.696240 1.724949 0.786026 -1.223812 -1.569690 -0.702332 -3.178182 -0.158869 -0.240193 1.002000 -1.053267 -1.813264 0.962170 -0.347572 -2.774099 -0.502801 -1.850290 -2.132445 -2.672776 0.259298 -0.933450 0.389119 2.896770 -0.896535 -0.607742 0.624911 -0.174534 -0.197835 1.035653 2.283055 0.997240 -0.415914 -1.687734 0.544205 -1.571474 2.786061 -1.693499 -0.611515 0.761446 -1.952219 2.397393 0.656170 0.267917 0.799744 -0.830880 2.523133 -3.908238 -2.145701 -0.541831 -0.186553 -0.978713 -0.019537 0.866201 -0.354595 -1.170356 -1.474826 -0.262751 1.208974 -1.332559 -0.122540 -1.022282 1.539387 -3.149702 0.101720 -0.169141 -3.556831 0.228554 1.002899 -1.991913 1.351228 1.560178 0.332558 -0.099660 -0.101319 -0.987816 -1.287257 -0.595006 -1.430131 -1.209760 -1.546456 2.008000 -1.174929 2.273714 -0.936582 0.546759 1.540527 1.572009 -0.168066 -0.586666 -0.916741 0.344517 -2.264373 -0.189915 -0.029168 -0.354074 1.660912 -0.310617 0.531954 -0.496555 -0.163041 -2.404260 -0.991211 -1.085921 -3.181112 0.681626 -0.538339 2.206354 1.533210 0.488142 -1.907464 -0.355649 -1.132370 -0.362085 1.026043 1.720617 3.210237 0.533108 -2.387768 -0.904866 -3.470982 0.834220 -1.903840 3.190419 0.859814 -0.126733
