3000 128
<pad> 0.284328 -0.529293 -0.078051 -0.681358 0.091504 0.045033 -1.424521 -0.090171 0.140019 0.079760 -2.028484 0.550186 0.000668 -0.546041 0.183143 -0.498791 0.393050 1.151151 -0.085286 -0.502834 -0.117392 0.116956 -0.377416 -0.108379 -1.030341 0.033305 -0.119823 0.468481 -1.328288 0.024921 0.031767 0.011157 0.040218 -0.033255 -0.113043 0.054170 0.284781 -0.021928 0.326873 0.056192 -0.126897 0.771646 -0.001857 0.197264 -0.018829 -0.105658 -0.325609 0.729614 -0.022096 0.105658 -0.144389 -0.698983 0.349141 0.062180 -0.043904 -0.013679 0.043710 -0.004064 -0.043202 -0.012456 0.324182 0.060554 -0.350983 -0.009418 -0.068359 -0.099857 0.059472 2.069641 0.700199 -0.361916 -0.054113 -0.052150 -0.608006 0.086773 0.292315 0.438045 0.371315 0.639049 -0.713987 0.147644 0.522727 -0.016076 0.786264 0.059679 0.015502 0.040150 -0.061193 0.338124 0.167607 0.161641 -0.909502 -0.087335 -0.660921 -0.052965 -0.021024 -0.689563 0.180948 0.149400 -1.064240 0.348447 -0.906057 0.026975 -0.051994 0.014218 0.301354 -0.187918 0.314107 -0.165149 -0.420249 0.097622 -0.278231 0.197980 0.816999 -0.022253 1.688858 0.000636 0.146206 0.269617 0.368107 -0.180538 -0.130024 -0.551561 -0.300211 -0.114519 -0.214958 0.213703 -0.143923 -0.046801
<start> -1.230654 -0.247612 0.125063 0.776683 0.038312 0.086898 0.892871 -0.372424 -0.160072 -0.151696 1.037179 -0.262111 -0.004914 0.957546 -0.652255 -0.092806 -0.292480 -1.060068 0.021871 0.362188 -0.241224 -0.002301 0.376837 0.179203 1.144797 1.194185 0.032879 -0.074494 -0.269586 0.114747 -0.048974 -0.030895 0.027470 -0.052085 0.096662 0.009845 0.684201 -0.039455 -0.223509 -0.018464 -0.000697 -1.016550 0.005590 -0.371804 0.000385 0.112469 -0.062609 -0.587257 0.044930 0.357639 0.104482 -0.489932 -0.429702 -0.101478 -0.023678 -0.039479 0.103402 -0.002866 0.034103 0.404555 -1.041814 0.013821 -0.068501 -0.039381 0.190293 0.010928 0.121066 0.102917 1.475392 -0.072968 -0.440134 0.004855 1.256382 -0.168790 -0.170668 -0.319818 0.026295 -1.307137 0.850537 -0.948442 0.168302 0.023492 -0.024359 -1.378576 -0.015252 -0.315771 -0.018667 0.628904 1.016608 -0.309837 -0.285041 0.214407 0.658807 -0.116917 -0.031809 0.215997 -0.423873 -0.031691 0.316181 0.518153 1.807656 -0.007028 0.708844 0.015442 -0.123885 0.133736 -0.838949 0.103096 -0.066980 0.270518 -0.114390 0.161602 0.173690 0.041601 -1.350177 0.038224 0.000560 -0.067289 -0.445654 0.374706 -0.063795 -0.771565 0.153273 0.029814 0.219490 -0.183156 -0.086879 0.099517
<end> 0.901812 -0.495435 0.080779 -0.678961 -0.209078 -0.112354 -1.743478 0.055816 -0.056935 -0.348083 0.481200 -0.034785 0.003936 0.057337 0.027476 -2.595128 0.174150 -1.057691 -0.053149 0.647221 0.218216 -0.615529 0.324062 -0.142580 0.469927 -1.053278 0.101982 -1.161122 -0.203606 0.057660 0.005127 0.063715 -0.230867 -0.034626 -0.272107 0.038441 0.286968 0.032537 -0.131229 -0.049556 0.791264 0.194886 -0.091278 -1.085513 0.090133 0.617642 0.550498 -1.950919 -0.170654 -0.557596 -0.024658 0.999863 -0.566273 0.216963 0.011495 -0.258899 -0.058924 0.013658 -0.025467 -0.656140 -0.544912 -0.435120 0.349141 -0.060566 0.166352 0.022106 -0.016339 -1.692336 0.158322 0.214477 0.615011 0.447222 0.027584 -0.054403 -0.269812 -0.048554 0.260849 -0.009297 -0.381312 0.091882 -0.715010 -0.028697 -0.118352 0.214642 0.145990 0.084866 0.105979 -0.794024 -0.823079 -0.297525 0.883528 0.578152 2.177146 0.426605 -0.597819 0.640458 -0.008659 0.299592 0.429822 0.046767 -0.034639 0.008375 -0.280225 -0.073621 0.687035 0.754946 0.154119 0.379502 0.143462 -0.384567 -0.504422 0.651555 -0.677571 0.023202 -1.749030 0.039596 -0.391303 -0.621816 -0.220134 0.771511 0.209174 0.101428 -0.272930 0.516342 -0.313335 -0.169454 0.514919 -0.074919
<unk> -0.011391 0.275296 -0.008597 0.035578 -0.025040 0.003605 0.013843 -0.041130 -0.036936 0.005533 -0.265194 -0.310499 0.010154 0.067465 -0.001751 0.102811 0.001046 0.001912 0.039415 0.011520 0.004703 -0.022567 0.006027 -0.006752 0.097545 0.066155 0.021804 -0.002234 0.145738 -0.033188 -0.025575 0.009718 -0.008244 0.007174 0.052960 0.014003 -0.046842 0.036973 -0.024089 -0.007920 0.014058 -0.009407 -0.014222 0.444266 0.011053 -0.009749 0.031938 0.010435 0.019326 -0.016973 -0.006295 0.107393 -0.034356 0.010049 0.014380 -0.009132 -0.005733 -0.001670 -0.009804 0.015007 -0.103964 0.025289 -0.755490 0.007095 0.046939 -0.001217 0.019556 -0.122419 -0.103645 -0.003625 0.015668 0.012782 0.039661 0.001231 -0.035955 -0.071402 -0.131266 -0.055342 0.099631 -0.077935 0.003559 0.003382 -0.020071 0.033074 0.004490 0.006450 0.011044 -0.090728 -0.051887 0.046436 0.040030 -0.059615 0.005550 0.006538 -0.001354 0.014548 -0.033056 -0.047676 -0.018291 -0.060113 0.012821 -0.010463 0.025943 -0.020041 -0.221003 -0.000126 -0.013170 -0.031871 0.192318 -0.004697 0.230558 -0.064492 -0.276695 -0.005878 -0.001694 -0.003094 -0.001097 -0.075835 -0.022715 -0.099872 0.009690 0.031906 0.060035 0.004587 0.026472 -0.015524 -0.048180 -0.001665
the 0.033805 0.464771 -0.044399 -0.039596 0.134135 0.620791 1.358452 0.369322 0.428970 -0.140238 0.035473 -0.406894 -0.466108 0.201513 -0.442573 -0.091548 -0.109950 -0.407557 -1.390833 1.406440 0.241837 0.012484 -0.122838 0.006853 1.125786 -1.089560 -0.090828 0.107446 -0.439461 0.290373 0.417106 -0.593285 0.069148 -0.497421 -0.440347 -0.141616 -0.025941 -0.041787 0.073300 0.383267 -0.103431 0.116199 0.258622 -0.786444 0.221576 0.313336 -0.196325 -0.126681 0.048728 0.186205 -0.251748 0.509652 0.069261 -0.064375 -0.088013 -0.845661 0.433272 -0.429884 0.465276 0.612427 0.359127 -0.871460 0.653795 0.389401 -0.537857 0.702530 -0.419415 0.414432 0.479686 -0.565979 0.529006 0.011201 0.039825 -0.011985 0.055824 0.467745 0.419315 -0.469513 -0.877201 0.227467 -0.236827 0.054879 -1.318116 -0.823729 0.425788 -0.046289 -0.342046 -0.083186 0.073608 1.514444 -0.020564 0.694263 -0.793827 -0.178794 -0.650691 -0.324983 0.134864 0.286929 0.427907 0.087599 -0.116300 0.343462 0.150099 0.272825 -0.729477 -0.096976 -0.307277 -0.099147 -0.559549 -0.457275 -1.009729 0.542771 -0.521978 0.021231 -0.222210 0.045470 0.072082 0.655522 0.110220 -0.071747 -0.099949 0.224574 -0.283693 0.001200 0.460586 0.471292 0.316364 0.413846
and 0.717870 -0.648726 -0.071406 -0.436706 0.669357 -0.450146 -0.218798 -1.002564 0.778562 0.079748 0.365943 0.446521 -1.131923 -1.226045 0.191757 -1.781393 -0.457874 0.004271 0.621904 0.302914 -0.239114 -0.627044 -0.632675 0.607500 0.639644 0.237517 0.702569 0.321009 -0.267862 0.849838 0.289510 0.295315 0.104784 0.660413 0.452776 0.049846 1.502554 0.609205 0.482450 0.059848 1.022206 -0.358813 0.402482 -0.908623 -0.126530 0.141231 -0.028762 1.444607 -0.361255 0.457286 0.450687 -0.572620 -0.019501 -0.204224 -0.112757 1.636459 0.148754 0.145308 -0.156478 -0.416572 0.965273 1.076866 0.144611 -0.035496 1.181297 -0.750714 -0.090961 0.313119 -0.799052 -0.786287 0.269804 0.629909 0.118047 0.196531 -1.104734 -0.523038 0.959638 -0.344178 -0.069988 -0.711685 -0.069485 -0.374862 0.315469 -0.211187 -0.339957 0.202372 -0.251524 -0.053051 0.685925 -1.534745 0.026208 0.571637 1.120934 -0.142065 0.145044 -0.227891 -0.679303 0.177696 0.166155 -1.030174 0.683379 0.061216 1.196205 -0.505378 -1.767583 -0.159030 0.867617 0.874147 -0.022158 0.362873 0.650986 -0.116864 0.382426 -0.021913 0.526508 0.354640 0.490256 -0.157699 -0.811568 -0.291492 1.098684 -1.844893 -0.555320 -0.660929 -0.324191 -0.006253 -0.380140 0.545229
of -1.580191 0.712773 0.197120 -0.041772 0.001827 -0.980002 -0.063664 1.306887 -0.529934 0.017799 0.745470 0.550676 0.460008 -0.328543 0.379335 0.269940 -0.158926 -0.197407 0.934439 -0.492316 -0.405915 -0.075468 -0.013068 0.080591 -1.350919 0.502170 -0.493076 0.040156 -0.356114 0.731532 -0.696064 0.704239 -0.480112 0.519277 -0.098670 0.207602 0.374072 -0.103011 0.013695 -0.648600 -0.060308 0.670275 -0.583119 -0.678250 -0.258396 -0.475671 -0.860231 -1.240768 -0.068682 -0.067745 -0.208732 -0.733660 0.468587 -0.744955 0.213564 -0.064595 -0.611660 0.999006 -0.277082 -0.041166 -0.384681 0.447048 0.642363 -0.536513 0.639419 0.597334 -0.075946 -0.331838 -0.010918 0.553032 -0.020983 0.601038 -0.804247 0.038640 0.808344 -0.430348 -1.543595 0.244950 0.650166 0.322029 1.064791 0.024620 1.477864 0.505765 -0.258210 -0.002825 0.427225 0.597528 0.040332 0.069933 -1.050296 -1.631636 1.120333 -0.540949 -0.924119 -0.341029 0.293039 0.059101 -0.300140 -0.198697 0.226684 -1.197138 -0.036062 -0.174019 -0.845374 -0.524293 0.586830 -0.562294 -1.350085 1.170401 0.352196 -0.192605 1.304746 0.163023 0.655407 -0.125719 0.486083 -0.547541 0.606087 0.520217 -0.250836 0.102915 -0.003585 -0.097547 -0.835880 -0.435411 0.247513 -1.417495
to 1.748194 0.379232 0.135866 -1.212257 0.268433 -0.003272 -1.883865 0.128276 0.652745 0.263985 1.842371 -0.110243 -0.577742 0.005697 -0.423061 0.892367 -0.038068 -0.371548 -0.326963 -0.437766 -0.198197 0.622391 0.575973 0.614186 -0.843570 -0.083594 0.580877 1.104043 0.633208 1.462746 -0.005077 -0.024511 0.017617 -0.155346 0.138995 -0.199384 -0.671697 0.136351 -0.202936 0.120137 -0.422788 0.383808 0.155577 -0.895888 -0.099741 0.204076 1.486818 0.519908 0.411061 -0.086457 0.064374 -0.569268 0.937332 0.443292 -0.048939 0.576733 0.127416 0.058973 1.249901 0.878493 1.259835 2.179917 0.809218 -0.306021 -0.583392 0.724681 -0.293539 -0.421592 2.105460 -0.112603 0.187348 -0.502777 0.352212 0.050849 0.843111 0.520052 -0.703668 -0.728548 0.291175 0.881302 0.232158 0.025843 0.603607 -0.466796 -0.194574 -0.181304 -0.062097 1.219840 0.094307 0.070506 -0.088512 -0.035257 0.275566 -1.940216 -0.608250 0.074386 0.237620 0.992420 0.568141 -0.725086 1.295325 0.067374 -0.231188 -0.094440 -0.677302 0.509379 -0.081525 -0.143460 -0.294477 -0.302893 0.141765 -0.948704 0.635971 0.160061 0.040759 0.004433 0.309079 0.281498 -0.105176 -0.045791 1.697390 -0.175685 0.436446 0.919492 0.270918 0.302197 0.908876 -0.687625
a -0.025371 -0.578717 0.064782 -1.460055 0.089841 -0.079997 2.095244 -0.066673 0.088646 0.002636 -0.931065 -2.073808 -0.040412 -0.697608 -0.061897 -1.620546 -0.048166 -0.111588 -0.080190 1.003056 -0.011494 0.130974 0.017709 -0.048505 -0.017181 -1.074659 -0.010368 -0.055336 -1.339668 0.218759 0.032658 0.046852 -0.076941 -0.001985 -0.306885 -0.002421 -0.391435 -0.074205 0.102746 0.026064 -0.159517 0.098042 0.067861 -1.567404 -0.029832 0.049655 -0.719083 -0.532531 -0.027700 -0.181081 0.000458 -0.359770 -0.050356 -0.102585 0.003230 -0.045399 -0.018544 0.011213 0.024489 -0.036147 0.472588 -0.033690 -0.335014 -0.048077 -0.110859 0.131819 -0.061247 2.613650 -0.048207 0.396672 -0.024817 -0.023767 0.636410 0.053505 0.022376 0.455693 0.387066 0.403528 0.609487 -1.142222 0.246387 0.015042 0.950997 -0.455358 0.051488 -0.006226 0.034300 0.384301 0.855534 0.327655 -0.210943 0.134080 1.429744 -0.769446 -0.056495 -1.139076 0.404404 0.109621 -0.122331 0.376482 0.221005 0.022823 -0.092131 0.023529 1.146063 -0.340530 0.247281 0.527706 0.729735 -0.360455 -0.204586 0.300907 0.303763 0.023101 0.079118 0.020722 0.179749 -0.079231 0.428864 0.371197 -0.088775 0.321196 0.161019 0.009489 -0.317632 0.293103 0.268250 -0.104576
in 1.169919 -1.322206 0.593007 -0.567171 -1.832683 0.488861 -1.046883 0.328914 0.640660 -0.402821 -0.957575 -1.954043 0.022742 0.534583 -0.454937 1.040899 0.297653 -0.241228 0.859734 -1.526534 0.002100 0.222307 0.437755 -0.123330 -0.893135 0.112207 -0.363237 -0.605104 0.298797 -0.833641 -1.426395 -0.304999 -0.542878 -0.071172 0.135640 0.187279 -0.405879 0.721279 -0.652845 -0.076214 1.212973 -0.269550 -0.855284 0.554974 0.123655 0.193028 0.010242 0.272385 0.685019 -0.165885 -0.405768 -1.013763 -0.571998 -0.057392 0.471369 -0.274676 -0.094543 -0.328313 0.000534 -0.935665 0.368290 0.206487 2.251365 -0.337008 0.094143 -1.237828 0.391503 -0.676425 0.310013 -0.180780 -0.224536 0.049067 -0.273452 -0.442510 0.813763 0.217840 -1.098699 0.729064 0.881993 -0.031405 -0.156017 0.156490 0.284155 0.399107 -0.429692 0.378995 1.065153 -0.026643 -0.089760 -0.248104 -1.665622 -0.160530 1.832441 -0.190057 -0.950087 -0.518657 0.034982 -0.006903 -0.300953 -0.666415 1.143332 -0.627210 0.586739 0.033638 -0.108939 0.742815 0.640233 0.394235 -1.266656 0.493427 -0.710832 1.059404 1.089659 0.371643 0.065598 0.129255 0.460578 0.120098 0.752255 0.838548 -0.263934 0.019222 1.313357 0.527436 -0.500499 0.094790 -0.864884 -0.842800
i -0.637217 0.812045 0.617262 -0.711186 -0.595321 -2.392771 -1.088616 -1.114334 0.438662 -0.440288 -0.369344 1.329866 2.791905 1.806893 1.595197 1.403283 0.321605 -2.134757 1.315438 3.161636 -0.789190 -0.648996 2.609293 -2.835630 1.630018 1.467221 -0.159476 2.828106 -2.999401 0.438612 -1.793679 1.331492 0.459846 -1.267855 -1.740314 0.079768 0.074573 1.390164 -0.800869 -0.052226 -0.354797 0.296333 0.161489 0.006484 -1.869763 1.141326 2.088055 0.087213 -0.228593 0.611762 0.560186 2.295834 -1.567848 0.124957 0.624967 0.501107 -3.070828 -1.035125 -0.093678 1.212881 -2.206746 -3.682386 0.199654 -0.725619 1.759648 0.043539 -0.929698 -0.043592 0.312338 -1.852338 -0.497464 1.973155 -2.012147 -1.667223 1.489284 1.572749 0.519667 -3.015437 0.893022 -1.606551 -0.663524 0.210038 -0.207989 0.475908 1.421592 0.117776 1.697999 -0.446036 -1.206847 0.140449 -0.772276 1.525967 0.198890 1.307780 -2.412887 1.770525 -0.328685 1.368803 0.087473 -0.134138 1.227923 -1.814832 0.164454 0.623086 2.977255 -0.136854 -0.584950 -0.500582 1.897879 2.116639 -1.617564 -0.098477 -1.590601 -1.664142 -1.625565 0.333856 -1.103989 -1.071034 1.664374 1.326669 -1.392709 0.005399 -0.851279 3.046888 -0.107821 -0.277617 0.408331 0.390523
he 0.151981 -1.369439 0.730329 0.407068 -0.739038 -0.246645 0.413421 1.021206 -1.963650 -1.080922 0.884344 -0.570504 -1.090311 2.446301 0.478681 -1.008098 0.004185 0.685927 -0.125427 -1.306955 2.794003 -0.116619 0.235838 0.371883 -0.333265 -1.517702 -0.806907 0.029053 -1.257872 -2.026433 -0.627085 1.060094 0.680103 -0.067732 -0.268753 -0.550080 -1.058113 0.433452 0.113388 0.313753 0.740520 -0.563066 0.072628 1.977015 0.280563 -1.962393 -0.712293 -0.527579 0.547476 -0.254710 0.347685 -1.279274 0.124792 -2.037421 -0.388291 0.257667 -0.432856 -1.209137 -1.143757 -1.129749 0.317373 0.828711 -1.341145 0.080863 0.078323 0.721144 -0.074006 0.968485 -1.418664 -1.836906 0.136016 -0.641876 -0.457677 0.125507 0.255349 -1.545609 0.802141 -0.424580 0.653351 -0.606325 1.179722 -1.241229 -0.531845 -1.746413 -1.700140 -1.469247 -0.158384 -2.741702 -0.232930 1.449462 0.016855 -2.169117 -1.934136 -1.148784 -2.322509 0.494974 -0.746003 -0.490402 0.692307 -0.805343 -1.703650 -0.777712 -0.478437 0.358521 -0.593752 -0.997628 0.070432 1.669235 -3.018129 1.501207 -1.142280 1.109450 1.573513 -0.020287 -0.958877 -1.564900 0.933003 0.256974 -0.795299 -0.484229 1.170901 -0.233800 -0.760639 -1.030407 -0.843528 -0.765175 1.304806 1.371166
that -1.415253 0.064607 -0.576157 -0.091051 0.947634 -0.775289 -0.156662 -1.600014 -1.953893 0.132777 -1.283924 -0.465374 -1.445836 -0.889523 -0.818433 2.654507 -0.353349 -0.263450 0.405776 0.254647 -1.575832 -1.071529 -1.310549 -0.825492 -0.329847 -2.475067 0.514366 -1.036096 -1.354990 -0.931963 0.400778 1.468687 1.110826 -0.576691 0.599963 0.505280 -0.652184 0.735367 0.412613 0.431363 0.537620 -0.816110 -0.860985 0.270243 -0.647427 0.156048 -0.900026 0.568090 -1.463603 -0.937402 0.640830 -0.015158 1.466131 -0.742765 -0.115739 -1.730085 1.295845 2.656802 -1.612746 -0.637527 0.644944 -0.291137 1.090349 0.433158 0.718376 1.264944 0.570871 -0.834398 -0.351608 -0.021032 1.608875 1.844354 1.115494 -0.964334 -0.091868 0.560066 0.744075 -2.477537 1.689162 0.428329 0.301754 0.126488 0.837410 -0.600916 -1.742035 -0.001402 0.560124 -0.534412 -0.424116 -0.245105 -0.090291 1.028686 -0.822777 0.272937 0.417225 1.226528 0.276815 0.627497 0.733304 0.396767 0.585220 -0.549479 0.314344 -1.532333 -0.442201 -0.102888 -0.745947 2.127958 -0.485893 0.631371 0.242185 0.544124 1.485647 2.489555 -0.246250 1.085285 0.127060 1.866629 1.117978 -0.151603 1.734122 -0.918896 -0.742101 1.855810 0.345640 -0.238833 0.707561 0.092615
his 0.357422 0.487669 0.745095 -0.655809 0.194386 0.515006 -0.406260 0.560991 1.197949 -0.403906 0.767903 0.225076 0.765527 0.053125 -0.270909 0.008354 1.305901 1.446073 1.270182 -0.991244 0.324531 -0.551194 -0.316378 -1.579518 -0.340826 -0.977023 -1.254387 1.540340 -1.097937 -0.584131 0.890153 0.443814 -0.487137 -2.210351 -1.383510 -0.366221 0.529533 0.012291 1.208773 -1.661076 -0.609798 -0.871101 -0.765078 0.329705 0.128244 1.499753 -0.972076 0.468693 1.098896 -0.140499 -1.410765 -0.056491 -1.076058 -0.179823 0.048122 2.184983 2.304540 -0.821524 0.533084 0.497535 -1.129876 -0.607836 -0.332037 0.393455 -0.909049 -0.055267 0.581487 -0.177771 -1.100659 -0.201031 1.126763 1.041963 -0.022326 -0.193018 1.566866 0.416177 -1.066160 0.002282 -0.124542 0.873974 -0.686781 -0.710150 1.189191 -2.207133 -0.897436 -0.086764 0.376048 1.804815 0.263603 0.780481 -0.096719 1.597562 -0.226896 0.583146 0.907311 1.014847 0.600040 2.592542 0.214399 0.777624 -0.202261 -0.383079 -0.045505 1.019030 -1.186251 0.159399 0.606487 -0.996105 0.880147 -1.806865 0.121938 0.416249 -0.034244 0.918443 -1.966912 -0.245590 0.101222 -1.484347 0.353662 -1.408918 0.717031 0.043241 -0.515973 -0.232273 1.430338 0.231367 -0.736210 0.244976
was -0.462201 -0.410753 -2.127522 0.123008 -2.407219 2.177901 -0.602126 -0.073875 0.812960 -1.696074 2.875274 0.359549 -0.092773 2.292727 3.774748 -0.089606 -1.489472 -1.990405 -0.311693 0.362098 -1.775626 1.448324 -1.310784 -0.233426 0.780384 0.542984 1.446216 0.603665 0.460732 0.726489 -1.189482 0.167435 1.035068 0.125461 -0.845984 -0.118795 3.024628 -0.565913 -1.272390 -0.530137 -3.321613 -2.874864 -1.264951 0.374363 -1.382499 1.170651 0.467044 0.289387 0.692179 -3.434387 -1.253225 0.551776 -0.652489 -0.760198 -0.578023 -0.399641 2.883442 -1.586501 1.511110 0.121006 -1.569350 1.621751 0.545175 0.199328 0.517459 1.317601 -1.107814 1.480111 -1.141159 2.187144 1.985877 0.084325 -0.821969 -0.754833 -1.597913 -2.254149 -0.371611 0.570925 1.662673 0.244189 2.119589 -0.684930 1.474163 0.904924 -0.781518 0.570266 1.779407 -0.091777 -0.427425 -0.198544 -0.572538 -2.302950 -2.064125 1.170297 -4.669672 2.957146 -1.247714 -0.472039 -0.785663 -0.946062 -1.196555 2.001758 0.353099 2.624333 0.885899 -2.212738 1.480668 -0.706337 -0.176450 -1.805964 0.702088 -0.098278 1.699239 -1.389529 1.622123 -3.201339 -0.780499 1.936550 -0.319014 -2.132659 2.710492 0.771096 1.321948 1.039344 -0.366542 1.612635 1.154262 0.413639
it 1.054272 -1.585159 -3.148021 1.501446 1.191787 1.968287 -0.317499 -1.787675 -0.512035 0.450449 -0.660071 0.093601 0.148213 0.749461 1.153328 -0.222419 -1.344568 0.419416 0.836583 0.967295 -0.103485 -1.871746 -1.623274 1.551202 0.315247 -0.442937 -0.362536 -0.071603 -2.397345 -3.778953 0.815229 0.732259 1.263505 0.313251 -0.456135 0.424861 -1.732681 0.507678 -0.660849 -1.365579 2.110534 -0.292517 1.151698 1.004810 -0.650901 -0.249682 0.876000 -1.486423 -0.768503 0.095047 -0.407407 1.332484 1.324779 0.800550 -0.819497 2.032947 -0.297136 -0.340634 -1.428316 -1.002143 -0.531434 0.566644 0.567749 1.038809 -0.006212 -3.184467 0.436042 0.563835 -0.081891 -0.658420 1.361220 -0.074069 2.626427 -1.371116 -0.917666 -0.169170 2.474500 -0.496595 -0.002811 0.792596 -2.254947 1.946262 -1.734674 -0.438019 0.652463 -0.570882 -1.380384 -2.568828 0.845263 -0.244608 1.492059 -0.053633 0.228910 0.201060 -0.726387 0.389393 1.452026 1.063527 0.443395 -0.150008 -2.602069 0.637072 0.040200 1.413153 0.204494 -0.091643 -0.457000 0.342761 2.002684 -1.469092 -0.069870 0.613878 -1.424319 0.369975 -1.240318 -1.936621 -0.354096 1.611786 -1.733047 1.045666 -0.275938 0.355811 0.418513 1.726959 2.249100 1.574536 -0.666381 0.041538
you 0.410428 -1.862654 -0.441675 -2.512034 0.110446 1.269476 -0.506999 -2.555583 -3.594036 -0.522035 1.284113 -1.165878 -0.272990 3.146863 1.078073 -0.941397 0.284906 1.290308 -0.056929 0.417499 0.589022 -2.700041 1.582923 -0.648005 -0.221006 0.971065 -0.797006 -1.508229 1.924364 -0.925740 -1.419012 -1.828382 0.073266 2.226708 2.925092 -1.105639 2.690297 2.085468 1.127592 -3.370629 0.044053 0.860963 -1.404776 -2.547119 2.739309 2.228572 0.053949 -2.142927 0.576713 0.183672 -2.173717 -1.247121 1.184718 1.532093 1.938463 -0.489290 -0.333364 1.564314 1.306141 -1.371119 2.823972 -1.209483 0.556913 0.958271 -0.972665 0.954256 -1.326693 -1.072520 -2.181187 0.159607 1.248401 -0.770201 -2.044869 1.252342 2.849506 -0.621443 0.025730 0.748706 3.897976 1.091123 2.195753 -2.646034 1.932479 0.640938 1.654485 0.542097 -4.291840 0.252793 3.177038 2.266828 0.984368 0.976055 0.910345 -0.777566 -0.783628 -1.813679 -1.806179 0.558718 1.693468 -1.489085 -0.153445 1.003587 -2.681811 0.724164 0.727568 1.097095 0.725361 -0.491594 1.385125 -2.184194 -0.849696 0.833114 -0.016330 -0.046414 -3.275874 -1.790035 -0.523129 1.151182 -2.257719 1.122717 2.218481 -0.212964 0.282723 -1.194738 1.398385 -2.296994 -2.268978 -0.113039
with 0.897615 -2.017981 0.244348 -1.092038 -1.006545 -1.839449 0.449707 -0.382691 -0.791453 -1.324569 -0.466591 -0.612927 0.547656 0.780262 0.900064 1.337235 0.667225 -0.242008 -0.016872 0.040655 0.882887 -0.655359 0.215892 -2.209731 -0.233468 -1.031535 -0.215070 1.492049 1.498724 0.564889 0.496167 1.201904 0.548157 0.259806 0.914215 0.742802 0.095243 1.446259 -0.406324 -0.680948 1.352067 -0.781590 0.138126 0.479664 0.433703 0.615590 -0.307375 1.335485 0.990387 -0.040861 1.705087 0.497633 -0.314112 -0.048589 -0.231956 -0.549502 0.838302 0.878734 0.504762 -1.695940 0.925214 1.410600 -0.330460 -0.481406 0.401224 -1.556262 0.400680 -1.583004 2.895308 -1.805250 1.918867 -1.280318 0.293561 -1.155221 -1.316188 -0.045454 1.434046 -0.992148 -0.122660 0.441329 -1.308293 0.097929 2.620027 0.084253 -0.217886 0.094894 1.127039 1.865877 1.857286 0.098786 -0.565818 -0.711869 -0.308458 -1.445338 -1.740783 -1.098908 -0.066488 0.937100 -1.460762 -0.136248 -0.243753 -0.561197 1.947370 -1.759545 -0.500232 0.916489 0.899105 -0.012418 1.340299 0.056172 -1.368973 0.095534 -0.407705 0.534326 -0.324803 0.134739 0.218514 -0.631426 -0.671650 -0.376519 1.549317 -0.647135 0.780879 0.953755 -0.949130 1.321211 -0.525560 -0.303583
is 0.627909 -1.184372 0.256947 -0.741345 0.437282 0.085026 -0.406339 0.392099 0.053236 -0.123526 -0.638684 0.441735 -0.925368 -0.511571 0.521684 -1.320050 1.206240 -0.645700 0.902222 1.790391 -0.797907 0.429348 1.117686 0.107066 -0.605974 1.342068 1.604015 -1.328533 -0.498671 1.308308 -1.184648 0.259771 1.209014 1.059738 0.522420 -0.126733 -0.786419 0.324156 -0.098921 -0.468162 -0.857704 -0.510889 0.562660 0.849311 -0.862997 -0.516077 2.055675 -1.062955 -0.374844 0.252461 -0.179156 -0.000329 -0.786171 0.893883 -0.711336 0.446880 -0.860004 0.435344 -0.611258 0.828092 -0.991194 0.126270 0.912637 -0.577159 0.843709 0.995967 0.322358 -1.368481 -0.288733 1.297178 0.561643 -0.678796 0.169395 0.195032 -0.235765 0.077463 1.024430 -0.192181 0.579041 -0.177140 -0.414911 0.054815 1.657735 0.364014 0.603538 0.269356 0.186117 0.399903 -0.324348 0.881462 -0.058903 -2.329070 -0.299483 0.728795 0.712322 -0.983932 -0.163209 -0.761202 -0.329742 -1.464318 0.353443 0.493914 0.041819 -0.631219 1.428498 -1.284489 -0.548197 -0.246094 -0.518552 1.307193 -0.202932 0.349506 1.039864 -0.444648 0.415471 0.032181 -0.345492 -0.149890 -0.352352 1.157676 2.919487 -0.705508 1.175860 0.938362 0.176018 0.274141 -0.418603 0.234394
as 1.693854 -0.952293 0.085837 -1.122379 0.624506 -0.095199 0.833647 -1.397945 -0.242056 0.254202 -0.737940 1.127851 1.347841 -0.471020 -0.116420 -2.097886 0.326384 1.112502 1.425770 -1.517585 1.114238 0.875209 1.603071 0.888789 0.550570 -2.144637 -0.304523 1.791944 0.036096 0.507785 0.727681 -0.246305 -0.625771 0.799837 0.918333 0.456432 3.358815 -1.019270 0.597140 -0.525072 -1.950671 -0.267350 0.035047 -0.067206 -0.641404 0.150298 0.328708 0.461888 -0.137938 0.641718 -1.199366 -0.609763 0.455673 0.596212 0.514304 -0.639927 1.550079 1.186234 -0.141252 -1.002512 -0.024542 -0.419897 -0.190670 -1.154035 1.643657 1.300391 -0.548544 -0.095564 0.889014 -0.365001 -0.563591 1.582547 0.926283 0.150562 -0.297266 0.597073 0.545425 1.615535 0.611155 0.370006 -0.178969 -0.056371 0.414461 0.041541 0.131451 -0.230439 0.997121 1.182760 0.232371 -0.330009 -0.848253 1.369825 0.307962 -0.664058 0.462622 0.786540 -1.173057 -0.368548 -0.615530 1.149957 0.963972 -0.615243 -1.638054 -1.302034 -0.400083 -0.491350 -0.254375 0.659449 -0.131525 -0.981027 1.281005 1.115553 1.015703 -0.656243 -0.756419 -1.974606 -0.777355 -1.132530 -0.247096 0.929496 1.536537 0.325205 0.178011 2.640293 -0.174660 -1.413293 0.156954 -0.156228
not -2.436721 1.437067 1.966406 -1.404014 -0.017088 -1.031063 1.847663 2.477195 1.054143 1.984234 1.384065 -1.189407 -2.277921 -0.045751 0.505198 1.012491 -0.056949 -0.643407 -0.143501 0.144181 0.236866 0.291659 0.209571 -0.399088 -0.201259 0.086531 0.520842 1.002809 0.359451 -0.318229 -0.009679 0.214181 -1.670977 -0.293413 -0.685894 -1.863044 -0.771652 -1.741735 0.138499 0.309358 0.139803 -0.265909 -1.688919 -0.404602 -0.186700 -0.650966 0.505329 1.305558 0.935390 1.359072 0.045885 1.951525 -0.361361 -0.954057 1.018254 -0.511023 -1.529010 1.674774 0.107446 -0.949243 -0.039519 1.667722 1.303028 -0.559079 -0.320958 0.498931 -0.297524 1.395582 1.266845 -0.478839 -0.864192 1.290560 -1.000579 0.214975 1.100895 -2.617992 0.508473 -0.551777 -0.788320 0.289269 -0.277564 0.773899 0.399880 -1.082638 -2.044768 -1.389626 0.077594 1.134847 -1.707308 0.694549 0.796008 1.598042 -1.047572 -0.831076 -1.185170 0.059038 0.051211 0.210329 1.445330 0.510879 -0.617973 1.037791 -2.284725 0.787066 0.754842 1.493897 0.006228 -1.257339 -1.096384 -0.800934 2.022987 -0.709851 -1.758743 -0.272637 0.079350 0.103894 -0.898149 -1.242358 -0.415335 -0.821195 0.554669 -0.464231 -0.274958 -0.669914 0.849046 -0.654308 0.597774 -1.184060
for -0.083043 1.866235 0.065276 -0.545455 1.229395 -0.712887 1.267184 2.184804 0.410207 -0.269942 0.738099 -0.497969 -0.580991 0.628671 -2.932735 1.108510 1.456210 0.084701 -0.220238 0.371733 -1.065522 2.808260 -0.577660 -0.523568 -1.434025 -0.149418 1.918695 2.690687 -1.092639 -0.623038 -0.757719 -1.435084 -0.889667 0.896060 -0.829944 1.540177 -0.600731 3.640598 0.029482 -1.537214 -1.272583 -0.598735 0.986880 -1.339597 -0.004052 0.759784 0.285439 1.033212 0.989608 0.988529 -1.430793 -0.615230 0.206627 -0.242885 0.876386 -1.536212 2.857627 -0.039258 -0.285751 -2.156995 -0.029712 3.554726 0.127630 0.255098 0.029612 0.854188 0.966883 2.235384 0.427565 -1.885594 1.817800 3.028579 -1.626636 -1.546831 -1.283036 -0.451725 1.005677 -0.660599 -1.077025 -1.064631 0.430154 -1.241198 0.847739 2.271871 -1.225690 -0.717084 0.267076 -0.362691 3.643010 -1.049157 2.506185 1.216876 1.210272 0.410841 0.454652 0.291415 -1.542337 -0.967810 -1.289816 -0.069843 0.178257 0.642364 -0.894626 -1.948276 0.752798 -0.812876 1.492589 1.139019 -2.629015 -0.759694 -1.153640 -1.357641 0.950328 -1.012025 -0.786872 -1.013917 2.143141 0.329861 0.544390 -1.482498 0.845280 -0.069845 0.940848 0.722938 -0.155685 0.788624 -3.362023 -0.680910
had 2.259482 0.924476 0.885186 0.664622 -0.098102 -2.872277 -0.310916 -1.088935 1.977834 2.050620 -2.482953 -1.038687 0.721593 3.211966 -3.169059 -0.128976 0.072584 -2.159872 -0.685467 -0.555776 -0.174273 1.399555 0.208140 1.229586 -2.211629 2.190475 0.599171 -0.192270 -0.869843 -2.117731 1.818042 1.091460 -1.503763 0.511615 -1.889162 -0.015346 2.851001 -0.605281 -0.552560 1.450996 -1.121167 -0.832299 2.298796 2.258686 -0.309669 -0.341205 0.417667 0.436583 0.001451 -1.414532 0.436541 1.087764 0.369666 0.991530 -2.499614 1.473339 0.433169 -1.377508 2.450557 -0.940499 0.424436 -0.563791 1.504636 -4.200942 -0.848213 -0.231633 -1.601890 0.166487 -2.442612 0.515524 0.360640 -1.150821 -0.527657 0.137426 -0.905517 -1.111865 0.893532 0.537313 -0.423683 -0.110296 -2.483422 0.145498 -0.239846 1.166416 -0.952103 3.099548 0.257291 -0.161756 -1.179438 3.773252 -0.695777 0.155953 -1.918822 -0.732832 -0.365004 -0.715370 2.053239 2.117482 -0.966933 -0.759966 0.081537 -0.878914 -1.022153 -2.569925 -1.041263 0.117848 0.760009 0.086071 -0.533159 0.370521 0.054984 -0.005949 0.406225 0.280974 1.768805 -1.138953 -0.071809 0.267241 0.979306 2.428159 2.449287 1.152591 0.408228 0.895619 -2.869415 -1.691634 -0.210782 0.076670
but -0.024664 1.018408 -1.103212 -1.014333 -0.970844 -2.253029 0.381046 1.405628 1.034562 -0.571586 0.636205 1.230645 1.555639 0.387109 1.238762 -0.174433 0.123020 1.162709 1.460027 0.359612 -1.358300 -0.042926 -0.766054 0.413025 1.553637 1.012105 2.201430 0.079334 0.377433 -0.606699 0.932750 -0.868452 -0.318368 1.091205 -0.802202 -0.024939 -0.272094 0.836548 0.524011 -1.104347 -0.376643 0.347563 -0.977176 -0.424602 0.785056 1.343364 -1.110583 0.152910 1.930872 -3.028562 0.243577 -2.171566 0.802331 0.062663 -2.251594 -0.080141 0.255338 -0.605286 0.184001 -1.914380 2.476627 1.280899 0.908400 0.596018 0.203257 -1.369357 -0.622563 0.539433 2.844330 -0.408287 0.225635 -0.002861 0.159632 -1.401381 -0.089278 1.759308 -1.422767 0.644913 2.751835 -1.496816 -0.695392 0.047795 0.836672 -0.608931 -0.235703 -0.764162 0.533963 1.951770 0.184312 -0.856032 -1.756507 1.549404 -0.853420 -0.965538 -0.337206 2.248060 0.317782 -0.562230 1.565466 -1.806062 -0.744314 -0.008522 -0.266557 -0.910471 -1.440207 -0.971113 -0.656905 -0.193718 0.883224 -1.262075 -0.463055 -1.211278 -1.207673 -1.053332 -0.599439 -0.060365 0.791591 0.900720 -0.281790 0.065616 -1.231165 0.328424 0.281135 -1.580485 -1.871807 0.557160 -0.999202 0.190579
at -1.837199 1.093458 2.910885 -2.250528 1.186903 -0.803768 -1.016452 0.751295 -0.688182 0.177654 1.462682 -2.406338 1.325778 1.388193 1.610066 -1.353758 0.575222 -0.606982 2.401345 -0.777850 -1.390095 -0.259969 0.195001 -1.606320 -0.667162 -2.537422 0.242305 1.170625 0.215425 1.285700 0.024310 0.304745 0.327048 -0.666994 -1.378710 -0.481500 0.009143 -0.359803 -0.095858 -0.243002 -0.166108 0.435257 -0.725753 0.431341 -0.487378 -1.370472 -2.311858 -0.572353 -1.274188 1.031728 -0.325457 1.446825 1.118500 -0.258663 -0.514901 -0.795807 1.364509 0.437216 1.374570 -0.262770 -0.220095 0.208777 0.029206 0.004771 1.175876 0.248437 -1.266041 -0.203808 -0.800472 -2.949790 0.391706 1.021476 -1.142904 0.322347 -0.566510 0.037967 -0.487440 -1.389085 0.007557 0.030070 1.839275 -1.125681 0.157025 3.601737 -0.924919 -1.766763 -1.085364 1.613726 0.135467 -1.462841 -1.596201 0.686938 -0.840296 -1.461001 -0.887632 1.078296 -1.500545 -0.264701 -0.652598 0.668950 0.893278 0.547933 1.923120 2.232681 1.940439 0.030922 0.141234 -1.275905 -1.016866 -0.004695 -0.085991 -1.113652 -0.500836 1.269294 0.190256 -0.010543 0.250659 2.858092 -0.447276 -1.022127 0.630809 1.277781 -0.728204 -0.944948 0.024136 -3.237170 1.927343 1.119295
be -2.007592 -1.908343 -0.195222 -0.297167 -0.832470 0.769106 1.892405 -0.676027 -1.041336 -0.300304 0.419683 -0.571539 1.032001 1.484205 0.149378 -0.488747 -0.712101 1.102797 1.370952 2.858487 0.112036 -0.188932 -0.849122 0.277015 1.443911 0.619812 -0.759115 0.378522 1.835991 -1.994529 0.888488 -0.431991 0.576099 -0.818339 -0.557837 0.332452 0.198467 -0.093761 1.013379 -0.869053 -0.144715 -0.234101 0.118565 -0.940689 0.568126 -2.126911 0.910520 -3.231180 -0.790668 0.179352 -0.482034 -1.266748 0.459896 -0.925570 0.666725 0.813306 -1.547012 -1.552773 -2.757959 0.383649 0.548200 -2.012050 -2.338190 0.816470 0.790359 -0.341523 1.447413 0.005293 -0.853684 0.035557 1.026127 -1.265022 0.374695 -0.666393 1.285332 0.697824 1.097844 0.302768 -0.587403 -1.461110 -1.250744 -0.981969 2.260803 -0.205332 -0.697383 1.245269 -0.552643 -0.122942 1.386977 -1.116102 1.553201 -0.461981 2.763012 1.076290 1.457649 0.107065 0.405066 -1.081143 -0.897997 -0.568032 1.203620 -1.591641 -1.244746 0.659191 -0.091453 -0.488325 -1.846365 -1.143544 0.701382 -0.459082 -0.007323 1.554497 -0.748793 1.508012 1.073493 -2.530098 1.475256 0.021693 -0.155822 -0.739059 0.957382 0.682312 -2.272975 0.381432 -0.162207 1.246259 -0.249803 0.150309
on 0.588071 -1.600954 1.799888 0.049641 -1.428927 -0.115432 -1.272927 -0.299475 1.335222 0.371495 0.165402 0.103873 -0.544598 0.080545 0.051476 -1.107343 1.061004 -0.386530 -0.836939 -0.617457 0.207043 -1.316460 2.045615 0.759147 -2.153625 -2.319350 1.702096 -0.177282 1.408136 -0.420741 -0.881879 -0.107433 -1.385116 -1.365151 -0.370092 -1.566633 2.940229 -0.687296 -0.911446 -0.518271 1.867314 -1.081562 2.293216 -0.214472 -1.267727 1.197595 -2.358118 2.273227 1.042026 -3.224622 -0.509944 1.178141 -1.009423 -0.777648 0.015795 -0.012030 0.417204 -0.608486 -1.495735 0.293410 1.876683 2.138264 0.963725 -0.565298 -4.330917 -1.583053 -1.192927 -0.676581 1.054661 0.449684 2.659275 -1.723864 -0.000009 0.664621 -0.923530 -0.306045 1.365968 -2.255394 0.396618 -0.720270 1.564138 -0.192982 0.777543 -1.673876 0.062594 -1.074564 0.884642 1.559176 2.267299 -0.611308 0.118681 0.289903 -0.411262 0.925095 -2.112321 1.613736 0.450757 1.216825 -1.392101 0.148998 0.631723 -0.763730 -1.679965 -1.935658 -3.185515 0.728693 1.937698 -0.925191 -0.661414 -0.961351 -2.513335 -1.608187 -1.497762 0.188693 0.254085 -0.826556 -0.127009 0.980928 0.313058 2.777591 1.406858 0.970253 -0.424668 3.593379 0.020159 0.362130 -1.099177 1.414088
her -0.544225 0.045863 0.958663 -0.336937 -0.614608 -1.282942 0.632761 0.826701 0.383530 1.316773 -1.394217 0.938366 -0.081144 -0.736384 0.080670 -0.312838 1.508407 -2.045981 1.011931 0.217817 0.333346 -0.534340 1.098534 0.473514 -0.965542 -0.898033 0.999139 -1.132799 0.481685 -0.116092 -0.020493 2.347043 1.404450 -1.751552 -0.861954 -1.488777 1.071730 -0.306404 0.594242 -0.279818 0.144290 0.186389 -0.298916 1.709694 2.476987 0.287865 0.200167 1.341724 1.317687 0.593306 -0.875139 2.086785 0.614431 -0.503262 -0.169655 -0.519003 0.498955 -0.795111 -0.578519 -0.793945 -1.051096 -0.384667 -0.870080 -0.826771 0.581898 1.540022 0.566230 0.582448 -1.103766 3.277978 0.762972 0.163396 1.943433 1.892367 1.247346 -0.830001 -1.422139 0.147434 0.352522 -1.091945 -0.020091 -1.062563 0.222586 -1.307433 -1.383674 1.457708 1.387097 -1.676531 0.817304 0.328604 0.472729 0.950458 1.984826 -0.911160 1.113181 0.612703 -1.546803 0.700118 -1.737392 1.500961 -0.122813 -0.589816 1.664357 0.371627 1.047004 -0.853157 1.297207 -0.085215 1.324151 -0.010581 -1.454374 0.106928 -0.015443 0.142784 1.176025 0.280478 1.543282 -0.214866 -0.241173 -0.729196 0.638074 0.451133 0.621069 0.208066 0.488887 0.488784 0.834671 0.077999
my -0.885411 -0.260805 -0.378387 -1.148811 -0.898751 -0.232210 0.189117 -1.022196 0.807592 0.147637 0.182542 0.559550 0.523174 -2.068986 0.434912 -0.458910 0.143172 -1.291110 -0.564591 0.927326 -0.159681 0.141605 0.490226 0.273254 1.914354 1.180956 -0.356348 -0.486275 0.058427 -1.607394 0.453903 -0.253337 0.212156 -2.138812 -0.623033 0.214703 0.557057 1.686467 -1.280836 -1.363678 -0.864939 -0.535938 -0.150728 -1.217005 -0.504696 0.110491 -1.228176 -1.130823 0.487623 -0.552173 -1.523248 0.326649 -0.891721 -0.561426 1.884036 0.825572 -1.546769 -0.020171 0.298827 1.506444 -0.138078 1.215029 -0.460657 0.691660 0.553014 -0.059019 1.888570 -0.167976 0.101543 -0.612732 1.942342 0.507784 0.413947 -2.249072 0.001920 0.028812 0.902675 -0.843031 -0.237272 0.267765 -0.316054 0.124125 -1.335163 1.188129 1.518189 0.103966 -0.118298 0.136429 -0.935523 1.059837 -0.911457 0.028762 -0.567130 -1.280942 0.349558 -0.437799 -0.759871 -1.062074 0.702338 -1.321619 0.013521 0.365177 -0.471614 0.941180 -0.330534 -0.208178 -0.806929 0.430054 0.984704 -0.361480 1.037859 0.019188 0.059481 -0.485124 -1.068996 2.212045 0.829021 -0.870583 -1.803899 1.400926 -1.195175 -0.482640 -0.610696 1.271495 1.300344 1.519570 1.077979 0.312111
him -0.350060 0.869835 -0.947997 0.641497 -3.918811 -0.157946 -0.329699 -1.120223 -1.144621 0.435417 0.149489 0.649724 1.190040 2.342870 1.927275 -0.575065 -0.772646 0.951210 0.900734 -1.023694 2.733561 -1.219042 -2.190629 0.374590 1.997543 1.426963 1.603412 1.035636 -0.526053 3.558791 -0.942184 0.379639 0.308486 1.021437 0.334936 -1.374765 0.942291 1.747576 0.859331 -1.361862 0.213138 -0.711582 0.032656 -0.150435 0.384299 1.190942 -1.390432 -1.283180 -0.345988 -0.346671 -1.072854 -0.139293 -1.851870 1.482612 0.232519 1.409823 -0.163111 -2.102111 2.165992 -1.062207 0.380690 1.692231 0.198084 1.572719 3.636818 0.757866 -0.335150 1.992685 0.373677 -1.067534 -1.504622 -1.183577 0.686593 2.003232 4.264060 -1.027199 -1.061476 1.306393 0.493868 -1.210747 -0.543486 -0.092133 0.077249 -2.901621 -2.433844 0.557368 0.753525 -0.775000 0.395999 -1.769486 1.068032 -1.100063 -2.155929 0.619231 0.622127 -1.539499 1.492610 0.462885 -2.879376 -2.564065 0.947220 -0.501451 -0.745671 -1.849321 0.710320 0.338062 -0.793782 -1.838972 -0.537889 1.198776 -2.416434 -2.152116 -0.172146 0.030316 1.267056 0.282728 0.818863 0.652325 -0.915999 -2.066442 1.940633 -0.074171 1.009861 -1.666699 1.499591 -2.296629 1.185789 -1.039545
have -1.489239 -1.212678 1.274222 0.611010 -0.274090 -0.994910 -1.352506 -1.380793 1.704176 -0.327570 -0.319166 -0.144327 0.742938 -0.861485 0.551797 0.410783 -0.482219 0.284661 -0.215598 0.460648 0.106815 0.423001 1.092843 0.817693 0.962689 -4.190901 1.020528 0.556695 -0.439957 0.217507 0.697379 -2.005180 -1.088371 -1.284748 -1.765021 0.945947 0.996501 -0.246385 -1.004277 -1.069235 -0.316739 -1.427174 -0.690501 -0.180842 -0.872107 -1.824740 1.349483 -1.682320 -0.065563 -0.565619 3.029083 1.147216 1.318842 1.086980 -0.248780 -0.216820 -0.975800 -2.158252 -1.644352 1.217114 -2.231168 0.943014 0.694780 1.981592 -0.212902 0.378864 -0.206575 0.104602 -0.116769 -0.937522 1.735102 0.085616 -1.414855 -2.624486 1.066488 -0.267395 0.408519 0.952393 2.043460 0.493528 0.680939 2.334922 0.889654 0.141356 -0.564773 0.394655 3.416372 1.585517 0.529572 0.502553 0.033896 1.285004 -1.034806 0.648963 -1.905937 0.761389 0.739673 1.871325 0.154534 0.099018 0.009147 0.633800 -1.507602 0.707261 1.139682 -1.826163 1.672593 -0.111523 1.246936 0.126083 0.644139 -0.860360 -2.478732 -0.445052 1.622203 -1.116305 -0.423907 2.547226 -1.692698 1.351147 2.367933 0.546461 0.035171 -0.064868 -1.895156 0.732759 -1.139838 -0.685553
by -0.546734 -0.548292 0.102672 0.517506 0.311518 0.456043 2.102416 2.450321 -0.109534 -0.316015 0.056515 0.223601 -0.014817 0.337926 -0.386119 -0.322228 -0.744119 -0.522613 -0.079020 -1.364921 -0.370326 0.070756 0.034365 0.153064 0.369362 -0.151912 -0.545925 -0.395886 0.815308 0.674440 -0.431062 -1.308251 -0.736639 -0.328677 -0.299536 0.388684 1.405145 1.625591 1.259789 -0.177625 1.124849 -0.408486 -0.076185 1.399577 0.020850 -0.725249 1.911148 -1.114049 1.327983 -1.025226 -0.722733 -0.775431 1.209445 -1.174702 -0.026351 -0.866848 -0.040764 1.014824 -0.054903 0.439931 0.587588 1.426499 1.145294 -0.172990 -0.135588 0.078102 0.298656 -0.398665 0.678372 0.371935 1.217004 -0.432224 2.322592 -0.078016 0.472458 -1.526564 -0.954470 -2.394735 0.820821 0.903469 0.032232 0.176910 2.855959 0.108661 0.268380 0.181030 -0.379702 1.307933 0.387770 3.113048 -0.199165 1.158125 2.419464 -1.231525 -0.969847 0.757932 0.154532 0.941390 -0.078757 -0.008556 2.334119 -1.268478 -0.030762 0.065870 0.378658 -0.753519 1.764511 0.348710 -1.731995 -1.732967 -1.452027 -0.886775 -0.612791 0.294071 -0.123237 -0.131384 1.011733 -0.267886 0.525030 1.790898 1.418485 -0.761299 -0.780273 1.488107 -0.365933 0.157737 0.576731 -0.519391
this -0.671402 1.961070 0.464777 -1.524158 0.663405 -0.532561 1.189115 1.584711 0.005443 -0.623209 -0.684730 -0.331771 -1.092325 1.839093 -0.571433 -2.754200 1.346341 -0.972817 -0.437274 -0.076769 2.364090 -0.593460 0.408626 0.699955 1.359767 -0.853086 0.219828 0.880065 0.475286 -0.224523 -0.108244 0.090486 0.039971 0.094587 -0.727509 -0.742667 -1.292545 -0.380100 -0.289651 0.275206 1.667673 -0.344371 -0.096059 0.525486 -0.369620 -0.083891 0.463132 -1.992084 0.145239 0.330157 1.171995 0.548224 0.455352 -0.412867 0.912765 -0.294818 -0.289505 0.421671 -0.032170 2.345208 -0.447935 0.456351 0.406631 -0.101469 0.039517 1.214906 -1.408983 -0.730656 -0.820757 -0.993644 0.419878 -0.054510 1.797927 0.001500 -0.943488 -0.121947 0.667212 -1.103258 -1.933938 -0.793154 -0.657019 0.156395 1.488009 -1.425097 -0.016888 -0.420787 0.564165 2.044958 0.988310 0.596304 1.884198 0.087924 -0.462694 -0.611226 -1.414579 -0.910856 1.612565 2.711062 1.022611 1.108067 -0.495781 -1.963241 -0.221902 -0.017168 0.071015 -0.549305 1.582537 0.495843 -0.080698 0.363224 -1.045270 -0.113066 -1.324693 -0.105786 -1.198850 0.169359 -1.040745 1.274339 -0.747031 -0.018168 -0.032764 1.699020 -0.281496 0.363189 -1.362478 -1.631190 0.309706 -1.173305
which 1.758925 -0.267406 -0.178994 -1.146108 -1.166487 0.317735 0.646401 0.630559 0.579828 -0.262971 -0.416968 0.659809 -0.363520 -1.166210 0.483651 0.240829 -0.080309 0.534742 0.635853 1.946759 0.748646 0.085943 -1.802144 -0.539574 1.666051 0.583729 -1.871525 -0.928148 1.000745 -1.127880 0.601829 0.134016 -0.308315 -0.154197 0.121913 0.509928 -0.438315 1.175428 -0.016946 0.516524 0.159909 0.942986 0.259441 0.375571 0.796615 1.418697 -0.612257 -0.708966 0.848048 0.590353 -1.038381 1.037239 -0.253275 0.197836 -0.614846 -1.390760 0.485042 -1.507248 0.989901 -1.456668 0.974223 -1.669397 0.568096 0.985729 -0.053061 1.009703 -0.060192 -0.701173 2.237280 -1.939016 -0.036143 1.417814 -0.581502 0.320796 -0.019637 -1.329930 -0.591055 -0.092019 -0.234922 0.113290 0.218834 0.290548 2.788974 0.682872 -0.670080 -0.609313 -0.604805 0.224144 0.389500 -0.272456 -0.789405 0.586721 1.531980 -0.497346 0.842394 -0.013009 -1.258240 -2.076203 0.870503 1.899502 -0.372540 0.059522 0.799307 0.529737 -0.363809 0.453770 0.654354 1.560363 -0.186041 0.259854 0.886611 -0.063910 0.856205 0.280005 -0.490734 1.200151 -1.513968 0.496595 -0.195668 -0.448811 0.142406 -0.496206 -0.453753 -1.214110 -0.392493 -0.392931 0.049797 -0.121180
me -1.659585 0.458403 -1.628464 1.337080 -0.577705 0.775353 0.376172 0.373580 1.730026 0.315937 1.187935 -0.270732 0.452511 0.598567 0.312809 -1.791228 -0.078480 -0.813654 0.277253 2.728671 0.059779 0.330867 1.084772 -1.222930 -0.496253 -0.923542 -0.722017 0.349260 -0.646319 0.171521 0.214799 -0.377890 -1.723039 0.434452 1.320531 1.237069 -0.993622 0.329193 0.111238 -0.300121 -0.094178 -0.348029 -1.078126 0.247994 -0.660489 -0.253512 0.113746 -0.906817 1.436622 -2.024268 -0.597774 1.444903 0.040699 1.545168 -1.144845 -0.512171 0.115789 -1.295518 1.280949 -0.758594 -0.457018 -0.934912 0.482771 -0.348179 -0.267553 0.737873 -0.856309 0.669706 0.278527 0.576180 0.458292 1.161897 -0.457387 -0.619321 0.890681 -0.861903 0.409001 -1.745606 0.473695 -0.433377 1.566229 -0.865601 -0.788718 -1.716977 0.570812 0.861173 -0.464388 -0.558857 1.581028 -1.258535 0.357887 -1.504615 0.923299 -1.693308 -0.933170 -0.796476 -0.804464 -0.273328 0.752514 -0.954231 0.111958 -1.557124 1.174984 -0.987908 0.629180 1.971901 0.638663 -0.421260 -0.697308 0.654245 -0.304891 0.428357 0.865938 -0.838574 0.831218 -0.010314 0.607582 -0.188815 -1.046896 -0.554840 -0.409290 -0.095943 0.571119 0.671586 -0.941005 -0.174983 -0.743327 0.240167
all 0.351772 -2.274865 -0.383915 -0.457772 1.139540 -0.031978 0.493671 -1.663918 -0.428472 0.298332 -0.405400 -0.615151 -2.283113 1.606833 1.834574 0.334829 1.255313 0.701036 1.109817 1.103668 1.733441 1.647142 0.004087 -1.168572 1.660851 0.277541 -2.326888 0.676387 -0.960574 0.911238 -0.371093 0.392216 -0.156719 -1.377868 -0.976736 0.193496 -1.376583 1.068967 0.075067 -1.395437 -0.118435 -0.526554 -0.023273 -0.704157 -1.911961 -1.925166 -0.408525 -0.422551 2.251122 -1.919482 0.625027 0.402793 0.109280 -0.167389 -1.526053 -0.657448 1.053640 -0.501987 -0.154183 -0.823583 -0.264732 0.585700 2.143499 0.026329 0.309463 1.637405 -1.937624 2.217091 1.626131 2.043528 -0.714072 1.103279 2.594458 -0.255716 -1.425399 0.368453 -0.764364 -0.178260 1.310326 1.174511 0.520529 -1.513065 0.046673 -0.087279 0.685769 0.555561 1.883227 -2.039166 0.623036 1.616079 -0.924491 -0.050104 -0.789491 0.448568 -1.393205 0.138444 0.705347 0.944316 -0.916521 2.604316 -0.588848 0.016431 0.016678 -0.087574 -1.110844 -0.921967 0.534553 -2.743329 -0.595743 0.938989 0.462456 -1.711615 -1.517811 -0.883803 -1.077334 -0.894228 0.400925 2.232467 -0.169128 0.753242 1.509968 2.307638 -0.151789 -0.004031 1.063973 -2.128698 -0.153350 -0.946158
said -2.490945 2.488822 -1.062721 0.440310 -2.674046 -1.936076 0.735536 3.310001 -4.624710 2.658033 0.725869 0.499262 3.176823 -1.226387 -2.378943 0.897023 -4.175362 -3.220752 0.038152 0.029287 -0.813722 1.442121 -2.026860 -0.737051 -3.149985 -0.429770 -0.925194 -0.595896 -1.922469 0.443872 -0.294312 0.033570 -3.741818 -5.806189 -0.738802 1.164515 0.613291 -1.654540 0.403509 0.312749 -0.827018 -0.033702 -3.508731 1.626836 3.465885 0.739897 0.328016 0.608402 -0.272236 0.966357 2.288883 0.581505 0.681303 1.172953 0.509405 -1.607299 -1.181587 0.570890 -1.741675 -0.993949 0.362015 -0.428760 2.620638 1.922150 -1.486573 0.379169 1.818055 0.376775 -1.947768 -2.435751 -0.442321 1.456426 -4.002329 1.340152 1.852470 -2.405973 -1.100572 -0.463780 0.000152 2.192811 -0.113439 0.248853 -0.353094 2.156916 -2.918921 0.473669 0.313297 2.071881 0.528591 0.028807 -0.624743 0.140646 0.015609 0.131905 -2.816040 0.601337 1.643819 2.228625 2.881053 0.313559 -2.326089 0.050466 -0.818118 -1.773249 0.941309 -0.526879 -0.593228 0.043866 -1.169146 0.698389 0.746020 -2.524786 -1.239367 -2.558813 1.505651 1.682624 -0.686032 0.745397 -0.785909 -0.859615 -0.605919 3.325914 0.542829 -1.372695 0.607478 -0.185474 1.086789 -3.648384
she -0.391912 -0.853571 0.342391 -1.721146 -0.181396 1.610403 -1.803034 -1.330670 -0.994049 0.154613 -0.205705 -1.573147 -0.300195 -0.499212 0.625193 1.448877 -0.772507 -1.066133 -0.164197 1.096203 -0.173558 0.638367 -1.112751 -1.358352 0.823421 -0.267218 1.129971 0.310908 0.631705 1.880774 0.817889 -0.412945 0.297699 -0.606058 -0.193484 -0.987311 -1.187973 0.415081 -0.525818 -0.417402 0.052265 -0.652748 -1.008076 -1.317951 -0.486349 2.415987 -0.374930 0.894762 0.460083 0.368866 -0.606291 1.691418 0.118230 0.528872 0.811447 -2.398676 -1.003058 0.117468 -0.903918 1.851758 -0.596395 0.372808 0.123839 0.726983 -0.193996 0.194483 0.325281 -1.356173 0.777013 -0.460185 1.353143 0.846519 0.574140 0.073358 -0.005180 0.690064 1.761965 -1.094555 -1.045241 -0.188428 -0.033431 -0.195675 -1.262397 -0.445773 -0.389722 -1.424075 0.923103 -0.043551 -1.182625 -1.335627 -0.302263 -0.525153 -1.358710 0.647753 -0.791547 -0.975021 1.001477 1.286577 0.050623 0.137467 -0.226228 0.271614 -2.798949 0.540110 -1.903656 -1.047692 1.225767 0.387616 -0.210856 0.864148 -0.668653 0.883461 -1.639262 -0.066827 -0.910476 0.625033 0.035085 1.389125 -0.233464 -0.125102 1.414404 1.314968 -0.621532 -0.739047 -0.987803 -0.293397 1.734492 -0.078015
from -0.536085 -0.501544 -0.667660 1.075439 0.501878 1.622012 1.171447 -1.979817 -1.297592 0.780186 -0.070368 -0.230192 1.065212 1.251115 2.060686 -0.233353 0.129949 2.461625 2.058560 -2.346013 -0.534828 0.093727 0.366372 0.026021 -0.353736 0.966896 0.949026 -0.283812 0.880801 0.429747 0.231291 0.226433 -0.395555 0.880661 1.119842 0.160558 0.073608 2.099566 -0.076394 -1.320321 -0.286545 -1.046209 0.841253 1.388254 -1.815347 0.826542 1.373198 -0.021171 0.098753 0.541824 1.962874 0.007277 -0.283530 0.747114 -0.553260 1.745292 0.146421 0.249888 0.721573 -0.241122 -0.133368 2.046009 -0.656680 0.060966 -0.665731 0.390359 0.500927 0.604230 -0.012233 -0.083704 0.152905 -1.290445 0.406324 -0.314982 0.257910 0.001058 1.674064 0.181077 0.140792 -0.917062 0.434470 0.982946 1.094060 2.377869 -0.432884 -0.250053 -0.509867 -0.302598 -0.261516 -1.651478 0.440171 0.650415 0.515631 -0.669555 -1.612014 0.896949 -2.144629 1.579081 0.748860 1.877533 1.182202 0.369467 1.593911 -0.919008 1.254535 -0.624147 1.941034 2.185752 -0.070389 0.124930 0.845222 -1.669663 1.005662 -0.284359 -0.349919 -0.409293 -1.255969 -2.040725 2.113150 -0.155315 -0.909568 -1.718775 0.448946 0.646760 -0.492686 0.196775 -0.226963 0.113082
or 1.248942 -0.692503 -0.035386 0.000894 0.790460 0.191230 0.342650 0.015265 -1.607638 0.077789 0.176284 -0.780251 1.558362 1.561935 -0.284880 0.824109 0.934158 1.125873 0.989606 0.504407 0.583066 -0.134742 -0.636082 0.554018 -0.063112 -0.365314 0.667459 0.046901 0.406377 -0.343761 -0.898126 0.137369 0.019765 0.640034 -0.195375 0.253937 2.665183 1.428654 0.356045 0.626061 -0.344305 -0.955202 -0.682098 -1.677730 -0.371099 -0.599085 0.357039 -0.000832 -0.160376 0.186811 -0.158918 -0.917638 -0.602873 -0.779743 0.241279 -0.777021 -1.099875 -0.473802 -0.172882 0.287026 -1.178511 0.967427 -0.562943 -1.337216 -0.018448 -0.780841 0.194627 -0.391278 0.622403 -1.058198 0.173432 0.474289 2.072383 0.186043 -0.070654 0.710599 -0.669025 0.049434 0.368329 0.122806 -0.475027 -0.481443 0.754298 -1.078046 1.426919 -0.731246 -0.291304 -0.020626 -0.368621 -0.134814 -0.598973 0.274937 -0.928666 0.146514 -1.465503 -0.255479 -0.895856 0.878285 0.009616 -0.603950 -2.122909 -0.061755 -1.135927 0.477452 0.809584 -0.595183 0.885584 -0.551909 -3.149153 0.708320 -0.095037 -0.835910 0.158869 -0.145803 1.011104 0.836388 0.943391 0.938882 -0.900551 0.455491 -0.190981 0.610583 -0.438998 0.692671 -0.003934 -0.302018 1.227657 1.033378
they -0.882654 -1.506315 -0.538636 -0.545488 0.458418 -1.625590 -0.053594 1.914155 0.660155 -0.045999 -0.167870 1.225683 1.622810 0.729585 2.027663 1.969753 -2.545639 1.864874 -0.009346 1.464173 -0.029409 -1.637589 2.847644 -0.110558 0.810090 0.965262 0.250739 -1.536183 1.525733 1.279095 -0.055253 -0.974300 -0.077362 -3.228424 -1.934400 1.128303 -0.595738 -0.141408 -0.262585 -1.592194 -0.593654 -0.360662 0.098565 0.699060 1.858704 0.108977 0.193837 -1.588874 -0.189460 -0.659803 2.375345 0.352828 -2.042199 1.535716 1.039495 -0.234527 0.129102 -0.670958 0.740374 1.601999 1.086950 -0.799409 -0.243949 2.182280 1.446025 -2.103350 0.352797 -1.583448 -1.261059 -0.516273 -0.032006 1.203956 0.215761 0.140456 -1.228173 -0.622027 -1.725237 -1.646938 -0.185425 -0.104306 1.027526 2.340890 0.302660 0.041550 1.157787 0.979390 -0.052968 1.027790 -0.029791 1.563483 -1.704376 1.166605 -0.894976 0.809713 0.286061 0.826797 -1.832695 1.011342 -0.008694 0.244439 -0.856267 0.274840 0.179957 -1.125702 -1.742886 0.955358 -0.402693 0.074823 -0.672451 -1.258415 -1.083808 -0.039653 2.967564 0.279990 2.144803 0.526216 0.260971 -0.020942 0.248186 -1.042753 0.394721 1.271040 0.581011 -1.076216 0.059447 -0.646779 -0.540712 -2.145432
so 0.845583 0.395874 3.186080 -0.910186 0.794882 -0.017568 -2.336084 -0.072733 1.031207 -4.580156 1.091742 0.451282 -0.738883 1.773505 -0.029373 0.804280 1.791195 -1.614681 -0.456894 1.445591 1.149244 -2.200635 2.079401 2.795039 -1.427172 1.414564 0.943810 0.404655 0.784233 2.711921 -0.955887 1.821703 2.693479 0.954580 2.150796 0.347133 1.331935 1.410031 1.023188 0.488740 -0.053249 0.411429 -1.219099 -1.120071 0.710402 1.297432 -1.851669 0.443877 -0.118459 -3.787978 -0.348050 -0.919432 -0.284439 -5.076638 1.147428 0.866992 -2.068895 1.147229 1.903469 -2.958999 1.101529 2.572987 -3.293467 -1.527101 0.855325 -0.288141 -3.590258 1.312055 0.668361 1.396295 -1.633872 1.228196 3.849759 -0.371182 -1.377980 2.018524 -2.246614 -4.924453 3.585956 -1.377306 5.128476 0.361566 1.928950 -3.381686 3.139920 -2.000763 -0.458323 -1.313553 -1.535193 -0.543518 0.758115 0.812481 1.736495 0.762571 -3.464646 2.110072 0.460862 -0.687565 1.970115 1.033484 1.157374 -0.138259 1.761615 -0.769543 0.173856 -1.536575 -3.118589 0.579998 -0.474390 0.654525 3.378444 2.541690 -0.221633 1.268375 0.997089 -0.018008 0.605850 0.337890 0.254567 -1.428546 3.350117 0.645565 0.431271 0.528677 -0.636871 -1.509651 1.485341 -0.228037
are 0.886638 -1.633300 -0.974518 -0.738639 -0.214323 0.981562 -1.407904 -1.503587 0.857891 0.802818 0.185917 -1.119339 1.336574 1.456207 0.274238 -0.101478 1.758878 -0.637930 1.047916 0.461740 1.289046 1.137714 1.456598 0.095117 0.034535 0.550887 -0.093610 -1.078432 -0.391085 1.525320 0.266407 0.004640 -1.038238 1.686942 1.400676 -0.837272 0.147222 -1.342665 -0.649275 1.162746 0.917562 -0.329212 0.639951 0.641233 0.750305 -0.510786 1.032471 -0.607691 0.392931 -1.113350 0.017870 -0.752674 -0.156117 -1.667770 -0.003517 0.652383 1.850516 1.296457 0.546423 -0.167741 -0.983268 -1.102671 0.659174 0.003355 -0.309107 0.167744 -0.250601 0.043287 0.935488 0.942695 2.956625 -1.021036 1.097275 -2.814173 0.574312 -2.059166 -1.970776 0.810558 0.166882 -0.428951 -0.754915 0.916033 1.103087 0.924175 -1.294654 0.121638 1.343570 2.078834 -1.006875 0.755858 -0.307322 -1.188928 -0.082661 -1.480670 -1.741002 -1.691007 -0.059116 1.777655 -1.542166 -1.157495 0.642158 -0.832109 -0.010686 0.239624 1.581184 -1.095297 -1.653893 1.786830 -0.436241 -1.094495 0.795583 -1.477628 0.951975 0.646700 -0.878483 -1.108469 -0.486535 -1.330130 -0.109089 -0.600437 0.583944 -0.379133 -0.248105 -1.074751 -2.491732 -0.737831 0.453237 1.080603
one -0.802666 0.340799 -0.272581 1.239972 0.695413 0.406928 -0.896131 0.416187 -0.220995 0.432176 0.177615 -0.675195 0.242404 1.713090 1.024007 2.229487 -0.655859 -0.534147 1.496970 3.295002 0.559300 0.286930 2.210383 -1.438093 -0.536359 -0.122508 -0.771816 0.760843 2.023172 -0.843280 -0.297788 1.768951 -1.032048 -1.427669 0.809232 0.137214 -0.692115 -0.557629 -1.316033 0.362544 -0.761886 -1.196524 0.022550 -1.331360 0.151222 1.136659 0.108619 -0.404093 0.421563 0.638899 -1.583701 0.150554 0.547712 2.368008 0.388852 0.144764 -0.399260 -1.155460 0.225208 0.423053 0.497524 0.706757 2.472207 1.305828 0.141571 -1.307297 -0.248817 0.806937 -1.505328 -0.430783 2.019227 -0.363069 0.895035 1.308578 -2.260614 0.632885 -2.252361 1.741047 0.388692 -0.236855 -0.065650 -0.236831 -0.010712 -0.388319 -0.304229 0.446178 -1.105264 -2.366113 -0.014670 0.155871 -0.427783 0.994046 -1.263800 0.064562 -1.008679 -0.355434 0.709225 0.680394 -0.926222 -0.848281 -2.445559 -0.222676 0.486171 1.884255 0.293642 0.350015 -0.050611 0.754156 -0.213483 0.042159 1.234055 -0.673586 -1.229022 0.938680 -2.043174 0.038252 -0.622156 -1.276714 0.215611 1.693116 0.492181 2.054440 0.833398 -0.699685 0.146511 1.210400 0.409376 1.967637
were 0.611901 -1.223265 -1.931722 0.009652 3.109028 -0.081730 2.913443 -0.226742 0.746355 0.394295 -2.696037 0.273511 -2.132298 2.781875 0.902246 -1.975567 0.741519 -0.688237 -2.052507 2.569293 2.145293 -0.138519 -2.185813 -0.100136 1.716030 1.205416 -0.918983 0.331563 -0.565530 0.163246 0.683357 -1.367390 0.712705 -1.150855 0.582962 -2.333929 -0.671071 -1.276641 -0.668962 -2.477940 1.846870 -0.275489 4.652716 -0.233527 -0.405777 -1.854257 2.385715 -1.264320 -1.050543 -0.776034 -2.207252 2.647693 -0.668671 2.557046 -1.571442 -2.391062 1.534286 -0.703318 -2.898269 1.292132 -3.563572 -1.213691 1.036810 -0.505285 1.189690 1.369284 -0.600055 -0.775617 0.171337 1.554426 0.637856 1.436133 -1.164890 -2.312868 -0.470778 1.251074 0.101235 -1.926514 -2.134232 1.764683 -2.663147 -0.296419 -0.075531 -2.378988 2.014742 0.816762 -0.889240 -1.904742 4.184577 3.454580 2.036565 1.582044 0.800776 -0.484244 -1.291052 0.466625 0.996642 -1.354037 1.310399 2.086248 -3.578974 -0.021364 -0.286895 0.797583 -0.058256 0.715667 1.118285 -1.598337 1.912573 -1.711872 0.356329 -0.166807 -2.573715 -1.491902 -1.829409 -1.590360 3.303459 -0.043593 -0.672889 0.563364 0.457913 -0.940377 -1.772273 0.322640 3.393541 0.824955 1.027277 0.730420
what 1.546598 -0.633685 1.176592 -0.925990 0.570492 -2.178440 -0.323970 -0.531505 0.941584 0.994826 0.273713 0.857555 -2.082437 -1.703300 0.221997 -1.468550 -0.847444 0.111934 -3.177339 -2.139044 -1.027796 1.481840 2.029880 0.938774 -0.269122 -1.634137 0.749195 -1.992665 -1.506279 -2.296978 0.225599 2.810216 2.670383 0.573701 1.049591 -0.831208 2.434279 2.321385 1.192763 0.099719 -0.309392 0.436462 0.579928 -0.579281 -1.050754 -1.018548 1.728317 0.736477 0.149136 -0.081237 0.766609 -0.100390 -0.124135 0.522842 -0.435431 1.421344 -0.291710 0.329567 -2.652850 0.556403 -0.393220 -1.351742 -0.729132 0.909964 1.321945 -0.038102 0.512309 -1.615267 1.981766 -0.875111 -1.062266 0.959331 -0.240992 1.007010 1.155177 -0.141284 2.667131 -0.964866 -1.029396 -3.449480 -0.044133 0.296663 0.006754 0.362284 3.552967 -0.633635 0.771196 -1.740407 2.217067 0.362210 -0.366755 0.556036 0.178632 -1.461444 3.307127 -1.976448 -1.651072 -1.358881 -1.921454 -1.784371 2.240437 2.376912 0.752982 -1.710615 0.063719 -1.852512 0.915238 1.396275 -3.065691 0.643756 -1.661740 0.442931 1.954312 -3.108734 -2.171100 -1.206896 -1.675041 -2.524291 -0.284706 -0.051617 1.569901 -0.938536 1.095966 0.202929 0.136856 -2.068818 -0.428211 -0.508150
when 0.513668 -1.124178 2.027462 0.592890 -0.843692 0.610184 -2.379686 1.359600 -0.603773 1.696458 -1.795338 1.701696 -0.965090 1.714106 0.452586 0.250031 1.132512 -0.945336 2.615095 1.134974 -1.673813 -0.847765 -0.686237 1.120753 1.443406 0.212305 1.574898 -1.420719 0.911773 -0.677909 0.122740 -0.300786 -0.072107 0.240777 1.067252 -0.366615 0.854176 2.041822 -0.045948 0.581343 -0.958647 1.331711 0.421171 0.725754 2.182363 -1.297723 0.363496 1.716232 0.216125 0.923918 1.297066 -0.656448 -1.229602 -0.770551 1.674855 0.551973 1.144169 -0.092999 -1.350124 -1.448309 2.570123 0.262960 1.857182 1.642463 1.315989 0.141584 -0.819538 1.325447 0.618757 -1.091192 1.137876 -0.230330 0.348759 0.989634 0.758160 1.694842 -0.873605 2.514185 -0.493947 -1.716674 -0.365592 1.344571 2.356216 1.104244 0.410211 0.759301 -1.070658 -1.775682 1.466381 0.759669 1.308366 0.948987 -0.555485 -1.741619 -2.198276 -0.864414 -0.235268 -2.500576 -0.672061 2.514019 0.258979 1.226743 -0.152987 -1.590303 1.086158 1.398211 -0.309305 -0.210927 0.353686 -0.511697 0.515471 0.246036 -0.391337 0.460144 0.857745 -0.169214 0.933504 -0.631476 -1.847152 1.419143 0.074975 -1.807915 0.849521 1.956285 -0.547276 -0.679655 -0.797060 0.222763
no 0.876935 0.942076 0.423426 -0.972566 0.385710 0.239082 -0.315047 0.895838 0.726734 0.230968 -0.364676 0.599545 -0.178060 0.482924 -0.320208 -0.563815 -0.562764 -0.485316 0.687156 -0.004940 0.869301 0.668493 0.028146 -0.511073 -1.003790 -0.630332 -0.138741 0.538692 -1.154618 -0.369513 -0.207493 -0.039817 0.656214 -0.159556 -0.975029 -0.056763 0.101564 -0.472011 -0.417581 0.038701 0.414665 -1.282998 1.276323 -2.271247 -0.170647 0.058743 0.005116 1.036167 0.280734 0.143089 0.298986 0.149928 0.786191 -0.673026 -0.467828 0.067881 0.115932 -0.302881 -0.111599 -0.502201 -1.662298 0.421330 0.436601 0.691429 -0.175559 0.705238 -0.562596 0.999796 1.645937 0.883939 0.009288 -0.099893 2.094706 0.443465 0.368032 0.497225 1.715480 0.690945 -0.944273 1.124917 1.056248 -0.061027 1.006448 -2.069761 0.092090 0.308075 1.457438 0.289797 0.657782 1.760407 1.320526 -0.693481 -0.254718 0.605161 -0.446133 0.150413 0.745742 1.300912 -1.965234 0.267496 0.997243 0.806358 0.171881 -0.015801 0.122338 -1.244559 -0.257836 0.304300 -0.106246 -1.894939 1.795549 1.075591 -0.342147 0.207219 0.367927 0.242022 -1.799035 0.056153 0.237772 -1.091615 -0.093538 0.619957 1.294603 0.594374 -0.276158 -0.369439 0.295914 0.261109
if -1.752247 -0.783150 0.157886 1.151694 1.533395 -2.312781 -0.816345 1.718181 1.600925 -3.025602 -0.958910 -2.139799 -2.756206 -2.302003 -0.930751 0.080120 1.223821 1.650524 0.797938 0.635790 -0.960069 1.543402 -3.267216 -0.876710 -0.081794 -3.527850 0.662950 2.420578 -2.190158 -0.771116 -3.470973 -1.556348 1.851750 -3.488396 1.044823 2.896015 0.999222 -0.730476 -1.543145 0.943286 0.377979 -0.561432 0.750636 -0.616137 0.980495 1.244359 1.509347 -0.805267 -0.825077 -1.220166 -0.377800 -3.015395 0.493979 0.710249 -0.751437 -0.258745 0.504843 -2.997477 -0.787354 1.745901 1.507840 0.416387 -0.440295 1.480835 -0.658645 0.620816 -0.542780 -0.190577 -2.595940 -0.592177 0.157354 -0.876386 2.007947 -1.005338 -1.237073 -1.160815 -2.941705 1.332168 -3.351398 -1.534879 -0.310705 0.277380 1.287026 0.251229 1.381559 -1.023556 2.506225 -1.528389 -1.693069 0.789981 -0.870789 2.603235 -1.766830 0.018368 -1.228465 -1.791287 -0.458335 2.495944 1.186512 2.628804 0.762603 1.081431 -1.513205 -2.993208 1.601376 0.867147 2.706844 -0.504243 -0.518675 1.025751 1.368964 2.761245 -2.814120 -0.893484 1.985101 -0.656753 -0.096534 -2.856308 1.092669 1.325569 0.674883 1.162023 -1.976077 1.142327 0.315233 0.900168 -2.016154 1.606534
there -3.041440 1.340668 -1.366329 2.420949 0.811683 -1.096258 1.801164 0.259532 -2.263069 -0.481114 0.219724 -1.938674 1.367153 -1.043527 0.681705 2.036712 -0.372294 -1.666888 -1.205772 -1.089945 2.900859 -2.036246 0.327620 0.228857 0.084068 -3.006515 0.006662 1.699977 -3.084970 0.246687 1.847902 -0.050311 -1.722922 -2.420721 0.413007 0.662411 0.073246 -0.443412 0.318513 -0.602406 -1.745020 0.182447 -2.078570 2.386090 2.155277 -0.129349 -0.588880 -1.976758 0.623256 -0.694211 2.017445 -1.057369 2.084596 -0.502798 -0.021830 1.104420 -0.813562 -0.598604 -0.085399 -0.020009 0.650581 1.042317 0.920438 1.584930 -0.672397 0.273611 -1.431668 0.216532 -3.785935 -1.339810 0.181843 0.659455 -3.417473 -0.171246 0.213680 1.081386 -1.113134 -1.821988 -2.204635 0.531826 -1.649985 -0.655120 1.385332 -0.524524 0.783755 0.177114 0.181505 1.523545 1.773663 -1.140741 -1.364395 2.182057 -1.332009 0.549509 -2.429086 -0.675140 0.527257 1.365524 2.675529 -1.623341 0.688059 -1.130617 -0.659305 0.138602 0.089254 1.497583 -1.379150 -1.832035 0.612946 -1.126870 -0.636087 -0.733012 -0.521910 1.255738 -0.168974 1.704573 0.665043 0.483671 1.252278 -0.095891 0.922770 2.731531 0.096872 -0.173958 0.745821 0.345018 -1.355853 -2.386739
who 0.505771 -1.436322 2.220770 0.624605 -1.507055 -1.231680 0.103177 0.218262 -0.263013 -1.193904 -0.252538 1.215000 0.503797 -1.421703 0.449798 -0.652863 0.312501 2.052417 1.946064 1.276312 -1.113369 -0.719847 0.534080 0.806688 -0.411053 0.207462 -2.246898 -0.587748 1.031724 -1.630509 -1.968000 0.286295 -3.056614 0.389476 -0.449056 0.088600 0.837560 2.524451 1.009871 0.452562 0.543767 1.066148 0.724999 0.089613 0.621690 0.097875 -1.718580 -0.294706 -0.865604 -1.535826 1.209532 -0.524384 0.324793 -2.718765 2.238762 -0.213109 -0.241724 0.245516 -0.717643 -0.205575 0.282130 -0.250960 -1.186305 -1.112426 -1.238215 0.684492 1.128284 -0.485892 1.373943 1.581256 -0.155047 -1.765049 -0.784513 1.083711 -1.124999 -1.927311 0.382091 0.612131 0.278039 -0.020909 2.492000 -0.386492 0.085107 -1.355676 -0.242494 -1.299717 -0.644632 -0.952158 -0.423248 1.643318 2.418069 -0.618863 1.032844 0.403944 -1.578971 0.060770 -3.149312 -1.483055 -0.898276 1.059329 0.476274 -1.176229 0.761567 -0.914501 -0.965733 -1.223585 -0.868733 -0.230436 -0.506613 -0.063048 0.428172 -2.210856 0.376940 0.147718 1.635622 1.103039 -1.543054 0.638185 1.291064 2.402331 0.566698 -2.734369 0.567559 -1.782377 -0.247627 -0.168069 -0.304833 -0.290935
we 1.574067 -1.843853 1.966463 1.241236 0.840548 1.805941 0.901508 2.098464 -1.992673 -1.705313 1.291365 -1.340253 -1.040459 -1.240802 1.951925 -0.013064 0.134399 -2.494349 1.027942 3.450781 3.045981 0.943353 2.360854 -2.036816 -1.425991 0.695392 1.710517 2.634597 1.371821 -1.896776 -3.806983 0.154997 -2.894237 -1.744266 0.965446 1.200330 0.278406 -0.586715 -1.792645 1.272678 0.180978 4.148087 -1.685705 -1.341229 1.483742 -2.625945 0.097011 0.265677 3.497102 0.695073 -2.107091 0.910916 -0.392273 0.555863 0.922090 -2.159480 1.694031 -1.071302 0.985633 1.612372 0.346617 -2.418540 -0.495004 0.945912 -1.260889 2.330049 2.619604 -0.662997 -2.149709 -3.025775 0.592895 0.354859 -0.497623 3.490640 -0.752157 -1.813543 -1.045141 0.263379 2.593036 -0.088874 0.631878 -0.294599 0.598983 -0.746382 -0.574791 -0.052227 0.597939 1.135751 -0.738538 -0.525296 -0.275034 1.115719 -0.498131 -2.097504 2.384365 -2.120065 1.273468 0.461785 -0.623744 1.997675 -2.487967 0.662764 0.485320 0.778943 -0.119365 1.275185 -0.487643 -0.562757 0.336239 -1.167931 0.256578 1.617124 0.196962 -1.433103 -1.617543 0.198319 -1.337087 1.231018 0.392580 -0.107832 -0.540699 1.213364 -0.012943 0.777455 0.961755 -3.211817 0.355737 -1.574296
will 0.481905 -2.874739 -0.733263 0.715114 -0.341695 -0.399363 1.485734 0.117571 -0.083825 -0.720430 -0.192986 0.095421 -2.454094 1.168373 1.429066 -1.163485 0.455589 1.482336 1.004440 2.202691 1.411532 0.771261 -5.608693 0.432325 -0.485109 -1.698752 -1.624390 -0.516118 0.402641 -1.382873 -0.290022 -0.513541 2.322484 -1.262606 1.228326 2.517293 -0.795735 -0.552891 -2.094230 0.005236 1.790255 0.452478 1.069117 -1.790509 0.526250 -2.547171 1.008316 0.162063 -1.753419 -1.515762 -0.097775 3.068803 0.116660 -2.290730 -1.036836 1.867552 0.243868 -0.773251 -1.993678 -1.007139 -1.672850 -0.747752 -1.596126 2.237584 -2.475158 0.171652 1.352443 0.049757 -2.508893 1.946450 -1.783978 -0.766336 2.726554 -0.271333 0.145211 0.015706 -3.822973 -1.141743 -1.117214 3.400312 -2.178181 -1.737218 -0.088925 -1.872636 -0.058337 0.564335 -1.032014 0.287966 -0.351183 0.461696 -0.515822 0.098719 -0.064255 3.039902 -2.964259 -0.020181 0.477029 0.940354 0.349531 0.103248 -0.476052 -1.150685 -0.083115 0.785134 0.824167 1.061110 -2.044459 0.189680 -0.329303 -0.324728 2.389043 1.982867 -1.902089 0.339234 -0.129663 0.250564 -0.115526 -0.120329 -1.240850 -1.338433 0.846373 0.267679 -1.456091 -0.018405 1.368875 0.555608 -1.712656 -0.134740
an 0.442127 0.272128 1.206190 -2.211262 0.392287 -0.124369 0.537471 -1.038007 1.791438 2.590507 -1.867819 -0.470794 -2.485884 -0.165103 0.421540 -0.437540 -0.285123 -0.792554 0.130233 -0.466446 1.811226 -1.118784 0.481929 -1.172904 -0.047269 -1.003190 -2.907974 -0.063226 -2.560229 -2.034714 0.579631 -0.132723 0.492258 -0.941721 -1.363286 -2.113247 -1.567569 -1.677303 1.577604 -1.007784 -1.192523 -0.623430 1.474477 -1.196073 1.135570 0.706993 -1.129608 -0.550506 -1.745103 -1.431860 -0.468076 2.521554 1.367113 1.114009 -0.423057 0.170301 1.799751 -1.905406 0.647970 0.934656 0.190378 -0.752821 1.287513 2.622414 -0.110637 -1.733958 -2.120831 -0.632642 0.036925 -0.794392 -0.724910 2.343178 -0.125982 -1.614917 -0.843784 0.405837 1.791643 -0.668991 -1.759251 1.255710 -1.803573 1.032493 -1.158501 -1.663576 -1.842657 -1.572292 0.363032 -1.102485 1.647196 0.873086 2.340626 1.967955 -0.685804 1.145055 -0.822713 0.408941 2.484531 1.244958 -0.332106 -0.256098 0.988045 -0.331308 0.583358 2.673929 -1.016107 -1.693091 1.559862 -1.570148 -0.460029 -0.772216 0.116856 -0.688363 -1.123107 0.147230 -1.289760 1.278841 1.314886 -0.318632 -1.124808 -1.074430 2.942642 -1.634398 -0.380861 -1.695478 1.704767 -1.652150 0.539711 1.948755
then -1.391454 -0.190528 -0.450645 -1.041806 -0.592260 2.076675 2.639257 -0.686083 0.340810 -0.862062 1.046795 0.145528 2.146966 0.756274 1.208109 -0.191466 -2.183109 1.309781 0.181112 0.917573 1.748735 -0.063860 -1.254502 1.414259 -1.665232 -1.661975 -1.462593 2.335510 -2.025131 0.251413 -1.319450 0.421817 -1.170634 -0.646501 -0.547012 0.242422 -0.433408 -1.009788 -1.777793 -0.227421 -1.330919 1.397559 -1.257721 2.197987 1.911651 1.614937 -2.511876 0.821360 2.284762 0.780466 -0.795588 2.589603 -0.087301 0.718505 2.793508 -0.555769 0.396938 -0.460348 0.642691 -0.998499 1.781912 -0.005954 0.162027 0.850186 -2.108105 -0.788885 -1.512552 -0.193981 0.468300 2.516728 1.505225 -0.575017 -0.765866 1.780349 2.599699 -0.005071 -0.763797 0.275000 -0.488075 0.625406 -0.608738 -0.844188 1.510630 0.519847 -2.111410 1.559932 0.457477 -0.008504 -1.578432 -0.563882 1.583634 0.061207 -0.442310 1.536842 0.395279 -0.084029 1.024011 0.463074 -0.191940 0.500551 1.170449 -2.154266 -1.533155 -0.212664 -1.141664 -1.279679 0.574034 0.985750 -0.436529 -0.376652 0.689430 0.667040 -0.513577 -3.238668 -2.361564 0.433205 0.106734 1.118735 -0.197373 -0.604336 1.515276 -0.027098 -0.383378 -0.267718 0.700498 -0.829139 1.296420 -3.916648
their -2.952386 0.861462 1.284810 -0.022382 0.343504 -0.702051 -0.760154 0.857594 1.133323 0.405793 0.729077 0.610768 -1.527734 0.533086 0.911958 -0.735878 1.667091 -0.585924 1.513945 0.326161 1.499574 -0.248214 -1.735551 0.273151 0.249806 -0.737370 1.395912 1.012373 0.532195 -1.115037 1.376948 -0.374530 -0.365164 -1.555143 -0.308549 0.087717 -0.590156 -0.257404 1.611440 -0.913335 -1.949437 1.541999 0.443799 0.068114 -4.065597 1.275129 0.784310 -1.003269 -0.890716 0.220307 2.692790 0.490026 0.969343 1.102636 1.006966 1.630460 0.214806 -0.544208 -1.121341 1.540611 -0.266903 0.207062 0.166782 1.141010 0.925393 1.976909 0.524893 0.460709 1.072406 -0.367458 1.575607 1.117887 0.768571 0.964075 1.260437 -1.918960 -0.613770 -0.253378 -2.390241 -1.216443 -1.094815 0.548242 0.743005 -1.674648 -0.583757 -2.286644 0.685726 1.237663 0.280019 1.217841 -0.152796 0.702627 0.408266 1.934100 0.079470 -0.353703 0.496463 -0.563010 -0.756262 -0.969817 -0.750568 0.106861 1.171812 1.181317 2.009560 -1.438336 0.865463 -1.552720 -0.891807 -2.018594 0.905240 0.373192 -0.893909 0.174797 -0.139439 -1.624385 1.344227 -2.098391 0.685400 0.511888 0.787500 0.104968 1.022154 -2.396768 1.695607 -0.560282 -2.895006 0.717036
would 0.077457 0.212067 -0.710808 1.064882 -1.199852 -0.697102 1.019754 1.483505 -1.433692 0.040251 1.152458 0.929301 -0.913884 1.094611 0.293942 0.524924 -0.391776 -0.999016 2.855965 -1.742169 -1.391283 -0.668599 1.429244 0.070971 -1.532142 -0.115017 1.532810 -0.735166 0.434551 -0.289188 -2.867102 0.276443 0.257692 -0.800736 0.422013 -0.163417 2.167985 0.262365 1.559799 0.444494 -1.481005 -0.371466 -2.414098 0.366664 -0.436387 -0.434992 0.715036 1.828822 0.823740 0.437341 0.798544 1.210185 -0.332810 -0.075432 1.761977 1.849689 1.925020 1.797419 1.132646 -2.221699 -0.219260 -0.518341 0.265726 -2.682477 -0.289576 -0.221715 -0.208306 1.980148 -3.313543 -0.974966 -1.636835 -0.667984 0.961691 2.375971 0.032882 -0.172089 -2.866789 -1.073055 -0.470964 -1.638465 1.519170 -1.127432 -2.209044 1.084821 -0.143497 -0.293280 3.030947 2.309526 0.180243 1.022386 -2.260647 0.412019 -1.344531 1.955357 -0.753635 -1.468325 1.451296 0.467962 -0.657201 1.842272 0.862587 0.845292 -1.206092 1.002488 0.407639 0.825709 0.614546 0.477385 -1.505928 -2.256232 1.304156 0.332977 2.499329 1.435026 1.548580 -0.110852 -1.354012 0.249516 0.145381 1.396603 0.830336 0.315079 1.851110 -0.929641 -0.503381 -2.548429 0.353184 0.695222
them 0.414932 1.183611 1.261713 -0.535248 -0.393707 0.593990 -0.759620 0.440871 -0.088504 -0.380400 -0.660075 1.210033 -0.317224 -0.281350 0.399903 0.724499 1.165646 -0.575924 -1.841766 0.709821 2.414481 -1.154962 0.064954 -0.084439 1.212634 -0.100345 -0.310964 0.412646 -1.144558 -2.334766 0.610086 0.464031 0.349643 1.486479 1.046444 1.384659 0.640621 -0.269863 -1.620381 -0.148487 1.951351 -1.413279 0.075808 -0.127451 -0.118895 -0.260674 -0.121148 0.937926 -0.745519 -1.049731 -2.296555 1.942383 -2.511309 -0.509472 0.733724 -0.564034 -1.235401 -1.246500 -0.253506 -1.058428 -1.242870 1.621329 0.708139 0.889065 0.421670 -0.004956 1.124653 -0.207479 0.299260 3.379372 -1.292704 -1.439959 0.091318 1.587356 0.281800 1.046832 3.201785 -0.388237 -1.527847 0.969053 -1.693437 0.576237 -0.053116 -3.155330 -0.118839 0.041123 0.354598 -1.098790 2.851444 -0.155539 0.268238 0.897511 -3.415223 0.070365 0.131267 -0.014477 -0.188988 0.853688 0.280481 -0.471541 -0.821613 0.920062 2.913269 1.134985 1.410474 -0.474264 1.939301 -0.667719 0.963264 -1.216227 1.159463 1.566903 -1.406111 -2.046149 -3.470151 -3.212848 0.092443 -0.382845 0.945196 0.480476 0.867339 0.178506 -1.438444 0.769175 1.951801 1.537971 -1.184357 0.478208
been -1.233180 -0.549401 1.533015 -0.537248 -0.263718 0.834821 1.631296 -0.013032 -0.022202 -0.433953 1.213212 -0.331741 0.231463 1.036198 -0.974944 0.849568 0.022106 0.089274 0.070106 0.162052 0.332475 -0.759381 2.347744 -1.134978 -0.225502 -1.406188 -1.567906 0.172027 -0.371443 -0.469697 -0.760502 -0.309500 1.575020 -0.148311 -1.015233 -0.900270 0.077082 -1.163274 0.642195 1.419359 0.715511 -0.466541 -1.543044 -0.541923 1.481948 -0.305467 1.307262 0.801407 0.258866 -0.635176 -1.624188 2.443132 1.909274 0.114854 -0.522833 -1.253188 -0.313613 -0.758839 0.012892 -1.079262 -0.554553 -1.596657 0.522067 -1.146273 -0.248733 1.285072 -1.892874 1.014198 1.456566 0.405844 -0.208931 0.048294 2.190190 -0.389952 0.934132 0.898290 -0.855105 0.125081 1.083417 1.449253 1.999261 0.221712 2.137347 -4.214004 0.560609 0.291570 -1.712451 0.287823 -0.395451 1.501066 -0.430523 -0.613271 -0.205595 -0.147999 -1.491705 -2.093379 -0.971132 -0.319087 1.230124 1.020317 -1.457834 1.389320 -0.480479 -0.417529 0.363459 2.349844 2.480266 -0.048319 -0.057019 0.127768 0.669140 0.560640 -0.182600 0.566346 -0.664914 -3.898060 0.794365 0.151174 0.692508 -2.355490 1.495962 -1.272425 -1.288486 -0.809722 2.807750 0.500277 1.190595 -0.885172
do 0.112961 -0.445941 -0.219026 -0.318197 -0.306146 2.162133 0.803524 -0.272601 -0.222806 -0.051760 -1.662913 1.493715 -0.284576 0.488242 1.725641 0.165796 2.505773 0.530461 -1.585823 2.512962 -0.432016 -1.177432 -1.901488 1.373168 2.243349 -0.289684 2.552259 0.540437 0.750491 -0.074684 1.044069 1.190885 0.437125 0.561793 0.269289 -0.740493 -0.596987 0.891906 -0.644258 -1.846347 0.279539 -1.650823 -0.677740 -2.173393 -1.066471 -2.151391 0.197117 -1.202453 -0.850761 0.587552 -0.856083 -2.138755 0.588804 -1.592445 -0.758051 -1.231285 -1.280454 -0.290350 2.277611 0.907675 0.750794 -1.506732 -0.545433 -0.787813 1.271835 0.672742 0.262418 1.574351 -0.204520 -0.988601 -1.196261 -1.895859 -1.673897 -0.589516 1.307786 -0.189861 0.067567 0.684520 0.022853 0.754370 -2.098621 -0.970758 0.400534 0.112448 0.499001 0.266527 -0.667466 -4.190579 0.235019 0.367219 -0.954874 -1.143715 1.351979 -0.866822 -0.126449 -0.443006 -1.839354 -0.238654 -1.518148 -0.093361 0.332664 -0.601005 2.523098 1.526013 -0.189073 -0.971617 3.062644 1.096790 -1.227190 -2.186449 0.833550 0.436412 -0.484809 2.226715 -0.151020 -1.591262 0.648562 0.088147 -0.730712 0.510372 -1.144804 -0.065818 1.893484 1.140528 1.651007 2.572387 -1.396913 -0.587611
your -1.724739 0.930495 -1.416529 0.085822 -0.239538 0.655900 1.810023 -0.329802 -0.504636 -0.567684 0.040365 -0.485662 -0.636277 0.278712 -0.388439 -0.772249 -1.458637 0.199525 -2.453925 -0.758544 1.378159 -0.086234 0.557726 0.955913 0.783543 0.413774 -0.592805 0.957929 -1.428979 -0.971915 -0.447133 -1.976511 1.058846 -1.127681 0.298109 -0.027215 -1.286610 -0.378221 0.844183 -0.333024 0.745243 -0.058654 -0.519832 -1.273176 -0.452390 -0.656622 -1.932203 -0.196215 -0.106483 -0.053576 0.680491 -0.552204 -0.867735 0.955354 0.184519 2.171115 1.367390 0.896245 -0.970659 -0.907792 -1.753358 2.591607 0.081875 0.902033 0.919425 -0.538032 -0.039274 0.604945 -1.379423 0.401208 -0.567480 0.224512 0.605513 -1.436046 -0.275537 -0.208500 0.189023 -1.125350 -2.324940 -0.689305 1.169063 1.831194 1.782108 -0.222171 -0.586319 0.556216 1.010871 -1.178626 1.038292 0.938796 -0.282451 -0.443849 -1.834873 -1.328757 0.254819 -0.079140 0.799055 -0.828441 -0.035708 0.229335 1.517483 4.050113 -0.012315 -0.038667 2.162801 1.543241 0.598006 1.146463 0.343919 1.016159 0.496064 1.705615 0.839373 1.001436 -0.551850 1.116082 -0.050108 -0.606172 -0.808479 1.049163 -1.624718 0.994102 1.065098 1.431121 0.249729 -0.017596 0.595865 -0.506887
now -0.469406 -1.567394 -0.133968 -0.103216 1.006184 1.247107 0.548962 3.390803 0.492661 1.130240 0.978875 -1.098003 1.277713 -1.541520 0.449603 1.355837 -3.211301 0.628532 -0.162355 2.587410 -0.625498 -0.776491 -0.525470 2.619000 -1.062948 -1.766981 2.748221 0.395808 0.880440 1.747672 -1.610760 -0.713266 0.500035 -0.217346 -0.024237 1.326767 1.163074 -1.599817 -0.684511 -0.478340 1.171596 -1.298782 -1.770185 -0.684355 0.487291 1.132901 -0.375511 -0.373247 0.223470 -0.159726 -0.494942 -1.553526 0.989114 2.380181 -2.645393 -0.109255 0.352607 -1.431190 1.612255 0.063843 -0.139140 0.477530 0.504171 -0.893884 -0.283039 2.529691 0.469242 1.276405 0.575900 -0.365691 0.524618 0.428164 -0.682264 -1.096848 -0.500357 0.673659 -0.487184 -1.732143 0.500119 -1.684745 0.528240 0.241097 -1.495024 -0.414307 -3.637778 -2.510557 -0.404518 1.326119 -2.091205 -0.585327 0.453147 -0.002420 -0.666664 1.456427 -0.627063 0.758341 -1.637263 0.847307 -0.255498 -1.677477 1.660580 1.808705 -0.482092 1.056419 1.330647 0.264130 0.411500 -1.978841 1.992749 0.312572 -1.093829 2.092524 0.665612 -1.361457 -0.395750 0.976015 -0.696788 0.338897 3.355559 -0.484461 0.605316 1.279452 -1.247661 0.920721 -0.128805 -0.120031 0.414036 1.489291
out -2.846381 1.234505 2.460528 0.827872 -0.399223 -2.087694 -1.153781 0.139328 0.103802 -2.555764 -1.024224 0.072423 1.254381 -0.086433 3.270721 -0.073470 -0.016367 -1.616474 1.617245 0.626245 -1.611618 0.614027 -1.558571 1.462239 1.431992 2.437924 -2.549841 -0.743756 0.324497 1.447328 2.316557 2.819526 0.822465 1.070655 2.830614 1.005243 -1.262354 3.111346 -0.966643 -0.230726 -0.014514 -1.681656 -2.084806 1.091334 1.377750 -0.092297 0.983838 -1.682443 -1.414524 1.052929 -1.809803 -1.093752 -0.404934 1.076005 -0.944250 2.257038 -2.129261 -1.211419 -2.356983 0.175030 -0.176443 1.325084 0.745604 0.303504 0.837886 -1.411541 1.803332 -1.226958 0.735935 2.075689 -0.178712 -1.485757 0.378573 0.122764 -1.206287 -0.454245 -1.758193 4.059136 -1.684964 -2.157121 0.437194 0.271630 -1.133276 -0.626895 -0.329043 -1.458471 0.787296 -3.959336 2.502234 -0.423696 0.368046 1.762405 -2.877611 3.106076 -0.077848 0.192207 -0.731855 0.335089 -0.381939 -0.595775 0.194932 -0.059305 0.631530 1.519531 0.751540 -0.427336 -1.770773 0.520395 -1.056997 1.247803 -0.432144 -0.710616 1.699305 0.262030 0.160004 -1.709334 -0.414460 -0.762784 -1.483478 -1.670614 0.020449 -0.067612 1.612628 -1.468891 -0.096674 0.031734 1.152802 0.212576
more -1.335210 0.587978 -0.047881 -0.028242 -0.290718 -1.227661 -0.009741 0.349121 0.668130 0.835452 -0.147691 -0.917952 -0.272279 -2.063261 -0.898366 0.133376 -0.976123 1.174131 -0.998408 -0.005276 -0.049260 0.156713 0.450109 -0.835318 -0.615565 0.642030 -0.498780 0.663409 -2.420053 -0.379524 0.318759 0.306892 -0.536811 -0.982887 1.081026 -0.343696 -0.890823 0.007673 -0.369424 -0.139030 1.452099 1.949592 1.458014 0.467986 0.097869 -0.035705 -0.073338 -0.827759 0.029016 -0.486508 -0.278883 2.177743 -1.134734 0.421866 -0.134525 -0.010119 0.927061 -0.053881 0.115220 -0.007974 0.476766 0.323467 1.536388 0.470645 0.701448 0.836165 0.914211 -0.061902 1.312354 -1.175003 0.594805 0.307008 -0.013357 0.085352 0.374611 0.527063 1.154690 0.728818 -0.570363 -0.012570 1.111997 0.841065 -0.826912 0.633360 -0.101147 -0.327203 0.042731 0.212993 -0.287875 1.087855 1.165737 -0.311485 -0.097181 -2.054861 -0.033887 0.702480 -0.831891 -1.396965 -0.156116 0.348009 1.205662 -0.162113 -0.426905 -0.209287 0.839277 0.585943 -0.198865 -0.395746 0.879353 -2.110979 0.267120 -0.425282 -1.309486 -0.148584 0.527597 -0.271338 -0.159333 -0.221488 1.691255 -0.358715 1.996437 0.352069 0.670810 0.281989 -0.418541 0.744635 -1.355162 -0.873220
up -2.941609 -0.888921 0.167597 -1.564735 3.276965 -1.628479 -0.286177 -3.091110 -4.070244 -1.450994 0.138271 0.266443 -2.607903 -0.668344 2.513440 -0.191149 -1.822806 -1.836152 0.051823 0.182537 -0.781586 0.127168 -0.574283 1.393530 0.787283 -0.946561 2.168140 1.488799 -2.536410 -0.445341 -1.316210 -1.449414 1.267158 -0.543293 0.326624 4.181589 -2.615974 2.014933 1.667715 -1.225098 2.378146 -0.970776 -1.169662 -0.524668 -3.160971 -0.384566 2.656018 -0.534613 -1.177181 1.359032 3.767247 -1.519138 -0.953598 1.207487 0.696818 2.576107 -1.586590 -1.175082 -0.215067 -2.087400 2.013246 2.668097 0.347040 0.744683 0.518542 -0.381193 -3.203413 -0.003997 3.917135 -1.239272 -1.341783 1.680974 -0.864526 -1.385037 -0.894614 -0.755499 2.397229 0.270969 -3.222457 -0.724863 1.456106 -2.334250 0.427924 0.691203 -2.622988 1.494297 0.519597 -0.182958 1.407868 1.535009 3.341527 1.540258 -0.034024 3.142410 0.254628 -0.854801 -1.743135 0.258565 -1.029475 -0.288468 -1.462868 1.403069 2.575840 1.439661 0.587527 -2.104276 0.277357 0.311243 -2.312559 0.851579 1.736136 -0.791722 3.067942 -3.915302 -1.740056 0.993775 4.809333 0.377077 0.579681 -0.587561 0.902348 2.538963 -1.478043 -0.404658 1.453456 1.665554 -1.203529 2.799222
man 0.559920 1.303223 -1.517867 0.468014 1.235892 -0.412867 0.790452 1.895373 1.164710 0.201810 2.734897 -1.677097 -0.365831 1.835087 0.046308 0.279011 -0.967432 0.569733 2.524117 -2.320576 -2.178028 -0.609610 1.394088 -1.475186 3.057392 -1.981920 0.820480 0.273896 0.944593 -0.318765 1.714266 -0.531326 1.417073 1.261664 -1.755492 -0.503463 0.918703 0.091234 0.290139 1.440090 -1.540680 0.222214 1.920587 0.795171 -0.303164 -1.482021 0.197745 -1.568970 1.440573 1.920589 0.163992 -2.113553 -1.128091 -1.096595 -0.864094 2.289792 -1.168040 0.017036 -1.292823 -0.411818 1.466376 2.550555 -0.445910 -1.107608 0.859193 -1.082908 -1.292094 1.504586 -2.593167 -0.926058 1.032370 -0.272699 0.291901 -1.071641 -1.497948 -0.424674 0.443520 -1.396136 -0.612347 -0.521854 0.115149 0.744086 -2.245836 2.645119 -2.965114 -1.808967 0.825691 1.927546 0.937884 -0.292537 0.409962 -0.669642 -2.913610 -0.603515 -1.098795 1.578680 -0.039152 0.254692 1.025575 -4.261836 1.217122 -0.054903 -0.795586 0.335362 -0.946730 -1.586115 -0.130758 -0.246531 2.332716 1.252656 -1.008207 2.216202 -1.128309 -0.734141 0.299475 -0.743865 -0.536088 -0.697647 0.427607 2.929370 1.200280 1.521123 -1.042067 -0.277337 1.049312 2.205566 -0.216457 -0.230118
into 0.348897 0.881044 0.939014 -1.409670 -0.842480 0.995914 1.145732 0.263938 -0.110690 -1.769369 2.153837 -2.182676 1.052499 2.095926 0.942067 -0.243053 0.165110 1.014767 -0.912863 0.539424 0.107308 0.619613 0.097966 0.520071 0.282753 0.555295 -0.165099 -1.449055 0.663661 0.140384 1.208203 2.499526 -0.920734 0.250722 0.357999 1.552746 0.824262 3.237307 -1.241164 -0.709843 1.328965 0.372000 -1.583641 0.754627 0.207867 -1.427616 -0.415675 -1.128823 2.019744 0.634962 -1.358081 -1.427309 0.725137 -0.025036 2.779495 -0.402938 0.053208 2.675224 -0.744520 0.103373 0.371767 -0.695796 0.621495 0.217981 -0.404703 1.840268 1.350860 -0.427047 2.161933 -2.330984 1.341077 1.938323 1.232985 0.353801 -1.375072 -1.314134 0.214241 1.280282 -0.481807 3.134368 2.659616 -0.633619 0.514893 0.079647 -0.577727 -0.805118 0.927650 1.636100 0.611482 -1.587652 -0.072329 -0.824334 -1.082024 0.622377 -1.437266 0.233998 -1.764505 0.170166 -3.090721 2.114398 -0.295384 0.326025 0.544565 -0.068263 0.213138 -0.019920 -0.113937 -0.843077 -0.098523 1.415132 -1.278011 1.360320 -0.194496 0.449647 1.197848 1.133729 -1.633933 -0.312554 0.852633 0.659041 -1.791667 1.085260 1.026390 0.227513 -0.103383 0.711848 0.803288 -2.137699
some -1.549211 1.298982 -1.172007 -0.480875 -0.188739 -2.168344 -1.235917 0.067418 -2.606376 -1.259845 -0.076832 0.148781 -0.463513 0.336596 -0.830921 -0.140620 -0.092351 -2.213154 -0.112815 3.104692 1.410358 0.113977 -2.341308 -2.017855 2.128791 2.177678 -0.305363 0.731493 -0.382356 -1.147752 -1.041386 0.293047 0.158137 1.261323 0.765778 0.667040 -2.166198 0.841046 -0.213593 1.499282 1.057276 0.463886 0.639060 -0.742905 -0.925795 -0.096264 0.821284 2.176614 -0.236638 0.959255 -0.297001 -0.025436 -0.091083 0.263602 -0.576739 -1.869576 0.055419 -0.534618 0.466173 -1.022595 -0.918544 -1.014146 0.364838 0.140910 -0.322379 -1.444714 -2.110807 1.819982 0.956895 -2.166576 -0.613640 0.088689 3.422855 0.941527 0.385367 -0.077932 0.881046 0.449118 -0.283732 1.505134 0.847316 -2.312452 -1.373621 0.342114 -2.573026 -0.472703 -1.455566 -2.084938 0.361008 3.714367 2.077574 2.424581 -0.977466 -0.545162 0.346328 -1.317568 -1.301905 -1.300404 0.876714 -0.498268 0.114718 1.402379 1.148662 0.765380 2.099658 1.573246 -0.571522 1.973089 -0.885455 1.442314 0.355556 -0.634936 0.796366 0.579160 -0.768018 0.614542 -0.305399 -1.649019 -0.601434 -0.187927 1.886109 -0.893558 -1.232759 -1.124608 2.494558 2.767115 0.985610 0.041997
could -2.107213 0.018240 -0.672873 0.247813 -0.727466 1.422532 0.711347 0.284977 0.117067 -2.004678 2.234138 -0.543749 -2.441743 2.026908 1.517709 1.104561 1.056502 0.382219 0.222937 1.825698 -0.878237 0.344658 0.632887 -1.972157 0.474775 0.096823 2.180187 -1.163270 0.115569 0.658938 1.486763 -0.077165 0.130214 0.749977 0.323729 1.884829 -1.491876 0.686444 -0.629026 -1.945714 -0.042322 1.930434 -0.088567 0.010014 0.192118 1.765906 0.916177 1.885006 -0.420080 1.297947 0.962417 -0.808454 -0.482831 1.047468 -0.651060 0.862190 -1.201265 -0.735173 -0.332373 -0.117017 -0.109363 -0.835913 -0.908594 -1.630589 0.171277 0.505849 -1.148307 2.474263 0.508544 1.005662 0.672364 -0.414161 -0.682583 0.539968 0.093873 0.387915 -0.283968 0.186727 0.212133 2.171644 -0.992191 -0.077700 0.332589 -1.328569 -0.271609 0.885037 1.110791 -0.387463 -1.520647 -0.261240 1.833342 0.394152 -0.432229 -1.177940 -1.155036 0.306789 0.046559 -0.137299 0.149921 -0.077156 -0.529520 -0.985084 -1.758263 -0.084962 -0.414172 2.210641 -0.351065 1.025868 1.249223 -0.103843 2.351703 -0.420893 0.169006 2.694531 0.703617 -1.157961 0.105269 1.004917 -1.555899 0.191588 -1.175035 1.584497 -0.126956 0.238986 -1.205399 -2.169464 0.680187 1.363370
has 0.877415 -1.142294 -0.984524 0.863467 1.022424 -1.586768 -2.584073 -0.846614 -0.122899 0.311954 0.509008 -0.010807 2.098592 -0.749125 -0.057993 -0.565378 0.399925 1.177897 -0.397585 -0.247018 -2.571918 -0.054562 -0.020771 0.701703 -1.883711 1.135136 0.028968 -0.275991 -0.186063 0.234027 0.012539 0.427291 -0.603356 -0.358574 -0.773232 -0.018905 0.208371 0.703389 -0.915253 -0.150223 0.513511 -1.826030 0.590540 0.681554 0.488667 0.049732 2.465633 -0.262451 -1.112516 -0.451393 0.985978 0.140439 -1.021303 -0.997982 0.456038 1.214212 -0.916991 0.109656 -0.504652 0.795424 0.625902 0.663521 -0.825156 0.861897 -0.823837 -1.945762 -0.307172 -1.391655 -0.509310 1.020543 0.374549 -0.877287 0.949418 0.162366 0.120880 -0.200538 -0.073512 0.386313 -0.171778 -0.027980 -0.612292 0.148750 0.900779 0.886757 -0.267450 -0.578397 0.688404 0.377747 0.951611 -0.020205 0.298304 -0.918799 -0.658939 -0.251072 1.172088 1.076653 0.166009 -0.055756 -0.063183 -0.159600 0.889747 -0.160473 0.381417 -0.371641 1.047634 0.115436 -1.052472 -0.161499 -0.032294 -0.486419 0.768060 -0.583131 1.070197 -0.431584 0.004528 0.163171 -1.289344 0.508027 -0.708463 0.889259 1.489638 1.144211 1.292311 2.022789 -0.449708 -0.079190 -0.378928 0.325824
only 1.302250 0.599454 1.294254 -0.510955 -0.641544 -0.067735 -0.946145 -0.723706 -0.331272 1.472371 -0.415312 1.875495 0.391307 0.636208 1.812394 2.469118 1.921461 0.698482 -0.332896 2.196740 0.288336 -0.661041 -0.292415 1.213746 1.760661 0.191080 1.327358 0.072233 -0.172078 -1.667808 -0.607719 -0.254941 1.747046 -1.124231 0.639145 -0.919923 -0.340678 1.029437 0.715295 -2.033223 1.372835 -0.917170 -0.301197 0.333249 1.252299 1.491236 -0.778672 1.769877 -0.245956 0.567909 -1.907314 -0.268902 0.098878 0.635538 -0.463195 1.093019 0.134508 -2.916964 0.104894 0.191265 -1.345346 0.974552 1.293302 2.500583 -2.469768 -0.108973 -0.213902 0.972794 0.048968 0.194490 0.159684 -1.328583 0.050982 -0.329574 0.925888 -0.324238 0.404612 2.050987 1.040210 -0.071236 -1.031589 0.703821 -0.271390 -1.346590 -1.961763 -0.877580 -2.597856 -1.004176 1.064470 0.804798 3.320540 0.136596 -0.331282 0.456070 1.321384 0.377091 -0.224018 -1.645416 -0.780339 -0.488150 1.846242 0.454713 0.189198 -1.005774 -0.806102 1.595398 0.510022 0.259936 -0.638622 -1.534595 -1.507762 -0.228918 1.034260 0.639082 2.076700 -0.685220 -0.252177 -0.135867 -2.038297 -0.648500 -0.325324 0.821869 -2.251379 1.007392 -0.008133 1.253148 -0.551942 1.363825
any 2.376297 -0.279125 -3.184823 -1.784110 0.552534 0.329425 0.495934 1.170671 0.585756 0.193336 -1.557722 -0.712826 -2.931064 -1.746151 1.132762 -1.659201 -1.566985 1.305505 0.977892 3.739645 0.705754 -0.482861 -1.757739 0.806040 1.996237 1.907775 1.598290 2.083747 -0.088328 -0.482381 0.428346 -0.677063 1.095458 -1.020217 -0.345009 0.601874 -0.052070 -0.505522 2.163968 0.040962 -1.139967 0.561656 1.079190 -2.782931 2.160968 -0.537502 1.724776 3.335752 -0.453155 -0.971064 -0.415067 -1.445327 0.002366 0.252229 -2.490270 0.873868 -0.263770 1.380084 -3.019920 -1.749017 -2.187654 -0.693856 0.157872 -0.549062 -0.982994 -3.605619 -1.498600 -1.764891 0.027621 0.098833 -0.863508 -1.675525 0.065318 1.287174 -2.146964 0.365072 1.036015 0.655106 -1.655451 -0.709591 0.796394 -1.424516 0.401358 -3.044739 0.572600 -0.235687 1.040709 1.187940 -0.310194 3.005221 0.766588 0.140880 -1.731241 1.066018 0.023959 0.088689 1.164516 1.177585 2.007176 0.714893 3.078884 1.729529 2.044797 0.690297 -1.011718 -0.217453 -1.154032 1.999774 -1.427264 1.963536 2.274237 -1.253629 -0.821526 -3.492868 -1.196818 1.482017 1.641348 -1.640420 1.984757 -1.152040 -2.056233 0.849772 1.125469 -0.049630 1.347000 -0.154550 0.842124 1.744689
very 0.362431 0.915994 -0.306470 2.624226 -0.875054 -3.963874 -0.908057 -2.910924 -2.098947 -0.463510 -0.088837 -0.736081 2.266746 0.448952 -0.774862 0.231618 2.937449 -1.147582 1.291444 -0.329668 -1.076658 1.212344 -2.519119 1.748884 -0.184071 -1.727313 -0.484527 0.315172 -0.265646 -0.493850 1.906779 0.336401 -0.611542 -0.739731 -0.515397 -0.485668 2.977100 -0.293598 -0.249731 0.113197 -0.230910 -1.150481 1.091455 0.720354 0.397967 0.994056 -2.860016 1.699032 -0.447568 -2.783527 -2.686500 -0.933265 1.163827 -1.287172 0.497334 0.378700 2.561100 -1.504533 -0.823727 -3.647943 0.250689 5.251084 -1.139379 -0.291448 1.487368 -0.550377 1.550371 2.017584 0.390608 0.029796 0.319445 0.355922 1.342741 -0.419638 -0.848050 -0.255667 0.844406 -0.822375 0.367855 -0.097352 2.336108 -0.817711 2.547816 0.155697 -1.946900 0.404241 2.077558 -2.119698 1.667616 -1.059655 0.876176 -1.833348 -0.801282 -0.872121 -1.555318 0.303803 -1.603614 -0.104790 1.387168 -0.725716 0.314360 -1.150248 -0.323746 -0.308259 0.221935 1.658278 1.138915 -0.121354 -0.634607 -0.621384 3.997922 0.539074 1.652313 0.853909 3.410410 0.625254 3.143951 0.752170 -0.448075 -0.512155 1.078288 -0.884186 -2.390223 0.627438 -2.451051 -1.084607 1.278389 -0.265133
like 1.944802 1.002834 -0.347313 1.818302 -0.578840 0.385151 0.669902 -0.574553 2.456102 -0.941677 0.320168 -0.503542 -1.286291 -0.868580 0.792933 -0.176082 -0.128411 0.070691 1.706409 -0.824949 -0.608482 -0.325086 -0.263449 0.337077 -1.171514 0.896528 -0.144276 2.142223 -2.875422 0.459689 -0.425932 -1.062777 -1.851261 -0.439273 -0.644618 -0.293188 0.845856 0.547322 -0.654072 0.945253 -2.229759 -1.332900 1.151453 -0.174816 1.047290 -0.085636 0.632126 -2.087915 1.226187 -0.423262 -0.092402 -2.312529 1.660643 0.612497 -1.325413 1.936469 0.584392 1.502200 1.466334 0.751396 1.461884 1.591409 1.675494 -1.335079 2.342876 -0.724003 -2.984942 0.106083 -0.148533 0.201844 0.384274 1.166154 -0.037496 1.264475 1.083685 0.675094 -0.795707 -0.967476 2.850387 -0.076182 1.641522 0.566113 0.512704 0.258144 2.099596 1.611101 0.973275 -1.562674 1.324013 -1.969138 0.741914 0.755897 2.057507 -2.116938 -1.892299 2.991408 0.825809 -0.436469 -1.438599 0.140778 2.593333 0.371762 0.682771 -0.729347 1.154718 -0.064966 0.947343 -2.435341 1.467481 -1.193507 -1.936070 -1.129158 -0.372799 -0.643932 1.001953 0.717689 -1.656850 3.031565 1.328981 -0.426254 -0.784884 -0.394887 -0.850208 1.668694 -1.037272 -0.374159 -0.677690 -0.788482
did -0.473421 1.909140 0.814474 0.563552 0.519909 -1.679732 -0.949758 -0.139816 -1.139071 1.600138 0.738436 -2.647898 -1.362310 -0.102194 1.471360 -1.602370 0.413808 0.484145 0.566288 0.989286 0.368354 0.078108 -0.017046 -1.275350 1.489919 0.481801 -0.120052 -1.590060 1.187563 -2.440397 -1.338644 -0.626254 0.587816 -2.146789 0.007923 -0.253326 -0.151965 -0.612707 1.204149 0.506103 0.310346 -0.060682 -0.586231 -1.220598 -0.496124 -0.172316 -0.435209 -0.078220 -0.156151 -0.522392 -0.597250 0.106901 -0.538991 0.041069 -0.829377 0.089780 -0.449355 -1.507424 -0.984966 -0.627108 -0.286179 1.256754 -0.352591 -1.736894 0.392439 -0.068667 0.233384 0.477601 0.003653 -1.102759 0.110594 0.076892 0.023657 0.304471 0.192329 0.663686 -0.636734 -0.296144 0.623158 0.735846 -1.128848 1.254256 1.379726 -0.445865 -1.546401 0.867500 0.009316 -0.498447 -0.083817 -1.224676 -1.562414 -0.311689 -0.817594 -0.108893 1.161835 0.129170 -1.567394 0.294198 1.709423 0.227514 0.800921 0.136583 -0.032929 -0.353121 -0.476602 -0.412983 0.313380 0.088385 -1.501198 -0.894278 0.260467 0.795920 -0.398547 0.297615 -0.093623 -0.368707 -0.374108 -0.440417 0.668192 1.443776 0.506254 -0.255330 -0.935498 -0.639103 0.072539 -0.074544 0.765752 1.310109
time -0.150728 -0.382120 0.062111 -0.129205 -0.519253 -0.451189 0.270954 -0.282385 -1.085843 -0.298420 0.344219 0.170698 -1.218414 0.142601 -0.257754 0.045983 -1.415560 -1.064776 -0.282923 0.342347 0.924420 0.095173 0.044185 -0.582669 -0.888562 0.129964 0.101781 1.454602 -0.260736 -1.565254 1.973939 0.310198 2.392703 -2.119088 -0.372844 -0.482046 -1.293728 0.738512 -1.309965 1.790215 0.783872 1.083264 0.535373 2.807492 1.119402 -0.243642 -0.142638 -2.059500 -0.063135 -0.262845 -0.659721 -1.131492 -0.229724 0.256687 -1.767702 0.958172 1.011529 -0.978524 -0.700249 -0.410938 -1.027773 1.058630 0.924854 3.156976 -1.933024 -0.217446 -1.529833 -1.788130 1.142814 0.656629 1.970072 -0.072788 -0.149628 0.093545 0.824793 -1.688193 -1.329695 -0.008087 -0.916207 1.816363 -0.150535 0.250583 -1.567209 0.519718 -0.463814 -0.959268 -0.447877 -0.512782 0.038225 0.357377 2.728681 1.451007 -0.744188 -1.579490 0.045059 1.242643 0.830127 -0.110386 -0.401620 1.200315 -0.608727 0.223973 -0.957502 1.048278 1.053132 1.192306 -0.187346 0.172391 -0.519860 -0.736326 0.470915 -1.156291 -3.449378 -1.608758 0.087438 0.707160 -1.518763 -0.679975 -0.195555 -0.424419 -0.204203 -0.710721 0.794876 -0.735197 -1.961504 0.304464 -1.188910 -1.234907
its -0.705422 0.687676 -0.437213 0.349696 2.185190 0.323989 0.189786 -1.378827 0.125696 -1.256843 -0.672022 -0.494532 0.594846 0.673327 0.358915 1.602975 -0.951196 -1.026428 -1.094573 -0.195827 -1.410625 0.166912 -0.255187 0.923877 -0.541801 -0.781386 0.269848 0.172070 -0.865952 0.936864 1.364899 -0.668906 1.257374 0.116468 0.093104 0.620071 0.776311 0.223185 -0.438310 -0.487528 0.657068 -1.432245 0.167421 0.172724 -0.942159 0.023562 2.529322 1.361515 -0.573582 0.045731 0.274827 0.278912 1.640483 -1.673736 1.104492 -0.979027 1.133538 1.573641 -1.358214 0.468925 0.253397 -0.207772 0.450983 -1.088290 -0.085723 0.988865 0.349741 -0.119529 -0.181026 -1.536944 -0.414848 -1.547948 -0.693405 -0.295697 0.837248 -0.198156 1.846993 -0.743993 -0.302948 1.557770 -0.552197 -1.124201 1.293050 -1.504324 0.456578 -1.205767 0.444055 -0.966960 2.478802 0.828279 1.148876 -0.546879 -1.626311 -0.199692 -0.588799 -0.409369 -0.473510 -0.185845 -1.200492 -0.081026 -0.383122 -0.139736 0.155808 -3.012827 -0.021028 -0.052799 1.057782 -0.511600 -0.191673 -0.541495 -0.760662 -0.838568 -1.412323 0.493935 2.255450 -0.383617 0.812987 -0.379994 -0.187065 -1.212595 -0.929891 1.123040 0.298550 -0.868625 0.264100 -0.353868 -0.577668 -0.524766
than -1.687058 -1.759205 0.581690 -1.154290 -2.903822 -1.075754 1.286784 -3.699403 -1.583259 -2.398010 1.116208 -0.315396 1.357828 1.929558 2.796080 -0.115946 1.675990 -1.613962 -2.340523 -1.421890 -0.010340 0.961361 -1.373210 -0.241695 -0.403118 -1.176870 0.700254 -0.069867 0.942725 1.235859 0.806190 1.098832 0.079614 1.987040 -1.430682 0.738944 -0.534890 1.425046 0.047190 0.878069 -0.339500 -0.532313 0.422538 -0.924726 -1.371332 0.693130 0.773112 -0.830319 1.114025 2.309456 -0.482401 -1.897874 1.267062 0.834179 0.361514 0.138702 -1.586287 1.132304 0.306913 -0.753123 -0.384016 2.968097 -0.457858 -1.751543 -0.883828 -0.500777 -0.239824 -1.640019 1.362167 0.529175 -0.697078 1.315560 -0.849161 0.251367 4.149425 -1.118366 0.181268 -1.120255 -1.584159 -1.286169 -0.125172 -0.476327 1.589693 -0.186890 0.248479 0.220196 0.283392 0.107113 0.909886 0.522902 -0.138702 0.034183 -0.803341 4.037659 0.336847 -1.654807 -2.203799 -1.199143 0.536725 -0.627621 -0.752641 0.225233 2.044869 1.199454 -1.300060 -2.422871 -1.324388 0.821535 0.352529 0.078341 -0.884297 0.276573 -0.581814 1.093753 0.195825 0.952317 1.004826 0.212528 -1.380093 -0.311991 0.461137 0.354544 -0.839867 0.404621 0.017229 -1.591113 -0.306736 0.772236
other 0.209099 0.054193 1.325412 -0.000279 0.021207 1.454272 -1.432819 -1.227363 -1.180895 0.273390 0.832770 0.533929 -0.116703 1.396182 0.539546 -0.070039 0.609859 -2.159079 0.332975 0.645571 3.248014 0.080011 -0.532365 -0.876264 -0.112419 0.016254 -1.276673 -0.705643 0.123290 -0.814956 0.898567 -2.519605 0.491696 0.758019 -0.445201 -1.784414 1.720049 1.811408 0.361681 1.726730 1.735457 0.793184 -0.052308 -0.211838 0.181686 0.517496 -0.962105 -0.192692 0.874477 0.555752 -0.374630 2.340688 0.884614 2.588340 2.174068 -0.079240 1.715596 0.557167 0.369843 0.579077 -3.517229 2.476758 1.564497 1.661668 -1.866452 0.186910 1.415942 -1.999617 1.508335 1.591492 -0.633599 -2.433048 -0.191598 -0.453910 -1.485042 0.424416 0.854297 1.099279 1.396594 -0.536268 1.057964 0.155561 -1.184161 -0.896753 0.059624 0.605035 -2.011535 0.384608 -0.715292 0.100608 0.111170 0.631676 0.020236 -2.861678 0.933174 -1.587627 1.484412 1.179661 -0.395855 -3.052886 -1.347040 -0.143971 -0.666304 1.251994 0.164785 1.347177 0.216990 -1.450979 1.590677 -1.984596 -2.068446 0.339310 -2.386389 0.513404 -0.511161 -0.878386 -0.757315 -0.256931 -0.679189 -0.249472 -0.556627 -1.229936 -3.074700 1.436387 1.360519 1.533520 0.718852 -2.168561
before 0.700094 2.625758 -2.075340 1.486082 -0.951050 -0.808383 1.306708 0.135446 2.780684 -0.883134 -0.754207 0.530499 -1.251517 -0.608061 2.186745 -1.935451 -1.205817 1.172853 -2.645380 1.491310 1.180312 1.563408 0.395041 0.165866 1.941830 0.791971 2.196824 1.093673 -1.071758 1.079080 -3.227327 1.953665 -0.765684 -2.476944 -0.014124 -2.193040 0.843081 3.489914 -1.159210 0.555532 0.206202 0.430506 -0.735923 -0.040650 0.479819 -0.471067 -1.149323 -0.529160 -0.717366 -0.078143 -2.199203 2.478701 3.130831 0.523744 0.874787 -0.181778 0.990270 -0.205735 0.156711 0.351087 0.792652 -1.322489 0.055518 2.197250 1.396895 3.903819 1.232312 -0.041330 0.913327 -0.773187 -1.148913 0.125831 1.747371 -1.235904 -2.906294 -1.198527 1.400000 0.973734 -0.324409 1.534569 -0.081155 3.069104 0.720078 -0.464336 -1.081611 0.733052 -0.330297 2.018919 -0.470662 -1.146598 -1.854830 1.793587 -2.738845 -1.089497 -2.519667 -0.147132 -1.193567 -1.428318 -1.631842 -1.556622 1.372937 0.794782 -1.643840 -0.083127 0.666804 0.254506 0.500643 0.397572 -0.289470 -0.443298 -1.073863 0.919564 1.502546 -1.486196 0.995182 -0.736369 -0.743576 -0.687724 1.340378 -0.589716 -0.108202 1.003794 0.787544 -0.928436 0.029077 -2.652919 0.681488 1.984811
about 0.083380 0.987794 -0.308336 0.072623 -1.966240 -1.464890 -0.996547 -0.624175 -0.081547 0.395281 -0.678391 0.324820 1.086310 -0.552392 1.051181 0.241586 -0.360172 -2.477574 2.218260 1.588516 -1.416071 -1.023721 0.422174 -2.143397 -0.813957 -0.557860 -0.838664 1.706565 -2.004368 -1.078609 -1.481150 1.532135 -2.235506 -0.920722 0.475464 -0.411458 1.734393 0.784332 -2.673364 0.096068 -0.219238 -0.929931 -1.883301 0.155568 0.097340 -1.888573 -0.801371 0.659795 0.503271 2.349467 0.672553 -2.337606 0.960007 -1.263229 0.601155 0.705326 0.461855 1.009620 0.743958 -0.658520 0.813212 0.175918 -0.277500 1.349735 -0.133408 -1.728958 0.880461 -2.434678 1.835969 -2.160403 2.635682 -3.033761 -1.448114 -2.566608 1.946897 0.355648 -0.062252 1.295019 0.543702 0.768949 1.288406 -1.116898 1.030787 -0.643118 0.342926 0.185207 0.175760 2.421240 -1.548062 -2.212999 -0.764486 1.184387 0.498738 0.424881 0.840701 1.696415 0.031747 -2.331056 -1.706661 -0.552168 -0.444001 -1.261661 0.163271 0.347772 1.033350 -3.338751 -0.107726 -1.860227 -0.494054 0.670519 -0.564995 0.317654 -2.022207 -0.258335 0.476015 -1.870116 1.142846 0.205166 -1.016045 -1.413561 1.048810 -0.796813 2.248467 0.873707 -0.518322 -1.590501 0.051737 0.212353
